<?xml version="1.0"?>
<opencv_storage>
<opencv_ml_svm>
  <format>3</format>
  <svmType>C_SVC</svmType>
  <kernel>
    <type>LINEAR</type></kernel>
  <C>100.</C>
  <term_criteria><iterations>3000</iterations></term_criteria>
  <var_count>14700</var_count>
  <class_count>4</class_count>
  <class_labels type_id="opencv-matrix">
    <rows>4</rows>
    <cols>1</cols>
    <dt>i</dt>
    <data>
      0 1 2 3</data></class_labels>
  <sv_total>6</sv_total>
  <support_vectors>
    <_>
      0. 0. 0. 0. 0. 0. 0. 0. 0. 0. 0. 0. 0. 0. 0. 0. 0. 0. 0. 0. 0. 0.
      0. 0. 0. 0. 0. 0. 0. 0. 0. 0. 0. 0. 0. 0. 0. 0. 0. 0. 0. 0. 0. 0.
      0. 0. 0. 0. 0. 0. 0. 0. 0. 0. 0. 0. 0. 0. 0. 0. 0. 0. 0. 0. 0. 0.
      0. 0. 0. 0. 0. 0. 0. 0. 0. 0. 0. 0. 0. 0. 0. 0. 0. 0. 0. 0. 0. 0.
      0. 0. 0. 0. 0. 0. 0. 0. 0. 0. 0. 0. 0. 0. 0. 0. 0. 0. 0. 0. 0. 0.
      0. 0. 0. 0. 0. 0. 0. 0. 0. 0. 0. 0. 0. 0. 0. 0. 0. 0. 0. 0. 0. 0.
      0. 0. 0. 0. 0. 0. 0. 0. 0. 0. 0. 0. 0. 0. 0. 0. 0. 0. 0. 0. 0. 0.
      0. 0. 0. 0. 0. 0. 0. 0. 0. 0. 0. 0. 0. 0. 0. 0. 0. 0. 0. 0. 0. 0.
      0. 0. 0. 0. 0. 0. 0. 0. 0. 0. 0. 0. 0. 0. 0. 0. 0. 0. 0. 0. 0. 0.
      0. 0. 0. 0. 0. 0. 0. 0. 0. 0. 0. 0. 0. 0. 0. 0. 0. 0. 0. 0. 0. 0.
      0. 0. 0. 0. 0. 0. 0. 0. 0. 0. 0. 0. 0. 0. 0. 0. 0. 0. 0. 0. 0. 0.
      0. 0. 0. 0. 0. 0. 0. 0. 0. 0. 0. 0. 0. 0. 0. 0. 0. 0. 0. 0. 0. 0.
      0. 0. 0. 0. 0. 0. 0. 0. 0. 0. 0. 0. 0. 0. 0. 0. 0. 0. 0. 0. 0. 0.
      0. 0. 0. 0. 0. 0. 0. 0. 0. 0. 0. 0. 0. 0. 0. 0. 0. 0. 0. 0. 0. 0.
      0. 0. 0. 0. 0. 0. 0. 0. 0. 0. 0. 0. 0. 0. 0. 0. 0. 0. 0. 0. 0. 0.
      0. 0. 0. 0. 0. 0. 0. 0. 0. 0. 0. 0. 0. 0. 0. 0. 0. 0. 0. 0. 0. 0.
      0. 0. 0. 0. 0. 0. 0. 0. 0. 0. 0. 0. 0. 0. 0. 0. 0. 0. 0. 0. 0. 0.
      0. 0. 0. 0. 0. 0. 0. 0. 0. 0. 0. 0. 0. 0. 0. 0. 0. 0. 0. 0. 0. 0.
      0. 0. 0. 0. 0. 0. 0. 0. 0. 0. 0. 0. 0. 0. 0. 0. 0. 0. 0. 0. 0. 0.
      0. 0. 0. 0. 0. 0. 0. 0. 0. 0. 0. 0. 0. 0. 0. 0. 0. 0. 0. 0. 0. 0.
      0. 0. 0. 0. 0. 0. 0. 0. 0. 0. 0. 0. 0. 0. 0. 0. 0. 0. 0. 0. 0. 0.
      0. 0. 0. 0. 0. 0. 0. 0. 0. 0. 0. 0. 0. 0. 0. 0. 0. 0. 0. 0. 0. 0.
      0. 0. 0. 0. 0. 0. 0. 0. 0. 0. 0. 0. 0. 0. 0. 0. 0. 0. 0. 0. 0. 0.
      0. 0. 0. 0. 0. 0. 0. 0. 0. 0. 0. 0. 0. 0. 0. 0. 0. 0. 0. 0. 0. 0.
      0. 0. 0. 0. 0. 0. 0. 0. 0. 0. 0. 0. 0. 0. 0. 0. 0. 0. 0. 0. 0. 0.
      0. 0. 0. 0. 0. 0. 0. 0. 0. 0. 0. 0. 0. 0. 0. 0. 0. 0. 0. 0. 0. 0.
      0. 0. 0. 0. 0. 0. 0. 0. 0. 0. 0. 0. 0. 0. 0. 0. 0. 0. 0. 0. 0. 0.
      0. 0. 0. 0. 0. 0. 0. 0. 0. 0. 0. 0. 0. 0. 0. 0. 0. 0. 0. 0. 0. 0.
      0. 0. 0. 0. 0. 0. 0. 0. 0. 0. 0. 0. 0. 0. 0. 0. 0. 0. 0. 0. 0. 0.
      0. 0. 0. 0. 0. 0. 0. 0. 0. 0. 0. 0. 0. 0. 0. 0. 0. 0. 0. 0. 0. 0.
      0. 0. 0. 0. 0. 0. 0. 0. 0. 0. 0. 0. 0. 0. 0. 0. 0. 0. 0. 0. 0. 0.
      0. 0. 0. 0. 0. 0. 0. 0. 0. 0. 0. 0. 0. 0. 0. 0. 0. 0. 0. 0. 0. 0.
      0. 0. 0. 0. 0. 0. 0. 0. 0. 0. 0. 0. 0. 0. 0. 0. 0. 0. 0. 0. 0. 0.
      0. 0. 0. 0. 0. 0. 0. 0. 0. 0. 0. 0. 0. 0. 0. 0. 0. 0. 0. 0. 0. 0.
      0. 0. 0. 0. 0. 0. 0. 0. 0. 0. 0. 0. 0. 0. 0. 0. 0. 0. 0. 0. 0. 0.
      0. 0. 0. 0. 0. 0. 0. 0. 0. 0. 0. 0. 0. 0. 0. 0. 0. 0. 0. 0. 0. 0.
      0. 0. 0. 0. 0. 0. 0. 0. 0. 0. 0. 0. 0. 0. 0. 0. 0. 0. 0. 0. 0. 0.
      0. 0. 0. 0. 0. 0. 0. 0. 0. 0. 0. 0. 0. 0. 0. 0. 0. 0. 0. 0. 0. 0.
      0. 0. 0. 0. 0. 0. 0. 0. 0. 0. 0. 0. 0. 0. 0. 0. 0. 0. 0. 0. 0. 0.
      0. 0. 0. 0. 0. 0. 0. 0. 0. 0. 0. 0. 0. 0. 0. 0. 0. 0. 0. 0. 0. 0.
      0. 0. 0. 0. 0. 0. 0. 0. 0. 0. 0. 0. 0. 0. 0. 0. 0. 0. 0. 0. 0. 0.
      0. 0. 0. 0. 0. 0. 0. 0. 0. 0. 0. 0. 0. 0. 0. 0. 0. 0. 0. 0. 0. 0.
      0. 0. 0. 0. 0. 0. 0. 0. 0. 0. 0. 0. 0. 0. 0. 0. 0. 0. 0. 0. 0. 0.
      0. 0. 0. 0. 0. 0. 0. 0. 0. 0. 0. 0. 0. 0. 0. 0. 0. 0. 0. 0. 0. 0.
      0. 0. 0. 0. 0. 0. 0. 0. 0. 0. 0. 0. 0. 0. 0. 0. 0. 0. 0. 0. 0. 0.
      0. 0. 0. 0. 0. 0. 0. 0. 0. 0. 0. 0. 0. 0. 0. 0. 0. 0. 0. 0. 0. 0.
      0. 0. 0. 0. 0. 0. 0. 0. 0. 0. 0. 0. 0. 0. 0. 0. 0. 0. 0. 0. 0. 0.
      0. 0. 0. 0. 0. 0. 0. 0. 0. 0. 0. 0. 0. 0. 0. 0. 0. 0. 0. 0. 0. 0.
      0. 0. 0. 0. 0. 0. 0. 0. 0. 0. 0. 0. 0. 0. 0. 0. 0. 0. 0. 0. 0. 0.
      0. 0. 0. 0. 0. 0. 0. 0. 0. 0. 0. 0. 0. 0. 0. 0. 0. 0. 0. 0. 0. 0.
      0. 0. 0. 0. 0. 0. 0. 0. 0. 0. 0. 0. 0. 0. 0. 0. 0. 0. 0. 0. 0. 0.
      0. 0. 0. 0. 0. 0. 0. 0. 0. 0. 0. 0. 0. 0. 0. 0. 0. 0. 0. 0. 0. 0.
      0. 0. 0. 0. 0. 0. 0. 0. 0. 0. 0. 0. 0. 0. 0. 0. 0. 0. 0. 0. 0. 0.
      0. 0. 0. 0. 0. 0. 0. 0. 0. 0. 0. 0. 0. 0. 0. 0. 0. 0. 0. 0. 0. 0.
      0. 0. 0. 0. 0. 0. 0. 0. 0. 0. 0. 0. 0. 0. 0. 0. 0. 0. 0. 0. 0. 0.
      0. 0. 0. 0. 0. 0. 0. 0. 0. 0. 0. 0. 0. 0. 0. 0. 0. 0. 0. 0. 0. 0.
      0. 0. 0. 0. 0. 0. 0. 0. 0. 0. 0. 0. 0. 0. 0. 0. 0. 0. 0. 0. 0. 0.
      0. 0. 0. 0. 0. 0. 0. 0. 0. 0. 0. 0. 0. 0. 0. 0. 0. 0. 0. 0. 0. 0.
      0. 0. 0. 0. 0. 0. 0. 0. 0. 0. 0. 0. 0. 0. 0. 0. 0. 0. 0. 0. 0. 0.
      0. 0. 0. 0. 0. 0. 0. 0. 0. 0. 0. 0. 0. 0. 0. 0. 0. 0. 0. 0. 0. 0.
      0. 0. 0. 0. 0. 0. 0. 0. 0. 0. 0. 0. 0. 0. 0. 0. 0. 0. 0. 0. 0. 0.
      0. 0. 0. 0. 0. 0. 0. 0. 0. 0. 0. 0. 0. 0. 0. 0. 0. 0. 0. 0. 0. 0.
      0. 0. 0. 0. 0. 0. 0. 0. 0. 0. 0. 0. 0. 0. 0. 0. 0. 0. 0. 0. 0. 0.
      0. 0. 0. 0. 0. 0. 0. 0. 0. 0. 0. 0. 0. 0. 0. 0. 0. 0. 0. 0. 0. 0.
      0. 0. 0. 0. 0. 0. 0. 0. 0. 0. 0. 0. 0. 0. 0. 0. 0. 0. 0. 0. 0. 0.
      0. 0. 0. 0. 0. 0. 0. 0. 0. 0. 0. 0. 0. 0. 0. 0. 0. 0. 0. 0. 0. 0.
      0. 0. 0. 0. 0. 0. 0. 0. 0. 0. 0. 0. 0. 0. 0. 0. 0. 0. 0. 0. 0. 0.
      0. 0. 0. 0. 0. 0. 0. 0. 0. 0. 0. 0. 0. 0. 0. 0. 0. 0. 0. 0. 0. 0.
      0. 0. 0. 0. 0. 0. 0. 0. 0. 0. 0. 0. 0. 0. 0. 0. 0. 0. 0. 0. 0. 0.
      0. 0. 0. 0. 0. 0. 0. 0. 0. 0. 0. 0. 0. 0. 0. 0. 0. 0. 0. 0. 0. 0.
      0. 0. 0. 0. 0. 0. 0. 0. 0. 0. 0. 0. 0. 0. 0. 0. 0. 0. 0. 0. 0. 0.
      0. 0. 0. 0. 0. 0. 0. 0. 0. 0. 0. 0. 0. 0. 0. 0. 0. 0. 0. 0. 0. 0.
      0. 0. 0. 0. 0. 0. 0. 0. 0. 0. 0. 0. 0. 0. 0. 0. 0. 0. 0. 0. 0. 0.
      0. 0. 0. 0. 0. 0. 0. 0. 0. 0. 0. 0. 0. 0. 0. 0. 0. 0. 0. 0. 0. 0.
      0. 0. 0. 0. 0. 0. 0. 0. 0. 0. 0. 0. 0. 0. 0. 0. 0. 0. 0. 0. 0. 0.
      0. 0. 0. 0. 0. 0. 0. 0. 0. 0. 0. 0. 0. 0. 0. 0. 0. 0. 0. 0. 0. 0.
      0. 0. 0. 0. 0. 0. 0. 0. 0. 0. 0. 0. 0. 0. 0. 0. 0. 0. 0. 0. 0. 0.
      0. 0. 0. 0. 0. 0. 0. 0. 0. 0. 0. 0. 0. 0. 0. 0. 0. 0. 0. 0. 0. 0.
      0. 0. 0. 0. 0. 0. 0. 0. 0. 0. 0. 0. 0. 0. 0. 0. 0. 0. 0. 0. 0. 0.
      0. 0. 0. 0. 0. 0. 0. 0. 0. 0. 0. 0. 0. 0. 0. 0. 0. -6.74398848e-08
      -6.74398848e-08 -6.74398848e-08 0. 0. 0. 0. 0. 0. 0. 0. 0.
      -6.74398848e-08 -6.74398848e-08 -6.74398848e-08 0. 0. 0.
      -6.74398848e-08 -6.74398848e-08 -6.74398848e-08 0. 0. 0.
      -6.74398848e-08 -6.74398848e-08 -6.74398848e-08 0. 0. 0.
      -6.74398848e-08 -6.74398848e-08 -6.74398848e-08 0. 0. 0.
      -6.74398848e-08 -6.74398848e-08 -6.74398848e-08 0. 0. 0.
      -6.74398848e-08 -6.74398848e-08 -6.74398848e-08 0. 0. 0. 0. 0. 0.
      0. 0. 0. 0. 0. 0. 0. 0. 0. -6.74398848e-08 -6.74398848e-08
      -6.74398848e-08 0. 0. 0. 0. 0. 0. 0. 0. 0. -6.74398848e-08
      -6.74398848e-08 -6.74398848e-08 0. 0. 0. 0. 0. 0. -1.34879770e-07
      -1.34879770e-07 -1.34879770e-07 0. 0. 0. -6.74398848e-08
      -6.74398848e-08 -6.74398848e-08 0. 0. 0. 0. 0. 0. 0. 0. 0. 0. 0.
      0. 0. 0. 0. 0. 0. 0. 0. 0. 0. 0. 0. 0. 0. 0. 0. 0. 0. 0. 0. 0. 0.
      0. 0. 0. 0. 0. 0. 0. 0. 0. 0. 0. 0. 0. 0. 0. 0. 0. 0. 0. 0. 0. 0.
      0. 0. 0. 0. 0. 0. 0. 0. 0. 0. 0. 0. 0. 0. 0. 0. 0. 0. 0. 0. 0. 0.
      0. 0. 0. 0. 0. 0. 0. 0. 0. 0. 0. 0. 0. 0. 0. 0. 0. 0. 0. 0. 0. 0.
      0. 0. 0. 0. 0. 0. 0. 0. 0. 0. 0. 0. 0. 0. 0. 0. 0. 0. 0. 0. 0. 0.
      0. 0. -2.02319654e-07 -2.02319654e-07 -2.02319654e-07
      -1.34879770e-07 -1.34879770e-07 -1.34879770e-07 0. 0. 0.
      -6.74398848e-08 -6.74398848e-08 -6.74398848e-08 0. 0. 0. 0. 0. 0.
      0. 0. 0. -6.74398848e-08 -6.74398848e-08 -6.74398848e-08 0. 0. 0.
      0. 0. 0. -6.74398848e-08 -6.74398848e-08 -6.74398848e-08 0. 0. 0.
      -6.74398848e-08 -6.74398848e-08 -6.74398848e-08 0. 0. 0. 0. 0. 0.
      -1.34879770e-07 -1.34879770e-07 -1.34879770e-07 -6.74398848e-08
      -6.74398848e-08 -6.74398848e-08 0. 0. 0. 0. 0. 0. 0. 0. 0. 0. 0.
      0. -3.37199424e-07 -3.37199424e-07 -3.37199424e-07 0. 0. 0. 0. 0.
      0. -6.74398848e-08 -6.74398848e-08 -6.74398848e-08 0. 0. 0. 0. 0.
      0. -1.34879770e-07 -1.34879770e-07 -1.34879770e-07 0. 0. 0.
      -1.34879770e-07 -1.34879770e-07 -1.34879770e-07 0. 0. 0. 0. 0. 0.
      0. 0. 0. 0. 0. 0. 0. 0. 0. 0. 0. 0. 0. 0. 0. 0. 0. 0. 0. 0. 0. 0.
      0. 0. 0. 0. 0. 0. 0. 0. 0. 0. 0. 0. 0. 0. 0. 0. 0. 0. 0. 0. 0. 0.
      0. 0. 0. 0. 0. 0. 0. 0. 0. 0. 0. 0. 0. 0. 0. 0. 0. 0. 0. 0. 0. 0.
      0. 0. 0. 0. 0. 0. 0. 0. 0. 0. 0. 0. 0. 0. 0. 0. 0. 0. 0. 0. 0. 0.
      0. 0. 0. 0. 0. 0. 0. 0. 0. 0. 0. 0. 0. 0. 0. 0. 0. 0. 0. 0. 0. 0.
      0. -2.69759539e-07 -2.69759539e-07 -2.69759539e-07 0. 0. 0.
      -1.34879770e-07 -1.34879770e-07 -1.34879770e-07 0. 0. 0.
      -1.34879770e-07 -1.34879770e-07 -1.34879770e-07 0. 0. 0. 0. 0. 0.
      -6.74398848e-08 -6.74398848e-08 -6.74398848e-08 0. 0. 0.
      -6.74398848e-08 -6.74398848e-08 -6.74398848e-08 0. 0. 0. 0. 0. 0.
      -3.37199424e-07 -3.37199424e-07 -3.37199424e-07 0. 0. 0.
      -6.74398848e-08 -6.74398848e-08 -6.74398848e-08 -6.74398848e-08
      -6.74398848e-08 -6.74398848e-08 0. 0. 0. 0. 0. 0. 0. 0. 0.
      -1.34879770e-07 -1.34879770e-07 -1.34879770e-07 0. 0. 0. 0. 0. 0.
      0. 0. 0. -1.34879770e-07 -1.34879770e-07 -1.34879770e-07 0. 0. 0.
      0. 0. 0. -2.02319654e-07 -2.02319654e-07 -2.02319654e-07
      -1.34879770e-07 -1.34879770e-07 -1.34879770e-07 0. 0. 0. 0. 0. 0.
      0. 0. 0. 0. 0. 0. 0. 0. 0. 0. 0. 0. 0. 0. 0. 0. 0. 0. 0. 0. 0. 0.
      0. 0. 0. 0. 0. 0. 0. 0. 0. 0. 0. 0. 0. 0. 0. 0. 0. 0. 0. 0. 0. 0.
      0. 0. 0. 0. 0. 0. 0. 0. 0. 0. 0. 0. 0. 0. 0. 0. 0. 0. 0. 0. 0. 0.
      0. 0. 0. 0. 0. 0. 0. 0. 0. 0. 0. 0. 0. 0. 0. 0. 0. 0. 0. 0. 0. 0.
      0. 0. 0. 0. 0. 0. 0. 0. 0. 0. 0. 0. 0. 0. 0. 0. 0. 0. 0. 0. 0. 0.
      0. 0. 0. 0. 0. 0. 0. 0. 0. 0. 0. 0. 0. 0. 0. 0. 0. 0. 0.
      -2.69759539e-07 -2.69759539e-07 -2.69759539e-07 0. 0. 0.
      -6.74398848e-08 -6.74398848e-08 -6.74398848e-08 0. 0. 0.
      -6.74398848e-08 -6.74398848e-08 -6.74398848e-08 0. 0. 0.
      -6.74398848e-08 -6.74398848e-08 -6.74398848e-08 -3.37199424e-07
      -3.37199424e-07 -3.37199424e-07 0. 0. 0. 0. 0. 0. 0. 0. 0. 0. 0.
      0. 0. 0. 0. 0. 0. 0. -6.74398848e-08 -6.74398848e-08
      -6.74398848e-08 -2.02319654e-07 -2.02319654e-07 -2.02319654e-07 0.
      0. 0. -6.74398848e-08 -6.74398848e-08 -6.74398848e-08
      -2.02319654e-07 -2.02319654e-07 -2.02319654e-07 0. 0. 0. 0. 0. 0.
      -1.34879770e-07 -1.34879770e-07 -1.34879770e-07 0. 0. 0. 0. 0. 0.
      -6.74398848e-08 -6.74398848e-08 -6.74398848e-08 0. 0. 0.
      -2.69759539e-07 -2.69759539e-07 -2.69759539e-07 0. 0. 0. 0. 0. 0.
      0. 0. 0. 0. 0. 0. 0. 0. 0. 0. 0. 0. 0. 0. 0. 0. 0. 0. 0. 0. 0. 0.
      0. 0. 0. 0. 0. 0. 0. 0. 0. 0. 0. 0. 0. 0. 0. 0. 0. 0. 0. 0. 0. 0.
      0. 0. 0. 0. 0. 0. 0. 0. 0. 0. 0. 0. 0. 0. 0. 0. 0. 0. 0. 0. 0. 0.
      0. 0. 0. 0. 0. 0. 0. 0. 0. 0. 0. 0. 0. 0. 0. 0. 0. 0. 0. 0. 0. 0.
      0. 0. 0. 0. 0. 0. 0. 0. 0. 0. 0. 0. 0. 0. 0. 0. 0. 0. 0. 0. 0. 0.
      0. -1.34879770e-07 -1.34879770e-07 -1.34879770e-07 0. 0. 0. 0. 0.
      0. 0. 0. 0. 0. 0. 0. -2.02319654e-07 -2.02319654e-07
      -2.02319654e-07 0. 0. 0. -6.74398848e-08 -6.74398848e-08
      -6.74398848e-08 0. 0. 0. -3.37199424e-07 -3.37199424e-07
      -3.37199424e-07 0. 0. 0. 0. 0. 0. -6.74398848e-08 -6.74398848e-08
      -6.74398848e-08 0. 0. 0. -3.37199424e-07 -3.37199424e-07
      -3.37199424e-07 -6.74398848e-08 -6.74398848e-08 -6.74398848e-08
      -6.74398848e-08 -6.74398848e-08 -6.74398848e-08 -6.74398848e-08
      -6.74398848e-08 -6.74398848e-08 0. 0. 0. 0. 0. 0. 0. 0. 0. 0. 0.
      0. 0. 0. 0. 0. 0. 0. 0. 0. 0. 0. 0. 0. -1.34879770e-07
      -1.34879770e-07 -1.34879770e-07 -6.74398848e-08 -6.74398848e-08
      -6.74398848e-08 -6.74398848e-08 -6.74398848e-08 -6.74398848e-08 0.
      0. 0. 0. 0. 0. -6.74398848e-08 -6.74398848e-08 -6.74398848e-08 0.
      0. 0. 0. 0. 0. 0. 0. 0. 0. 0. 0. 0. 0. 0. 0. 0. 0. 0. 0. 0. 0. 0.
      0. 0. 0. 0. 0. 0. 0. 0. 0. 0. 0. 0. 0. 0. 0. 0. 0. 0. 0. 0. 0. 0.
      0. 0. 0. 0. 0. 0. 0. 0. 0. 0. 0. 0. 0. 0. 0. 0. 0. 0. 0. 0. 0. 0.
      0. 0. 0. 0. 0. 0. 0. 0. 0. 0. 0. 0. 0. 0. 0. 0. 0. 0. 0. 0. 0. 0.
      0. 0. 0. 0. 0. 0. 0. 0. 0. 0. 0. 0. 0. 0. 0. 0. 0. 0. 0. 0. 0. 0.
      0. 0. 0. -6.74398848e-08 -6.74398848e-08 -6.74398848e-08 0. 0. 0.
      0. 0. 0. -2.69759539e-07 -2.69759539e-07 -2.69759539e-07 0. 0. 0.
      0. 0. 0. -6.74398848e-08 -6.74398848e-08 -6.74398848e-08 0. 0. 0.
      -1.34879770e-07 -1.34879770e-07 -1.34879770e-07 0. 0. 0.
      -1.34879770e-07 -1.34879770e-07 -1.34879770e-07 -1.34879770e-07
      -1.34879770e-07 -1.34879770e-07 -1.34879770e-07 -1.34879770e-07
      -1.34879770e-07 0. 0. 0. 0. 0. 0. 0. 0. 0. 0. 0. 0.
      -2.02319654e-07 -2.02319654e-07 -2.02319654e-07 0. 0. 0. 0. 0. 0.
      -2.02319654e-07 -2.02319654e-07 -2.02319654e-07 -6.74398848e-08
      -6.74398848e-08 -6.74398848e-08 0. 0. 0. -1.34879770e-07
      -1.34879770e-07 -1.34879770e-07 -1.34879770e-07 -1.34879770e-07
      -1.34879770e-07 0. 0. 0. 0. 0. 0. -6.74398848e-08 -6.74398848e-08
      -6.74398848e-08 0. 0. 0. -2.69759539e-07 -2.69759539e-07
      -2.69759539e-07 0. 0. 0. -6.74398848e-08 -6.74398848e-08
      -6.74398848e-08 0. 0. 0. 0. 0. 0. 0. 0. 0. 0. 0. 0. 0. 0. 0. 0. 0.
      0. 0. 0. 0. 0. 0. 0. 0. 0. 0. 0. 0. 0. 0. 0. 0. 0. 0. 0. 0. 0. 0.
      0. 0. 0. 0. 0. 0. 0. 0. 0. 0. 0. 0. 0. 0. 0. 0. 0. 0. 0. 0. 0. 0.
      0. 0. 0. 0. 0. 0. 0. 0. 0. 0. 0. 0. 0. 0. 0. 0. 0. 0. 0. 0. 0. 0.
      0. 0. 0. 0. 0. 0. 0. 0. 0. 0. 0. 0. 0. 0. 0. 0. 0. 0. 0. 0. 0. 0.
      0. 0. 0. 0. 0. 0. 0. 0. 0. 0. 0. 0. 0. 0. 0. -1.34879770e-07
      -1.34879770e-07 -1.34879770e-07 0. 0. 0. -3.84407349e-06
      -3.84407349e-06 -3.84407349e-06 -3.64175389e-06 -3.64175389e-06
      -3.64175389e-06 -3.70919383e-06 -3.70919383e-06 -3.70919383e-06
      -3.91151343e-06 -3.91151343e-06 -3.91151343e-06 -3.50687401e-06
      -3.50687401e-06 -3.50687401e-06 -6.74398848e-08 -6.74398848e-08
      -6.74398848e-08 -3.43943429e-06 -3.43943429e-06 -3.43943429e-06 0.
      0. 0. 0. 0. 0. -2.02319654e-07 -2.02319654e-07 -2.02319654e-07
      -3.70919383e-06 -3.70919383e-06 -3.70919383e-06 0. 0. 0.
      -1.34879770e-07 -1.34879770e-07 -1.34879770e-07 0. 0. 0. 0. 0. 0.
      -6.74398848e-08 -6.74398848e-08 -6.74398848e-08 0. 0. 0. 0. 0. 0.
      0. 0. 0. -1.34879770e-07 -1.34879770e-07 -1.34879770e-07
      -6.74398848e-08 -6.74398848e-08 -6.74398848e-08 0. 0. 0. 0. 0. 0.
      0. 0. 0. -6.74398848e-08 -6.74398848e-08 -6.74398848e-08 0. 0. 0.
      -1.34879770e-07 -1.34879770e-07 -1.34879770e-07 0. 0. 0. 0. 0. 0.
      0. 0. 0. 0. 0. 0. 0. 0. 0. 0. 0. 0. 0. 0. 0. 0. 0. 0. 0. 0. 0. 0.
      0. 0. 0. 0. 0. 0. 0. 0. 0. 0. 0. 0. 0. 0. 0. 0. 0. 0. 0. 0. 0. 0.
      0. 0. 0. 0. 0. 0. 0. 0. 0. 0. 0. 0. 0. 0. 0. 0. 0. 0. 0. 0. 0. 0.
      0. 0. 0. 0. 0. 0. 0. 0. 0. 0. 0. 0. 0. 0. 0. 0. 0. 0. 0. 0. 0. 0.
      0. 0. 0. 0. 0. 0. 0. 0. 0. 0. 0. 0. 0. 0. 0. 0. 0. 0. 0. 0. 0. 0.
      0. -6.74398848e-08 -6.74398848e-08 -6.74398848e-08 -6.74398848e-08
      -6.74398848e-08 -6.74398848e-08 -7.14862790e-06 -7.14862790e-06
      -7.14862790e-06 -1.04531828e-05 -1.04531828e-05 -1.04531828e-05
      -1.24089393e-05 -1.24089393e-05 -1.24089393e-05 -1.45670156e-05
      -1.45670156e-05 -1.45670156e-05 -1.38926171e-05 -1.38926171e-05
      -1.38926171e-05 -1.31507777e-05 -1.31507777e-05 -1.31507777e-05
      -1.28810179e-05 -1.28810179e-05 -1.28810179e-05 -1.35554174e-05
      -1.35554174e-05 -1.35554174e-05 -1.18694197e-05 -1.18694197e-05
      -1.18694197e-05 -1.15996609e-05 -1.15996609e-05 -1.15996609e-05
      -1.24763792e-05 -1.24763792e-05 -1.24763792e-05 -1.22740594e-05
      -1.22740594e-05 -1.22740594e-05 -1.21391795e-05 -1.21391795e-05
      -1.21391795e-05 -1.26112591e-05 -1.26112591e-05 -1.26112591e-05
      -1.22066194e-05 -1.22066194e-05 -1.22066194e-05 -9.77878335e-06
      -9.77878335e-06 -9.77878335e-06 -8.96950496e-06 -8.96950496e-06
      -8.96950496e-06 -9.37414461e-06 -9.37414461e-06 -9.37414461e-06
      -9.23926473e-06 -9.23926473e-06 -9.23926473e-06 -9.50902449e-06
      -9.50902449e-06 -9.50902449e-06 -9.50902449e-06 -9.50902449e-06
      -9.50902449e-06 -8.22766651e-06 -8.22766651e-06 -8.22766651e-06
      -7.14862790e-06 -7.14862790e-06 -7.14862790e-06 -6.47422894e-06
      -6.47422894e-06 -6.47422894e-06 -6.00214980e-06 -6.00214980e-06
      -6.00214980e-06 -5.93470986e-06 -5.93470986e-06 -5.93470986e-06
      -4.72079228e-06 -4.72079228e-06 -4.72079228e-06 0. 0. 0.
      -1.34879770e-07 -1.34879770e-07 -1.34879770e-07 0. 0. 0. 0. 0. 0.
      0. 0. 0. 0. 0. 0. 0. 0. 0. 0. 0. 0. 0. 0. 0. 0. 0. 0. 0. 0. 0. 0.
      0. 0. 0. 0. 0. 0. 0. 0. 0. 0. 0. 0. 0. 0. 0. 0. 0. 0. 0. 0. 0. 0.
      0. 0. 0. 0. 0. 0. 0. 0. 0. 0. 0. 0. 0. 0. 0. 0. 0. 0. 0. 0. 0. 0.
      -1.86267613e-07 -1.86267613e-07 -1.86267613e-07 6.03762302e-08
      6.03762302e-08 6.03762302e-08 -2.37239306e-07 -2.37239306e-07
      -2.37239306e-07 3.33404785e-07 3.33404785e-07 3.33404785e-07
      -6.51280363e-09 -6.51280363e-09 -6.51280363e-09 -2.02319654e-07
      -2.02319654e-07 -2.02319654e-07 -1.42183552e-07 -1.42183552e-07
      -1.42183552e-07 1.19933162e-07 1.19933162e-07 1.19933162e-07 0. 0.
      0. -7.09717156e-08 -7.09717156e-08 -7.09717156e-08 -1.57092703e-08
      -1.57092703e-08 -1.57092703e-08 8.87942875e-08 8.87942875e-08
      8.87942875e-08 2.99034070e-07 2.99034070e-07 2.99034070e-07
      -1.57092703e-08 -1.57092703e-08 -1.57092703e-08 -6.81988155e-08
      -6.81988155e-08 -6.81988155e-08 -7.85463516e-09 -7.85463516e-09
      -7.85463516e-09 -9.24337928e-06 -9.24337928e-06 -9.24337928e-06
      -1.42376712e-05 -1.42376712e-05 -1.42376712e-05 -1.66655063e-05
      -1.66655063e-05 -1.66655063e-05 -1.71850261e-05 -1.71850261e-05
      -1.71850261e-05 -1.68003553e-05 -1.68003553e-05 -1.68003553e-05
      -1.67450926e-05 -1.67450926e-05 -1.67450926e-05 -1.70246767e-05
      -1.70246767e-05 -1.70246767e-05 -1.67286235e-05 -1.67286235e-05
      -1.67286235e-05 -1.72158307e-05 -1.72158307e-05 -1.72158307e-05
      -1.68895549e-05 -1.68895549e-05 -1.68895549e-05 -1.66829723e-05
      -1.66829723e-05 -1.66829723e-05 -1.69737177e-05 -1.69737177e-05
      -1.69737177e-05 -1.65927959e-05 -1.65927959e-05 -1.65927959e-05
      -1.68599709e-05 -1.68599709e-05 -1.68599709e-05 -1.69352661e-05
      -1.69352661e-05 -1.69352661e-05 -1.65782421e-05 -1.65782421e-05
      -1.65782421e-05 -1.68020742e-05 -1.68020742e-05 -1.68020742e-05
      -1.65912843e-05 -1.65912843e-05 -1.65912843e-05 -1.60737363e-05
      -1.60737363e-05 -1.60737363e-05 -1.68768274e-05 -1.68768274e-05
      -1.68768274e-05 -1.70467902e-05 -1.70467902e-05 -1.70467902e-05
      -1.61973348e-05 -1.61973348e-05 -1.61973348e-05 -1.60593063e-05
      -1.60593063e-05 -1.60593063e-05 -1.67393373e-05 -1.67393373e-05
      -1.67393373e-05 -1.60856125e-05 -1.60856125e-05 -1.60856125e-05
      -1.47562159e-05 -1.47562159e-05 -1.47562159e-05 -1.51492641e-05
      -1.51492641e-05 -1.51492641e-05 -1.37266634e-05 -1.37266634e-05
      -1.37266634e-05 -8.31814850e-06 -8.31814850e-06 -8.31814850e-06
      1.42917429e-07 1.42917429e-07 1.42917429e-07 8.28360740e-08
      8.28360740e-08 8.28360740e-08 -7.85463516e-09 -7.85463516e-09
      -7.85463516e-09 0. 0. 0. -2.37239306e-07 -2.37239306e-07
      -2.37239306e-07 0. 0. 0. -3.71568234e-07 -3.71568234e-07
      -3.71568234e-07 0. 0. 0. -1.18619653e-07 -1.18619653e-07
      -1.18619653e-07 0. 0. 0. 0. 0. 0. 0. 0. 0. 0. 0. 0. 0. 0. 0. 0. 0.
      0. 0. 0. 0. 0. 0. 0. 0. 0. 0. 0. 0. 0. 0. 0. 0. 0. 0. 0. 0. 0. 0.
      0. 0. 0. 0. 0. 0. 2.56887262e-07 2.56887262e-07 2.56887262e-07
      4.31170477e-08 4.31170477e-08 4.31170477e-08 -1.18619653e-07
      -1.18619653e-07 -1.18619653e-07 0. 0. 0. -2.69759539e-07
      -2.69759539e-07 -2.69759539e-07 -6.33251602e-08 -6.33251602e-08
      -6.33251602e-08 3.33404785e-07 3.33404785e-07 3.33404785e-07
      1.91724183e-07 1.91724183e-07 1.91724183e-07 4.43971437e-08
      4.43971437e-08 4.43971437e-08 1.00658646e-07 1.00658646e-07
      1.00658646e-07 4.43971437e-08 4.43971437e-08 4.43971437e-08
      9.94218183e-08 9.94218183e-08 9.94218183e-08 -4.55151223e-08
      -4.55151223e-08 -4.55151223e-08 -1.36397631e-07 -1.36397631e-07
      -1.36397631e-07 1.41870473e-07 1.41870473e-07 1.41870473e-07
      -3.72327645e-06 -3.72327645e-06 -3.72327645e-06 -7.68898371e-06
      -7.68898371e-06 -7.68898371e-06 -1.32189771e-05 -1.32189771e-05
      -1.32189771e-05 -1.70297717e-05 -1.70297717e-05 -1.70297717e-05
      -1.66642203e-05 -1.66642203e-05 -1.66642203e-05 -1.34615193e-05
      -1.34615193e-05 -1.34615193e-05 -1.29211176e-05 -1.29211176e-05
      -1.29211176e-05 -1.28443717e-05 -1.28443717e-05 -1.28443717e-05
      -1.17520858e-05 -1.17520858e-05 -1.17520858e-05 -1.22338297e-05
      -1.22338297e-05 -1.22338297e-05 -1.29053542e-05 -1.29053542e-05
      -1.29053542e-05 -1.18973821e-05 -1.18973821e-05 -1.18973821e-05
      -1.19179022e-05 -1.19179022e-05 -1.19179022e-05 -1.11641311e-05
      -1.11641311e-05 -1.11641311e-05 -9.34706986e-06 -9.34706986e-06
      -9.34706986e-06 -8.97605878e-06 -8.97605878e-06 -8.97605878e-06
      -8.08919685e-06 -8.08919685e-06 -8.08919685e-06 -7.16690829e-06
      -7.16690829e-06 -7.16690829e-06 -8.13889346e-06 -8.13889346e-06
      -8.13889346e-06 -7.32763056e-06 -7.32763056e-06 -7.32763056e-06
      -5.26527583e-06 -5.26527583e-06 -5.26527583e-06 -7.06662331e-06
      -7.06662331e-06 -7.06662331e-06 -9.63222192e-06 -9.63222192e-06
      -9.63222192e-06 -1.08708309e-05 -1.08708309e-05 -1.08708309e-05
      -1.71332631e-05 -1.71332631e-05 -1.71332631e-05 -1.73236458e-05
      -1.73236458e-05 -1.73236458e-05 -1.66180944e-05 -1.66180944e-05
      -1.66180944e-05 -1.71468291e-05 -1.71468291e-05 -1.71468291e-05
      -1.70780004e-05 -1.70780004e-05 -1.70780004e-05 -1.64596240e-05
      -1.64596240e-05 -1.64596240e-05 -1.53458150e-05 -1.53458150e-05
      -1.53458150e-05 -1.01387577e-05 -1.01387577e-05 -1.01387577e-05
      4.43971437e-08 4.43971437e-08 4.43971437e-08 -2.37239306e-07
      -2.37239306e-07 -2.37239306e-07 -2.37239306e-07 -2.37239306e-07
      -2.37239306e-07 -1.18619653e-07 -1.18619653e-07 -1.18619653e-07
      -2.35639064e-08 -2.35639064e-08 -2.35639064e-08 0. 0. 0.
      -7.85463516e-09 -7.85463516e-09 -7.85463516e-09 -1.18619653e-07
      -1.18619653e-07 -1.18619653e-07 0. 0. 0. 0. 0. 0. 0. 0. 0. 0. 0.
      0. 0. 0. 0. 0. 0. 0. 0. 0. 0. 0. 0. 0. 0. 0. 0. 0. 0. 0. 0. 0. 0.
      0. 0. 0. 0. 0. 0. 0. 0. 0. 0. 0. 0. -7.52945226e-08
      -7.52945226e-08 -7.52945226e-08 -3.55858958e-07 -3.55858958e-07
      -3.55858958e-07 5.53265416e-08 5.53265416e-08 5.53265416e-08
      -2.38206312e-07 -2.38206312e-07 -2.38206312e-07 1.92188239e-07
      1.92188239e-07 1.92188239e-07 0. 0. 0. -7.31249565e-06
      -7.31249565e-06 -7.31249565e-06 -8.36356321e-06 -8.36356321e-06
      -8.36356321e-06 -8.77013554e-06 -8.77013554e-06 -8.77013554e-06
      -1.02137983e-05 -1.02137983e-05 -1.02137983e-05 -1.12120933e-05
      -1.12120933e-05 -1.12120933e-05 -1.14594486e-05 -1.14594486e-05
      -1.14594486e-05 -1.12702928e-05 -1.12702928e-05 -1.12702928e-05
      -7.10375025e-06 -7.10375025e-06 -7.10375025e-06 -9.03355703e-06
      -9.03355703e-06 -9.03355703e-06 -1.14131171e-05 -1.14131171e-05
      -1.14131171e-05 -1.39222830e-05 -1.39222830e-05 -1.39222830e-05
      -1.75096047e-05 -1.75096047e-05 -1.75096047e-05 -2.09367881e-05
      -2.09367881e-05 -2.09367881e-05 -1.97863683e-05 -1.97863683e-05
      -1.97863683e-05 -1.77682541e-05 -1.77682541e-05 -1.77682541e-05
      -1.85556710e-05 -1.85556710e-05 -1.85556710e-05 -1.78908467e-05
      -1.78908467e-05 -1.78908467e-05 -1.61253629e-05 -1.61253629e-05
      -1.61253629e-05 -1.65658439e-05 -1.65658439e-05 -1.65658439e-05
      -1.53484452e-05 -1.53484452e-05 -1.53484452e-05 -1.42070121e-05
      -1.42070121e-05 -1.42070121e-05 -9.70727706e-06 -9.70727706e-06
      -9.70727706e-06 -5.13005625e-06 -5.13005625e-06 -5.13005625e-06
      -1.44488308e-06 -1.44488308e-06 -1.44488308e-06 6.49058620e-07
      6.49058620e-07 6.49058620e-07 1.54977090e-06 1.54977090e-06
      1.54977090e-06 7.95768847e-06 7.95768847e-06 7.95768847e-06
      7.26157214e-06 7.26157214e-06 7.26157214e-06 1.03270168e-05
      1.03270168e-05 1.03270168e-05 9.67404503e-06 9.67404503e-06
      9.67404503e-06 7.80928531e-06 7.80928531e-06 7.80928531e-06
      3.74201340e-06 3.74201340e-06 3.74201340e-06 7.87308707e-09
      7.87308707e-09 7.87308707e-09 -6.28722682e-06 -6.28722682e-06
      -6.28722682e-06 -1.10340070e-05 -1.10340070e-05 -1.10340070e-05
      -1.75599598e-05 -1.75599598e-05 -1.75599598e-05 -1.78379578e-05
      -1.78379578e-05 -1.78379578e-05 -1.79018625e-05 -1.79018625e-05
      -1.79018625e-05 -1.79890631e-05 -1.79890631e-05 -1.79890631e-05
      -1.74133565e-05 -1.74133565e-05 -1.74133565e-05 -1.60295767e-05
      -1.60295767e-05 -1.60295767e-05 -7.35824551e-06 -7.35824551e-06
      -7.35824551e-06 0. 0. 0. -3.14185407e-08 -3.14185407e-08
      -3.14185407e-08 0. 0. 0. -3.79422858e-07 -3.79422858e-07
      -3.79422858e-07 -1.18619653e-07 -1.18619653e-07 -1.18619653e-07 0.
      0. 0. -1.57092703e-08 -1.57092703e-08 -1.57092703e-08 0. 0. 0. 0.
      0. 0. 0. 0. 0. 0. 0. 0. 0. 0. 0. 0. 0. 0. 0. 0. 0. 0. 0. 0. 0. 0.
      0. 0. 0. 0. 0. 0. 0. 0. 0. 0. 0. 0. 0. 0. 0. 0. 0. 0. 0.
      -2.25269929e-07 -2.25269929e-07 -2.25269929e-07 -1.42183552e-07
      -1.42183552e-07 -1.42183552e-07 -1.34879770e-07 -1.34879770e-07
      -1.34879770e-07 1.33361908e-07 1.33361908e-07 1.33361908e-07
      -8.65983657e-06 -8.65983657e-06 -8.65983657e-06 -1.06145399e-05
      -1.06145399e-05 -1.06145399e-05 -1.14961194e-05 -1.14961194e-05
      -1.14961194e-05 -1.30709359e-05 -1.30709359e-05 -1.30709359e-05
      -1.52844932e-05 -1.52844932e-05 -1.52844932e-05 -1.64911453e-05
      -1.64911453e-05 -1.64911453e-05 -1.29288765e-05 -1.29288765e-05
      -1.29288765e-05 -1.08458062e-05 -1.08458062e-05 -1.08458062e-05
      -1.26400600e-05 -1.26400600e-05 -1.26400600e-05 -1.34678821e-05
      -1.34678821e-05 -1.34678821e-05 -1.45972099e-05 -1.45972099e-05
      -1.45972099e-05 -1.29419977e-05 -1.29419977e-05 -1.29419977e-05
      -1.47131059e-05 -1.47131059e-05 -1.47131059e-05 -1.98557464e-05
      -1.98557464e-05 -1.98557464e-05 -2.23739589e-05 -2.23739589e-05
      -2.23739589e-05 -2.22091530e-05 -2.22091530e-05 -2.22091530e-05
      -2.16248136e-05 -2.16248136e-05 -2.16248136e-05 -2.11826773e-05
      -2.11826773e-05 -2.11826773e-05 -2.01791227e-05 -2.01791227e-05
      -2.01791227e-05 -1.96326728e-05 -1.96326728e-05 -1.96326728e-05
      -1.88993690e-05 -1.88993690e-05 -1.88993690e-05 -1.40371912e-05
      -1.40371912e-05 -1.40371912e-05 -1.11800273e-05 -1.11800273e-05
      -1.11800273e-05 -5.24361121e-06 -5.24361121e-06 -5.24361121e-06
      -1.81714347e-06 -1.81714347e-06 -1.81714347e-06 7.11355142e-07
      7.11355142e-07 7.11355142e-07 2.72684474e-06 2.72684474e-06
      2.72684474e-06 4.41492011e-06 4.41492011e-06 4.41492011e-06
      7.06596529e-06 7.06596529e-06 7.06596529e-06 1.10882129e-05
      1.10882129e-05 1.10882129e-05 1.37183188e-05 1.37183188e-05
      1.37183188e-05 1.51622962e-05 1.51622962e-05 1.51622962e-05
      1.14351406e-05 1.14351406e-05 1.14351406e-05 9.17232774e-06
      9.17232774e-06 9.17232774e-06 7.57414227e-06 7.57414227e-06
      7.57414227e-06 3.35138247e-06 3.35138247e-06 3.35138247e-06
      -3.05032540e-06 -3.05032540e-06 -3.05032540e-06 -8.79014715e-06
      -8.79014715e-06 -8.79014715e-06 -2.21189784e-05 -2.21189784e-05
      -2.21189784e-05 -2.47836160e-05 -2.47836160e-05 -2.47836160e-05
      -1.85726713e-05 -1.85726713e-05 -1.85726713e-05 -1.90728024e-05
      -1.90728024e-05 -1.90728024e-05 -1.84642176e-05 -1.84642176e-05
      -1.84642176e-05 -9.46094042e-06 -9.46094042e-06 -9.46094042e-06
      -1.10830376e-06 -1.10830376e-06 -1.10830376e-06 0. 0. 0.
      -4.82333235e-07 -4.82333235e-07 -4.82333235e-07 0. 0. 0. 0. 0. 0.
      -2.37239306e-07 -2.37239306e-07 -2.37239306e-07 -7.85463516e-09
      -7.85463516e-09 -7.85463516e-09 -3.55858958e-07 -3.55858958e-07
      -3.55858958e-07 0. 0. 0. 0. 0. 0. 0. 0. 0. 0. 0. 0. 0. 0. 0. 0. 0.
      0. 0. 0. 0. 0. 0. 0. 0. 0. 0. 0. 0. 0. 0. 0. 0. 0. 0. 0. 0. 0. 0.
      0. 0. 0. 6.66809541e-08 6.66809541e-08 6.66809541e-08
      -2.69759539e-07 -2.69759539e-07 -2.69759539e-07 5.78593102e-08
      5.78593102e-08 5.78593102e-08 -8.11657628e-06 -8.11657628e-06
      -8.11657628e-06 -1.12600446e-05 -1.12600446e-05 -1.12600446e-05
      -1.16348338e-05 -1.16348338e-05 -1.16348338e-05 -1.15162147e-05
      -1.15162147e-05 -1.15162147e-05 -1.35446862e-05 -1.35446862e-05
      -1.35446862e-05 -1.45224967e-05 -1.45224967e-05 -1.45224967e-05
      -8.64381582e-06 -8.64381582e-06 -8.64381582e-06 -9.56358235e-06
      -9.56358235e-06 -9.56358235e-06 -6.12137774e-06 -6.12137774e-06
      -6.12137774e-06 -6.72641272e-06 -6.72641272e-06 -6.72641272e-06
      -7.11287521e-06 -7.11287521e-06 -7.11287521e-06 -3.49217703e-06
      -3.49217703e-06 -3.49217703e-06 -2.93483504e-06 -2.93483504e-06
      -2.93483504e-06 -5.16086266e-06 -5.16086266e-06 -5.16086266e-06
      -1.09774883e-05 -1.09774883e-05 -1.09774883e-05 -1.48018389e-05
      -1.48018389e-05 -1.48018389e-05 -1.53899837e-05 -1.53899837e-05
      -1.53899837e-05 -1.35271175e-05 -1.35271175e-05 -1.35271175e-05
      -1.19146289e-05 -1.19146289e-05 -1.19146289e-05 -1.07194046e-05
      -1.07194046e-05 -1.07194046e-05 -1.04105147e-05 -1.04105147e-05
      -1.04105147e-05 -9.61006299e-06 -9.61006299e-06 -9.61006299e-06
      -7.95831329e-06 -7.95831329e-06 -7.95831329e-06 -4.77513822e-06
      -4.77513822e-06 -4.77513822e-06 -3.21957987e-06 -3.21957987e-06
      -3.21957987e-06 -1.23094924e-06 -1.23094924e-06 -1.23094924e-06
      -1.24778217e-06 -1.24778217e-06 -1.24778217e-06 -1.97667489e-07
      -1.97667489e-07 -1.97667489e-07 1.86568013e-06 1.86568013e-06
      1.86568013e-06 2.18300920e-06 2.18300920e-06 2.18300920e-06
      3.42562294e-06 3.42562294e-06 3.42562294e-06 2.62051367e-06
      2.62051367e-06 2.62051367e-06 3.54880081e-06 3.54880081e-06
      3.54880081e-06 4.34157391e-06 4.34157391e-06 4.34157391e-06
      3.77792639e-06 3.77792639e-06 3.77792639e-06 1.12581540e-06
      1.12581540e-06 1.12581540e-06 -2.00567365e-06 -2.00567365e-06
      -2.00567365e-06 -5.39207258e-06 -5.39207258e-06 -5.39207258e-06
      -1.00550415e-05 -1.00550415e-05 -1.00550415e-05 -1.49689076e-05
      -1.49689076e-05 -1.49689076e-05 -2.69930515e-05 -2.69930515e-05
      -2.69930515e-05 -3.86484353e-05 -3.86484353e-05 -3.86484353e-05
      -3.99764576e-05 -3.99764576e-05 -3.99764576e-05 -3.44314321e-05
      -3.44314321e-05 -3.44314321e-05 -2.63991005e-05 -2.63991005e-05
      -2.63991005e-05 -1.04996197e-05 -1.04996197e-05 -1.04996197e-05
      -5.57679130e-07 -5.57679130e-07 -5.57679130e-07 -1.57092703e-08
      -1.57092703e-08 -1.57092703e-08 -2.35639064e-08 -2.35639064e-08
      -2.35639064e-08 0. 0. 0. -1.26474291e-07 -1.26474291e-07
      -1.26474291e-07 -2.37239306e-07 -2.37239306e-07 -2.37239306e-07 0.
      0. 0. 0. 0. 0. 0. 0. 0. 0. 0. 0. 0. 0. 0. 0. 0. 0. 0. 0. 0. 0. 0.
      0. 0. 0. 0. 0. 0. 0. 0. 0. 0. 0. 0. 0. 0. 0. 0. 0. 0. 0. 0. 0. 0.
      2.74077792e-08 2.74077792e-08 2.74077792e-08 -1.10182114e-07
      -1.10182114e-07 -1.10182114e-07 -2.37239306e-07 -2.37239306e-07
      -2.37239306e-07 -8.25605002e-06 -8.25605002e-06 -8.25605002e-06
      -9.55241921e-06 -9.55241921e-06 -9.55241921e-06 -9.41327926e-06
      -9.41327926e-06 -9.41327926e-06 -1.06468842e-05 -1.06468842e-05
      -1.06468842e-05 -1.04651472e-05 -1.04651472e-05 -1.04651472e-05
      -3.41056489e-06 -3.41056489e-06 -3.41056489e-06 5.17394426e-07
      5.17394426e-07 5.17394426e-07 5.41892450e-06 5.41892450e-06
      5.41892450e-06 6.44585680e-06 6.44585680e-06 6.44585680e-06
      7.92719129e-06 7.92719129e-06 7.92719129e-06 9.22834897e-06
      9.22834897e-06 9.22834897e-06 9.78412845e-06 9.78412845e-06
      9.78412845e-06 8.35860737e-06 8.35860737e-06 8.35860737e-06
      6.47118623e-06 6.47118623e-06 6.47118623e-06 4.64681875e-07
      4.64681875e-07 4.64681875e-07 -3.75834065e-06 -3.75834065e-06
      -3.75834065e-06 -4.42685678e-06 -4.42685678e-06 -4.42685678e-06
      -3.12923248e-06 -3.12923248e-06 -3.12923248e-06 -3.15564375e-06
      -3.15564375e-06 -3.15564375e-06 -4.63438255e-06 -4.63438255e-06
      -4.63438255e-06 -6.30209388e-06 -6.30209388e-06 -6.30209388e-06
      -6.76351192e-06 -6.76351192e-06 -6.76351192e-06 -4.74474518e-06
      -4.74474518e-06 -4.74474518e-06 -4.07368861e-06 -4.07368861e-06
      -4.07368861e-06 -1.83932741e-06 -1.83932741e-06 -1.83932741e-06
      -2.36715186e-06 -2.36715186e-06 -2.36715186e-06 -1.24598239e-06
      -1.24598239e-06 -1.24598239e-06 -8.85039668e-08 -8.85039668e-08
      -8.85039668e-08 -9.38690675e-07 -9.38690675e-07 -9.38690675e-07
      -1.19027231e-06 -1.19027231e-06 -1.19027231e-06 -1.29901139e-06
      -1.29901139e-06 -1.29901139e-06 -9.58751116e-07 -9.58751116e-07
      -9.58751116e-07 -1.67513335e-07 -1.67513335e-07 -1.67513335e-07
      -3.54029936e-07 -3.54029936e-07 -3.54029936e-07 3.96981399e-08
      3.96981399e-08 3.96981399e-08 -9.98249448e-07 -9.98249448e-07
      -9.98249448e-07 -3.17245366e-07 -3.17245366e-07 -3.17245366e-07
      -7.01004922e-07 -7.01004922e-07 -7.01004922e-07 -4.41486327e-06
      -4.41486327e-06 -4.41486327e-06 -1.14546337e-05 -1.14546337e-05
      -1.14546337e-05 -1.78055398e-05 -1.78055398e-05 -1.78055398e-05
      -2.71876288e-05 -2.71876288e-05 -2.71876288e-05 -4.41174816e-05
      -4.41174816e-05 -4.41174816e-05 -4.74196240e-05 -4.74196240e-05
      -4.74196240e-05 -3.76713215e-05 -3.76713215e-05 -3.76713215e-05
      -2.62265057e-05 -2.62265057e-05 -2.62265057e-05 -1.42209028e-05
      -1.42209028e-05 -1.42209028e-05 0. 0. 0. -4.74478611e-07
      -4.74478611e-07 -4.74478611e-07 -2.35639064e-08 -2.35639064e-08
      -2.35639064e-08 0. 0. 0. -2.52948581e-07 -2.52948581e-07
      -2.52948581e-07 -1.34328928e-07 -1.34328928e-07 -1.34328928e-07 0.
      0. 0. 0. 0. 0. 0. 0. 0. 0. 0. 0. 0. 0. 0. 0. 0. 0. 0. 0. 0. 0. 0.
      0. 0. 0. 0. 0. 0. 0. 0. 0. 0. 0. 0. 0. 0. 0. 0. 0. 0. 0.
      -1.34879770e-07 -1.34879770e-07 -1.34879770e-07 1.21767371e-07
      1.21767371e-07 1.21767371e-07 0. 0. 0. -7.97618122e-06
      -7.97618122e-06 -7.97618122e-06 -9.37497316e-06 -9.37497316e-06
      -9.37497316e-06 -9.50158210e-06 -9.50158210e-06 -9.50158210e-06
      -9.01680596e-06 -9.01680596e-06 -9.01680596e-06 -2.65887888e-06
      -2.65887888e-06 -2.65887888e-06 4.89751255e-06 4.89751255e-06
      4.89751255e-06 1.06624220e-05 1.06624220e-05 1.06624220e-05
      1.28540123e-05 1.28540123e-05 1.28540123e-05 1.20099130e-05
      1.20099130e-05 1.20099130e-05 1.12913713e-05 1.12913713e-05
      1.12913713e-05 1.24792268e-05 1.24792268e-05 1.24792268e-05
      1.23325690e-05 1.23325690e-05 1.23325690e-05 1.13992583e-05
      1.13992583e-05 1.13992583e-05 9.96615836e-06 9.96615836e-06
      9.96615836e-06 5.07187042e-06 5.07187042e-06 5.07187042e-06
      1.51206279e-06 1.51206279e-06 1.51206279e-06 2.26567454e-06
      2.26567454e-06 2.26567454e-06 4.11771134e-06 4.11771134e-06
      4.11771134e-06 2.78408834e-06 2.78408834e-06 2.78408834e-06
      -3.75138598e-06 -3.75138598e-06 -3.75138598e-06 -7.82176448e-06
      -7.82176448e-06 -7.82176448e-06 -6.13777047e-06 -6.13777047e-06
      -6.13777047e-06 -4.69400129e-06 -4.69400129e-06 -4.69400129e-06
      -2.87971216e-06 -2.87971216e-06 -2.87971216e-06 -1.92862217e-06
      -1.92862217e-06 -1.92862217e-06 -1.52673874e-06 -1.52673874e-06
      -1.52673874e-06 -9.43963698e-07 -9.43963698e-07 -9.43963698e-07
      -5.66160452e-07 -5.66160452e-07 -5.66160452e-07 -9.65763093e-07
      -9.65763093e-07 -9.65763093e-07 -1.38012967e-06 -1.38012967e-06
      -1.38012967e-06 -1.05967274e-06 -1.05967274e-06 -1.05967274e-06
      -6.01334705e-07 -6.01334705e-07 -6.01334705e-07 -7.98800215e-07
      -7.98800215e-07 -7.98800215e-07 -5.13409873e-07 -5.13409873e-07
      -5.13409873e-07 -2.96805155e-07 -2.96805155e-07 -2.96805155e-07
      3.72810604e-07 3.72810604e-07 3.72810604e-07 7.53831273e-07
      7.53831273e-07 7.53831273e-07 1.27263586e-08 1.27263586e-08
      1.27263586e-08 -5.60375554e-07 -5.60375554e-07 -5.60375554e-07
      -3.88844637e-06 -3.88844637e-06 -3.88844637e-06 -1.01629466e-05
      -1.01629466e-05 -1.01629466e-05 -1.60271211e-05 -1.60271211e-05
      -1.60271211e-05 -2.59125954e-05 -2.59125954e-05 -2.59125954e-05
      -3.85069216e-05 -3.85069216e-05 -3.85069216e-05 -4.01363832e-05
      -4.01363832e-05 -4.01363832e-05 -3.13734781e-05 -3.13734781e-05
      -3.13734781e-05 -2.12108080e-05 -2.12108080e-05 -2.12108080e-05
      -6.65840980e-06 -6.65840980e-06 -6.65840980e-06 -1.57092703e-08
      -1.57092703e-08 -1.57092703e-08 -1.18619653e-07 -1.18619653e-07
      -1.18619653e-07 -1.34328928e-07 -1.34328928e-07 -1.34328928e-07 0.
      0. 0. 0. 0. 0. 0. 0. 0. 0. 0. 0. 0. 0. 0. 0. 0. 0. 0. 0. 0. 0. 0.
      0. 0. 0. 0. 0. 0. 0. 0. 0. 0. 0. 0. 0. 0. 0. 0. 0. 0. 0. 0. 0. 0.
      0. 0. 0. -1.34328928e-07 -1.34328928e-07 -1.34328928e-07
      -1.34879770e-07 -1.34879770e-07 -1.34879770e-07 -1.57092703e-08
      -1.57092703e-08 -1.57092703e-08 -8.04508454e-06 -8.04508454e-06
      -8.04508454e-06 -8.62356592e-06 -8.62356592e-06 -8.62356592e-06
      -8.58506883e-06 -8.58506883e-06 -8.58506883e-06 1.34344725e-06
      1.34344725e-06 1.34344725e-06 3.99019154e-06 3.99019154e-06
      3.99019154e-06 1.13853348e-05 1.13853348e-05 1.13853348e-05
      1.25723818e-05 1.25723818e-05 1.25723818e-05 1.13923243e-05
      1.13923243e-05 1.13923243e-05 1.10551719e-05 1.10551719e-05
      1.10551719e-05 1.08291260e-05 1.08291260e-05 1.08291260e-05
      1.03905249e-05 1.03905249e-05 1.03905249e-05 9.77211221e-06
      9.77211221e-06 9.77211221e-06 9.74445447e-06 9.74445447e-06
      9.74445447e-06 9.90774697e-06 9.90774697e-06 9.90774697e-06
      4.79903201e-06 4.79903201e-06 4.79903201e-06 1.98230168e-06
      1.98230168e-06 1.98230168e-06 3.20498975e-06 3.20498975e-06
      3.20498975e-06 5.54712506e-06 5.54712506e-06 5.54712506e-06
      6.10517782e-06 6.10517782e-06 6.10517782e-06 -1.86153432e-06
      -1.86153432e-06 -1.86153432e-06 -6.01564443e-06 -6.01564443e-06
      -6.01564443e-06 -4.72085139e-06 -4.72085139e-06 -4.72085139e-06
      -3.47952391e-06 -3.47952391e-06 -3.47952391e-06 -3.14119779e-06
      -3.14119779e-06 -3.14119779e-06 -1.87263106e-06 -1.87263106e-06
      -1.87263106e-06 -1.52386946e-07 -1.52386946e-07 -1.52386946e-07
      -5.97214978e-07 -5.97214978e-07 -5.97214978e-07 -1.03814216e-06
      -1.03814216e-06 -1.03814216e-06 -1.20671166e-06 -1.20671166e-06
      -1.20671166e-06 -1.10446399e-06 -1.10446399e-06 -1.10446399e-06
      -7.49040851e-07 -7.49040851e-07 -7.49040851e-07 -5.49206106e-07
      -5.49206106e-07 -5.49206106e-07 -2.73762424e-07 -2.73762424e-07
      -2.73762424e-07 -4.26158664e-07 -4.26158664e-07 -4.26158664e-07
      1.16106342e-07 1.16106342e-07 1.16106342e-07 9.22720801e-07
      9.22720801e-07 9.22720801e-07 -1.84772574e-07 -1.84772574e-07
      -1.84772574e-07 9.04432852e-07 9.04432852e-07 9.04432852e-07
      7.42789382e-07 7.42789382e-07 7.42789382e-07 1.18061723e-06
      1.18061723e-06 1.18061723e-06 -1.43402940e-06 -1.43402940e-06
      -1.43402940e-06 -8.08992900e-06 -8.08992900e-06 -8.08992900e-06
      -1.54546506e-05 -1.54546506e-05 -1.54546506e-05 -2.57833926e-05
      -2.57833926e-05 -2.57833926e-05 -3.16636761e-05 -3.16636761e-05
      -3.16636761e-05 -3.18880302e-05 -3.18880302e-05 -3.18880302e-05
      -2.52273658e-05 -2.52273658e-05 -2.52273658e-05 -8.18475564e-06
      -8.18475564e-06 -8.18475564e-06 -1.18619653e-07 -1.18619653e-07
      -1.18619653e-07 -2.45093929e-07 -2.45093929e-07 -2.45093929e-07 0.
      0. 0. 0. 0. 0. -1.34328928e-07 -1.34328928e-07 -1.34328928e-07 0.
      0. 0. 0. 0. 0. 0. 0. 0. 0. 0. 0. 0. 0. 0. 0. 0. 0. 0. 0. 0. 0. 0.
      0. 0. 0. 0. 0. 0. 0. 0. 0. 0. 0. 0. 0. 0. 0. 0. 0. 0. 0. 0. 0. 0.
      3.01113943e-07 3.01113943e-07 3.01113943e-07 6.66809541e-08
      6.66809541e-08 6.66809541e-08 -8.56803308e-06 -8.56803308e-06
      -8.56803308e-06 -8.77609637e-06 -8.77609637e-06 -8.77609637e-06
      1.32158539e-06 1.32158539e-06 1.32158539e-06 3.57538102e-06
      3.57538102e-06 3.57538102e-06 9.43606392e-06 9.43606392e-06
      9.43606392e-06 1.09840094e-05 1.09840094e-05 1.09840094e-05
      1.13527158e-05 1.13527158e-05 1.13527158e-05 1.06571242e-05
      1.06571242e-05 1.06571242e-05 9.64432638e-06 9.64432638e-06
      9.64432638e-06 9.71088957e-06 9.71088957e-06 9.71088957e-06
      9.67192773e-06 9.67192773e-06 9.67192773e-06 9.25537552e-06
      9.25537552e-06 9.25537552e-06 9.80473760e-06 9.80473760e-06
      9.80473760e-06 8.84909150e-06 8.84909150e-06 8.84909150e-06
      3.79656399e-06 3.79656399e-06 3.79656399e-06 4.52230722e-07
      4.52230722e-07 4.52230722e-07 3.60442641e-06 3.60442641e-06
      3.60442641e-06 8.01011538e-06 8.01011538e-06 8.01011538e-06
      6.86103613e-06 6.86103613e-06 6.86103613e-06 -1.52127927e-06
      -1.52127927e-06 -1.52127927e-06 -4.96736129e-06 -4.96736129e-06
      -4.96736129e-06 -4.03179001e-06 -4.03179001e-06 -4.03179001e-06
      -3.07959726e-06 -3.07959726e-06 -3.07959726e-06 -1.76563856e-06
      -1.76563856e-06 -1.76563856e-06 -4.68294786e-07 -4.68294786e-07
      -4.68294786e-07 -2.33899399e-07 -2.33899399e-07 -2.33899399e-07
      -5.46689137e-07 -5.46689137e-07 -5.46689137e-07 -8.94158347e-07
      -8.94158347e-07 -8.94158347e-07 -1.05543097e-06 -1.05543097e-06
      -1.05543097e-06 -3.54292808e-07 -3.54292808e-07 -3.54292808e-07
      -1.01433471e-07 -1.01433471e-07 -1.01433471e-07 -8.30405398e-08
      -8.30405398e-08 -8.30405398e-08 -1.16051218e-07 -1.16051218e-07
      -1.16051218e-07 5.03213755e-08 5.03213755e-08 5.03213755e-08
      4.07076300e-07 4.07076300e-07 4.07076300e-07 5.89604042e-07
      5.89604042e-07 5.89604042e-07 5.44623958e-07 5.44623958e-07
      5.44623958e-07 4.43755880e-07 4.43755880e-07 4.43755880e-07
      2.86531929e-07 2.86531929e-07 2.86531929e-07 6.34230105e-07
      6.34230105e-07 6.34230105e-07 2.09962423e-07 2.09962423e-07
      2.09962423e-07 -3.40443171e-06 -3.40443171e-06 -3.40443171e-06
      -1.04966093e-05 -1.04966093e-05 -1.04966093e-05 -1.61030421e-05
      -1.61030421e-05 -1.61030421e-05 -2.30195947e-05 -2.30195947e-05
      -2.30195947e-05 -2.74008908e-05 -2.74008908e-05 -2.74008908e-05
      -2.86005543e-05 -2.86005543e-05 -2.86005543e-05 -8.83075973e-06
      -8.83075973e-06 -8.83075973e-06 1.72213262e-07 1.72213262e-07
      1.72213262e-07 1.94497076e-07 1.94497076e-07 1.94497076e-07
      -2.78104608e-07 -2.78104608e-07 -2.78104608e-07 2.10652189e-07
      2.10652189e-07 2.10652189e-07 1.25507270e-07 1.25507270e-07
      1.25507270e-07 0. 0. 0. 0. 0. 0. 0. 0. 0. 0. 0. 0. 0. 0. 0. 0. 0.
      0. 0. 0. 0. 0. 0. 0. 0. 0. 0. 0. 0. 0. 0. 0. 0. 0. 0. 0. 0. 0. 0.
      0. 0. 0. 0. 0. 0. 7.77543363e-08 7.77543363e-08 7.77543363e-08
      1.20169560e-07 1.20169560e-07 1.20169560e-07 -8.06043863e-06
      -8.06043863e-06 -8.06043863e-06 -6.85503267e-07 -6.85503267e-07
      -6.85503267e-07 1.43623197e-06 1.43623197e-06 1.43623197e-06
      7.05498860e-06 7.05498860e-06 7.05498860e-06 8.52312860e-06
      8.52312860e-06 8.52312860e-06 9.79561082e-06 9.79561082e-06
      9.79561082e-06 9.86286977e-06 9.86286977e-06 9.86286977e-06
      9.03834916e-06 9.03834916e-06 9.03834916e-06 8.47058800e-06
      8.47058800e-06 8.47058800e-06 8.62764136e-06 8.62764136e-06
      8.62764136e-06 8.57946998e-06 8.57946998e-06 8.57946998e-06
      8.27052827e-06 8.27052827e-06 8.27052827e-06 8.52794074e-06
      8.52794074e-06 8.52794074e-06 7.47767626e-06 7.47767626e-06
      7.47767626e-06 2.77477898e-06 2.77477898e-06 2.77477898e-06
      9.47247770e-07 9.47247770e-07 9.47247770e-07 5.67732195e-06
      5.67732195e-06 5.67732195e-06 1.01193627e-05 1.01193627e-05
      1.01193627e-05 7.89606747e-06 7.89606747e-06 7.89606747e-06
      1.86583407e-07 1.86583407e-07 1.86583407e-07 -4.43193767e-06
      -4.43193767e-06 -4.43193767e-06 -3.83905126e-06 -3.83905126e-06
      -3.83905126e-06 -2.31457739e-06 -2.31457739e-06 -2.31457739e-06
      -1.02521142e-06 -1.02521142e-06 -1.02521142e-06 -4.21972914e-07
      -4.21972914e-07 -4.21972914e-07 -7.37398466e-07 -7.37398466e-07
      -7.37398466e-07 -1.21977951e-06 -1.21977951e-06 -1.21977951e-06
      -9.70570909e-07 -9.70570909e-07 -9.70570909e-07 -7.66205176e-07
      -7.66205176e-07 -7.66205176e-07 -4.54519522e-07 -4.54519522e-07
      -4.54519522e-07 -1.98887292e-07 -1.98887292e-07 -1.98887292e-07
      -7.89258081e-08 -7.89258081e-08 -7.89258081e-08 -1.23009869e-07
      -1.23009869e-07 -1.23009869e-07 -1.20236976e-07 -1.20236976e-07
      -1.20236976e-07 1.72609916e-07 1.72609916e-07 1.72609916e-07
      2.88456675e-07 2.88456675e-07 2.88456675e-07 2.24548600e-07
      2.24548600e-07 2.24548600e-07 1.43617678e-08 1.43617678e-08
      1.43617678e-08 2.49317281e-07 2.49317281e-07 2.49317281e-07
      3.06241645e-07 3.06241645e-07 3.06241645e-07 4.59907255e-07
      4.59907255e-07 4.59907255e-07 3.72777080e-08 3.72777080e-08
      3.72777080e-08 -5.18923480e-06 -5.18923480e-06 -5.18923480e-06
      -1.29023874e-05 -1.29023874e-05 -1.29023874e-05 -9.56789881e-06
      -9.56789881e-06 -9.56789881e-06 -1.90832980e-05 -1.90832980e-05
      -1.90832980e-05 -3.04089572e-05 -3.04089572e-05 -3.04089572e-05
      -1.02012900e-05 -1.02012900e-05 -1.02012900e-05 1.97176192e-07
      1.97176192e-07 1.97176192e-07 -4.55346338e-08 -4.55346338e-08
      -4.55346338e-08 5.22356061e-07 5.22356061e-07 5.22356061e-07 0. 0.
      0. 2.07244799e-09 2.07244799e-09 2.07244799e-09 0. 0. 0. 0. 0. 0.
      0. 0. 0. 0. 0. 0. 0. 0. 0. 0. 0. 0. 0. 0. 0. 0. 0. 0. 0. 0. 0. 0.
      0. 0. 0. 0. 0. 0. 0. 0. 0. 0. 0. 0. 0. 0. 1.86504010e-07
      1.86504010e-07 1.86504010e-07 1.33361908e-07 1.33361908e-07
      1.33361908e-07 4.43971437e-08 4.43971437e-08 4.43971437e-08
      -8.22801667e-06 -8.22801667e-06 -8.22801667e-06 1.64139726e-06
      1.64139726e-06 1.64139726e-06 3.94915196e-06 3.94915196e-06
      3.94915196e-06 6.29867327e-06 6.29867327e-06 6.29867327e-06
      7.85980956e-06 7.85980956e-06 7.85980956e-06 8.62180605e-06
      8.62180605e-06 8.62180605e-06 8.84491510e-06 8.84491510e-06
      8.84491510e-06 8.36046911e-06 8.36046911e-06 8.36046911e-06
      7.94333846e-06 7.94333846e-06 7.94333846e-06 7.99291047e-06
      7.99291047e-06 7.99291047e-06 7.83835912e-06 7.83835912e-06
      7.83835912e-06 7.80665687e-06 7.80665687e-06 7.80665687e-06
      7.84597341e-06 7.84597341e-06 7.84597341e-06 6.80039784e-06
      6.80039784e-06 6.80039784e-06 2.61052423e-06 2.61052423e-06
      2.61052423e-06 2.59116450e-06 2.59116450e-06 2.59116450e-06
      6.93329321e-06 6.93329321e-06 6.93329321e-06 1.15559324e-05
      1.15559324e-05 1.15559324e-05 9.97732513e-06 9.97732513e-06
      9.97732513e-06 7.92935850e-07 7.92935850e-07 7.92935850e-07
      -4.31872650e-06 -4.31872650e-06 -4.31872650e-06 -3.18002776e-06
      -3.18002776e-06 -3.18002776e-06 -1.29437115e-06 -1.29437115e-06
      -1.29437115e-06 -3.71834432e-07 -3.71834432e-07 -3.71834432e-07
      -6.34738399e-07 -6.34738399e-07 -6.34738399e-07 -1.15573437e-06
      -1.15573437e-06 -1.15573437e-06 -1.33054459e-06 -1.33054459e-06
      -1.33054459e-06 -8.89611727e-07 -8.89611727e-07 -8.89611727e-07
      -4.57292430e-07 -4.57292430e-07 -4.57292430e-07 -3.84187899e-07
      -3.84187899e-07 -3.84187899e-07 -1.89690823e-07 -1.89690823e-07
      -1.89690823e-07 -1.25782762e-07 -1.25782762e-07 -1.25782762e-07
      -1.23009869e-07 -1.23009869e-07 -1.23009869e-07 -1.56779478e-07
      -1.56779478e-07 -1.56779478e-07 -5.70878420e-08 -5.70878420e-08
      -5.70878420e-08 6.15318072e-08 6.15318072e-08 6.15318072e-08
      8.04598201e-08 8.04598201e-08 8.04598201e-08 3.29897993e-08
      3.29897993e-08 3.29897993e-08 3.64197035e-07 3.64197035e-07
      3.64197035e-07 2.76520723e-07 2.76520723e-07 2.76520723e-07
      1.58864339e-07 1.58864339e-07 1.58864339e-07 3.97351698e-07
      3.97351698e-07 3.97351698e-07 1.43177061e-07 1.43177061e-07
      1.43177061e-07 -7.38188055e-06 -7.38188055e-06 -7.38188055e-06
      -8.08960431e-06 -8.08960431e-06 -8.08960431e-06 -6.11477390e-06
      -6.11477390e-06 -6.11477390e-06 -2.32469483e-05 -2.32469483e-05
      -2.32469483e-05 -9.72350153e-06 -9.72350153e-06 -9.72350153e-06
      1.27816122e-07 1.27816122e-07 1.27816122e-07 1.91724183e-07
      1.91724183e-07 1.91724183e-07 9.33265483e-08 9.33265483e-08
      9.33265483e-08 3.65572845e-07 3.65572845e-07 3.65572845e-07
      -3.30106822e-08 -3.30106822e-08 -3.30106822e-08 0. 0. 0. 0. 0. 0.
      0. 0. 0. 0. 0. 0. 0. 0. 0. 0. 0. 0. 0. 0. 0. 0. 0. 0. 0. 0. 0. 0.
      0. 0. 0. 0. 0. 0. 0. 0. 0. 0. 0. 0. 0. 0. -7.52945226e-08
      -7.52945226e-08 -7.52945226e-08 1.12837462e-07 1.12837462e-07
      1.12837462e-07 6.66809541e-08 6.66809541e-08 6.66809541e-08
      7.45419811e-07 7.45419811e-07 7.45419811e-07 4.86291447e-06
      4.86291447e-06 4.86291447e-06 4.70014811e-06 4.70014811e-06
      4.70014811e-06 5.71794044e-06 5.71794044e-06 5.71794044e-06
      7.04553531e-06 7.04553531e-06 7.04553531e-06 7.62363925e-06
      7.62363925e-06 7.62363925e-06 7.85650991e-06 7.85650991e-06
      7.85650991e-06 7.69484723e-06 7.69484723e-06 7.69484723e-06
      7.11428174e-06 7.11428174e-06 7.11428174e-06 7.35482445e-06
      7.35482445e-06 7.35482445e-06 7.22138066e-06 7.22138066e-06
      7.22138066e-06 7.20784146e-06 7.20784146e-06 7.20784146e-06
      7.63180742e-06 7.63180742e-06 7.63180742e-06 6.50425000e-06
      6.50425000e-06 6.50425000e-06 2.71329714e-06 2.71329714e-06
      2.71329714e-06 4.77046115e-06 4.77046115e-06 4.77046115e-06
      7.54910479e-06 7.54910479e-06 7.54910479e-06 1.23877908e-05
      1.23877908e-05 1.23877908e-05 1.18278058e-05 1.18278058e-05
      1.18278058e-05 2.11391878e-07 2.11391878e-07 2.11391878e-07
      -3.90732657e-06 -3.90732657e-06 -3.90732657e-06 -2.04518369e-06
      -2.04518369e-06 -2.04518369e-06 -7.22730476e-07 -7.22730476e-07
      -7.22730476e-07 -5.47266438e-07 -5.47266438e-07 -5.47266438e-07
      -1.06227083e-06 -1.06227083e-06 -1.06227083e-06 -1.18500520e-06
      -1.18500520e-06 -1.18500520e-06 -1.17916454e-06 -1.17916454e-06
      -1.17916454e-06 -6.97679468e-07 -6.97679468e-07 -6.97679468e-07
      -1.97920286e-07 -1.97920286e-07 -1.97920286e-07 -3.15957038e-07
      -3.15957038e-07 -3.15957038e-07 -1.97337386e-07 -1.97337386e-07
      -1.97337386e-07 -1.30656417e-07 -1.30656417e-07 -1.30656417e-07
      -2.83045694e-07 -2.83045694e-07 -2.83045694e-07 -2.83045694e-07
      -2.83045694e-07 -2.83045694e-07 1.46748542e-08 1.46748542e-08
      1.46748542e-08 1.25439868e-07 1.25439868e-07 1.25439868e-07
      8.04598201e-08 8.04598201e-08 8.04598201e-08 4.12504562e-07
      4.12504562e-07 4.12504562e-07 8.90766430e-08 8.90766430e-08
      8.90766430e-08 2.77216060e-07 2.77216060e-07 2.77216060e-07
      7.01579495e-07 7.01579495e-07 7.01579495e-07 -4.73151289e-07
      -4.73151289e-07 -4.73151289e-07 3.04745100e-07 3.04745100e-07
      3.04745100e-07 -2.24632186e-06 -2.24632186e-06 -2.24632186e-06
      -5.10097198e-06 -5.10097198e-06 -5.10097198e-06 -3.17253921e-06
      -3.17253921e-06 -3.17253921e-06 -1.37730449e-05 -1.37730449e-05
      -1.37730449e-05 -1.15296698e-05 -1.15296698e-05 -1.15296698e-05
      1.61912723e-07 1.61912723e-07 1.61912723e-07 1.33361908e-07
      1.33361908e-07 1.33361908e-07 5.67130165e-08 5.67130165e-08
      5.67130165e-08 0. 0. 0. 8.09396568e-08 8.09396568e-08
      8.09396568e-08 0. 0. 0. 0. 0. 0. 0. 0. 0. 0. 0. 0. 0. 0. 0. 0. 0.
      0. 0. 0. 0. 0. 0. 0. 0. 0. 0. 0. 0. 0. 0. 0. 0. 0. 0. 0. 0. 0. 0.
      0. 0. 0. 3.36159474e-07 3.36159474e-07 3.36159474e-07
      -1.72559766e-07 -1.72559766e-07 -1.72559766e-07 1.43212304e-07
      1.43212304e-07 1.43212304e-07 4.12820145e-06 4.12820145e-06
      4.12820145e-06 6.54768064e-06 6.54768064e-06 6.54768064e-06
      6.05577725e-06 6.05577725e-06 6.05577725e-06 5.70425618e-06
      5.70425618e-06 5.70425618e-06 6.02771024e-06 6.02771024e-06
      6.02771024e-06 6.57527062e-06 6.57527062e-06 6.57527062e-06
      6.37225048e-06 6.37225048e-06 6.37225048e-06 6.03414264e-06
      6.03414264e-06 6.03414264e-06 5.82151051e-06 5.82151051e-06
      5.82151051e-06 6.12157692e-06 6.12157692e-06 6.12157692e-06
      6.37427274e-06 6.37427274e-06 6.37427274e-06 6.53716688e-06
      6.53716688e-06 6.53716688e-06 6.75017782e-06 6.75017782e-06
      6.75017782e-06 5.48517937e-06 5.48517937e-06 5.48517937e-06
      2.61915443e-06 2.61915443e-06 2.61915443e-06 6.34071284e-06
      6.34071284e-06 6.34071284e-06 8.87040096e-06 8.87040096e-06
      8.87040096e-06 1.23942846e-05 1.23942846e-05 1.23942846e-05
      1.05320705e-05 1.05320705e-05 1.05320705e-05 -3.92884203e-07
      -3.92884203e-07 -3.92884203e-07 -2.98917303e-06 -2.98917303e-06
      -2.98917303e-06 -1.12343798e-06 -1.12343798e-06 -1.12343798e-06
      -6.70208863e-07 -6.70208863e-07 -6.70208863e-07 -9.29372959e-07
      -9.29372959e-07 -9.29372959e-07 -1.21801588e-06 -1.21801588e-06
      -1.21801588e-06 -9.02590330e-07 -9.02590330e-07 -9.02590330e-07
      -8.64497906e-07 -8.64497906e-07 -8.64497906e-07 -7.39454663e-07
      -7.39454663e-07 -7.39454663e-07 -5.19218645e-07 -5.19218645e-07
      -5.19218645e-07 -3.16402861e-07 -3.16402861e-07 -3.16402861e-07
      -3.16402861e-07 -3.16402861e-07 -3.16402861e-07 -3.16402861e-07
      -3.16402861e-07 -3.16402861e-07 -4.79419668e-07 -4.79419668e-07
      -4.79419668e-07 -4.12738700e-07 -4.12738700e-07 -4.12738700e-07
      -1.82458066e-07 -1.82458066e-07 -1.82458066e-07 -1.21077948e-08
      -1.21077948e-08 -1.21077948e-08 1.20358123e-07 1.20358123e-07
      1.20358123e-07 -2.21176649e-07 -2.21176649e-07 -2.21176649e-07
      2.94789714e-07 2.94789714e-07 2.94789714e-07 -1.85700614e-07
      -1.85700614e-07 -1.85700614e-07 -2.42852387e-08 -2.42852387e-08
      -2.42852387e-08 1.38253668e-07 1.38253668e-07 1.38253668e-07
      -6.10496443e-07 -6.10496443e-07 -6.10496443e-07 -8.57972509e-07
      -8.57972509e-07 -8.57972509e-07 -2.28546298e-07 -2.28546298e-07
      -2.28546298e-07 -4.66097305e-07 -4.66097305e-07 -4.66097305e-07
      -4.50396055e-06 -4.50396055e-06 -4.50396055e-06 -5.15988086e-06
      -5.15988086e-06 -5.15988086e-06 -1.61527254e-07 -1.61527254e-07
      -1.61527254e-07 2.59727443e-07 2.59727443e-07 2.59727443e-07
      1.97099496e-07 1.97099496e-07 1.97099496e-07 1.42921195e-08
      1.42921195e-08 1.42921195e-08 1.94497076e-07 1.94497076e-07
      1.94497076e-07 0. 0. 0. 0. 0. 0. 0. 0. 0. 0. 0. 0. 0. 0. 0. 0. 0.
      0. 0. 0. 0. 0. 0. 0. 0. 0. 0. 0. 0. 0. 0. 0. 0. 0. 0. 0. 0. 0. 0.
      0. 0. 0. 2.13544027e-08 2.13544027e-08 2.13544027e-08
      3.74099614e-07 3.74099614e-07 3.74099614e-07 3.78950358e-06
      3.78950358e-06 3.78950358e-06 6.37573430e-06 6.37573430e-06
      6.37573430e-06 5.44011118e-06 5.44011118e-06 5.44011118e-06
      6.05421747e-06 6.05421747e-06 6.05421747e-06 4.82308678e-06
      4.82308678e-06 4.82308678e-06 5.62780497e-06 5.62780497e-06
      5.62780497e-06 5.67230154e-06 5.67230154e-06 5.67230154e-06
      5.16878981e-06 5.16878981e-06 5.16878981e-06 4.63808101e-06
      4.63808101e-06 4.63808101e-06 4.62538492e-06 4.62538492e-06
      4.62538492e-06 5.04590389e-06 5.04590389e-06 5.04590389e-06
      5.57847488e-06 5.57847488e-06 5.57847488e-06 5.94728590e-06
      5.94728590e-06 5.94728590e-06 6.06903359e-06 6.06903359e-06
      6.06903359e-06 5.28496184e-06 5.28496184e-06 5.28496184e-06
      4.28731801e-06 4.28731801e-06 4.28731801e-06 6.44626925e-06
      6.44626925e-06 6.44626925e-06 9.38796165e-06 9.38796165e-06
      9.38796165e-06 1.17123427e-05 1.17123427e-05 1.17123427e-05
      8.92012849e-06 8.92012849e-06 8.92012849e-06 6.80601673e-08
      6.80601673e-08 6.80601673e-08 -2.51971210e-06 -2.51971210e-06
      -2.51971210e-06 -6.29224644e-07 -6.29224644e-07 -6.29224644e-07
      -6.18478282e-07 -6.18478282e-07 -6.18478282e-07 -9.88407351e-07
      -9.88407351e-07 -9.88407351e-07 -1.04387789e-06 -1.04387789e-06
      -1.04387789e-06 -7.28452278e-07 -7.28452278e-07 -7.28452278e-07
      -7.54267944e-07 -7.54267944e-07 -7.54267944e-07 -8.75660476e-07
      -8.75660476e-07 -8.75660476e-07 -9.14393013e-07 -9.14393013e-07
      -9.14393013e-07 -6.56865666e-07 -6.56865666e-07 -6.56865666e-07
      -6.75793672e-07 -6.75793672e-07 -6.75793672e-07 -6.09112703e-07
      -6.09112703e-07 -6.09112703e-07 -7.27732356e-07 -7.27732356e-07
      -7.27732356e-07 -7.16658974e-07 -7.16658974e-07 -7.16658974e-07
      -4.94232950e-07 -4.94232950e-07 -4.94232950e-07 -3.88549665e-07
      -3.88549665e-07 -3.88549665e-07 -2.43355458e-07 -2.43355458e-07
      -2.43355458e-07 -4.19342058e-07 -4.19342058e-07 -4.19342058e-07
      1.36200725e-07 1.36200725e-07 1.36200725e-07 -4.87535772e-07
      -4.87535772e-07 -4.87535772e-07 -9.33867227e-07 -9.33867227e-07
      -9.33867227e-07 -2.18174350e-07 -2.18174350e-07 -2.18174350e-07
      -6.10700340e-07 -6.10700340e-07 -6.10700340e-07 -3.87865498e-07
      -3.87865498e-07 -3.87865498e-07 3.27671319e-06 3.27671319e-06
      3.27671319e-06 1.55521604e-06 1.55521604e-06 1.55521604e-06
      -2.32134039e-06 -2.32134039e-06 -2.32134039e-06 -1.29878640e-06
      -1.29878640e-06 -1.29878640e-06 4.35872653e-06 4.35872653e-06
      4.35872653e-06 1.89280129e-08 1.89280129e-08 1.89280129e-08
      2.44440002e-07 2.44440002e-07 2.44440002e-07 1.27816122e-07
      1.27816122e-07 1.27816122e-07 -1.34328928e-07 -1.34328928e-07
      -1.34328928e-07 0. 0. 0. 0. 0. 0. 0. 0. 0. 0. 0. 0. 0. 0. 0. 0. 0.
      0. 0. 0. 0. 0. 0. 0. 0. 0. 0. 0. 0. 0. 0. 0. 0. 0. 0. 0. 0. 0. 0.
      0. 0. 0. 2.15439059e-07 2.15439059e-07 2.15439059e-07
      4.89294045e-08 4.89294045e-08 4.89294045e-08 9.25990571e-06
      9.25990571e-06 9.25990571e-06 7.33296201e-06 7.33296201e-06
      7.33296201e-06 6.54054475e-06 6.54054475e-06 6.54054475e-06
      5.22645723e-06 5.22645723e-06 5.22645723e-06 4.12203690e-06
      4.12203690e-06 4.12203690e-06 4.38441111e-06 4.38441111e-06
      4.38441111e-06 4.47226876e-06 4.47226876e-06 4.47226876e-06
      4.09464838e-06 4.09464838e-06 4.09464838e-06 3.74135243e-06
      3.74135243e-06 3.74135243e-06 3.79089670e-06 3.79089670e-06
      3.79089670e-06 3.98794600e-06 3.98794600e-06 3.98794600e-06
      4.61425043e-06 4.61425043e-06 4.61425043e-06 4.95416589e-06
      4.95416589e-06 4.95416589e-06 5.24214511e-06 5.24214511e-06
      5.24214511e-06 6.17869546e-06 6.17869546e-06 6.17869546e-06
      6.71628914e-06 6.71628914e-06 6.71628914e-06 6.18324702e-06
      6.18324702e-06 6.18324702e-06 9.15755300e-06 9.15755300e-06
      9.15755300e-06 1.19973920e-05 1.19973920e-05 1.19973920e-05
      9.68761287e-06 9.68761287e-06 9.68761287e-06 8.33538934e-07
      8.33538934e-07 8.33538934e-07 -2.22323774e-06 -2.22323774e-06
      -2.22323774e-06 -6.10831705e-07 -6.10831705e-07 -6.10831705e-07
      -6.33291563e-07 -6.33291563e-07 -6.33291563e-07 -8.65672973e-07
      -8.65672973e-07 -8.65672973e-07 -8.52153676e-07 -8.52153676e-07
      -8.52153676e-07 -6.82130405e-07 -6.82130405e-07 -6.82130405e-07
      -9.62236527e-07 -9.62236527e-07 -9.62236527e-07 -9.37643790e-07
      -9.37643790e-07 -9.37643790e-07 -8.98891813e-07 -8.98891813e-07
      -8.98891813e-07 -7.78258197e-07 -7.78258197e-07 -7.78258197e-07
      -8.02267948e-07 -8.02267948e-07 -8.02267948e-07 -9.39815607e-07
      -9.39815607e-07 -9.39815607e-07 -8.54206633e-07 -8.54206633e-07
      -8.54206633e-07 -8.43133250e-07 -8.43133250e-07 -8.43133250e-07
      -6.87971124e-07 -6.87971124e-07 -6.87971124e-07 -5.62463811e-07
      -5.62463811e-07 -5.62463811e-07 -6.96792767e-07 -6.96792767e-07
      -6.96792767e-07 8.91073739e-08 8.91073739e-08 8.91073739e-08
      -9.79501237e-07 -9.79501237e-07 -9.79501237e-07 -7.58862882e-07
      -7.58862882e-07 -7.58862882e-07 -2.15583036e-08 -2.15583036e-08
      -2.15583036e-08 -2.65710298e-07 -2.65710298e-07 -2.65710298e-07
      -6.28864314e-07 -6.28864314e-07 -6.28864314e-07 -5.17240437e-07
      -5.17240437e-07 -5.17240437e-07 5.79243988e-06 5.79243988e-06
      5.79243988e-06 5.16484852e-06 5.16484852e-06 5.16484852e-06
      7.09983226e-07 7.09983226e-07 7.09983226e-07 8.34993716e-06
      8.34993716e-06 8.34993716e-06 4.86533099e-06 4.86533099e-06
      4.86533099e-06 1.03105918e-07 1.03105918e-07 1.03105918e-07
      2.86878734e-08 2.86878734e-08 2.86878734e-08 8.14232166e-08
      8.14232166e-08 8.14232166e-08 4.43971437e-08 4.43971437e-08
      4.43971437e-08 0. 0. 0. 0. 0. 0. 0. 0. 0. 0. 0. 0. 0. 0. 0. 0. 0.
      0. 0. 0. 0. 0. 0. 0. 0. 0. 0. 0. 0. 0. 0. 0. 0. 0. 0. 0. 0. 0. 0.
      0. 0. 0. 9.74078560e-08 9.74078560e-08 9.74078560e-08
      6.66809541e-08 6.66809541e-08 6.66809541e-08 9.42472343e-06
      9.42472343e-06 9.42472343e-06 7.08851167e-06 7.08851167e-06
      7.08851167e-06 6.41232191e-06 6.41232191e-06 6.41232191e-06
      4.10972461e-06 4.10972461e-06 4.10972461e-06 3.83278075e-06
      3.83278075e-06 3.83278075e-06 3.25319479e-06 3.25319479e-06
      3.25319479e-06 3.53544624e-06 3.53544624e-06 3.53544624e-06
      3.46662159e-06 3.46662159e-06 3.46662159e-06 3.33266621e-06
      3.33266621e-06 3.33266621e-06 3.38951054e-06 3.38951054e-06
      3.38951054e-06 3.57634985e-06 3.57634985e-06 3.57634985e-06
      3.85831663e-06 3.85831663e-06 3.85831663e-06 4.04535331e-06
      4.04535331e-06 4.04535331e-06 4.37177823e-06 4.37177823e-06
      4.37177823e-06 5.95641313e-06 5.95641313e-06 5.95641313e-06
      7.63470052e-06 7.63470052e-06 7.63470052e-06 7.13204645e-06
      7.13204645e-06 7.13204645e-06 8.45978502e-06 8.45978502e-06
      8.45978502e-06 1.24126218e-05 1.24126218e-05 1.24126218e-05
      9.99877739e-06 9.99877739e-06 9.99877739e-06 4.50813189e-07
      4.50813189e-07 4.50813189e-07 -1.63287712e-06 -1.63287712e-06
      -1.63287712e-06 -4.60123829e-07 -4.60123829e-07 -4.60123829e-07
      -6.09281813e-07 -6.09281813e-07 -6.09281813e-07 -8.65672973e-07
      -8.65672973e-07 -8.65672973e-07 -8.52153676e-07 -8.52153676e-07
      -8.52153676e-07 -8.88013972e-07 -8.88013972e-07 -8.88013972e-07
      -1.11148370e-06 -1.11148370e-06 -1.11148370e-06 -9.45498471e-07
      -9.45498471e-07 -9.45498471e-07 -8.89160276e-07 -8.89160276e-07
      -8.89160276e-07 -8.05040827e-07 -8.05040827e-07 -8.05040827e-07
      -8.21195954e-07 -8.21195954e-07 -8.21195954e-07 -7.81297672e-07
      -7.81297672e-07 -7.81297672e-07 -7.03543321e-07 -7.03543321e-07
      -7.03543321e-07 -6.40218161e-07 -6.40218161e-07 -6.40218161e-07
      -5.29453132e-07 -5.29453132e-07 -5.29453132e-07 -5.89246440e-07
      -5.89246440e-07 -5.89246440e-07 -5.85131716e-07 -5.85131716e-07
      -5.85131716e-07 -5.48589242e-07 -5.48589242e-07 -5.48589242e-07
      -3.54851096e-07 -3.54851096e-07 -3.54851096e-07 -8.23789549e-07
      -8.23789549e-07 -8.23789549e-07 -5.55371855e-07 -5.55371855e-07
      -5.55371855e-07 -4.66572459e-07 -4.66572459e-07 -4.66572459e-07
      -2.04475796e-07 -2.04475796e-07 -2.04475796e-07 -3.26094067e-07
      -3.26094067e-07 -3.26094067e-07 5.59310593e-06 5.59310593e-06
      5.59310593e-06 9.04216631e-06 9.04216631e-06 9.04216631e-06
      1.84096882e-06 1.84096882e-06 1.84096882e-06 1.02358272e-05
      1.02358272e-05 1.02358272e-05 6.22550533e-06 6.22550533e-06
      6.22550533e-06 5.88263198e-08 5.88263198e-08 5.88263198e-08
      1.19693651e-08 1.19693651e-08 1.19693651e-08 1.58548119e-07
      1.58548119e-07 1.58548119e-07 6.66809541e-08 6.66809541e-08
      6.66809541e-08 0. 0. 0. 0. 0. 0. 0. 0. 0. 0. 0. 0. 0. 0. 0. 0. 0.
      0. 0. 0. 0. 0. 0. 0. 0. 0. 0. 0. 0. 0. 0. 0. 0. 0. 0. 0. 0. 0. 0.
      0. 0. 0. 1.08305201e-07 1.08305201e-07 1.08305201e-07
      1.89280129e-08 1.89280129e-08 1.89280129e-08 9.53913968e-06
      9.53913968e-06 9.53913968e-06 7.89100613e-06 7.89100613e-06
      7.89100613e-06 5.63797494e-06 5.63797494e-06 5.63797494e-06
      3.43004854e-06 3.43004854e-06 3.43004854e-06 2.59184412e-06
      2.59184412e-06 2.59184412e-06 2.50637936e-06 2.50637936e-06
      2.50637936e-06 2.78208267e-06 2.78208267e-06 2.78208267e-06
      2.05384117e-06 2.05384117e-06 2.05384117e-06 2.07692347e-06
      2.07692347e-06 2.07692347e-06 2.43766976e-06 2.43766976e-06
      2.43766976e-06 2.82089900e-06 2.82089900e-06 2.82089900e-06
      3.16836827e-06 3.16836827e-06 3.16836827e-06 3.30973558e-06
      3.30973558e-06 3.30973558e-06 4.24862310e-06 4.24862310e-06
      4.24862310e-06 6.89638273e-06 6.89638273e-06 6.89638273e-06
      7.01375802e-06 7.01375802e-06 7.01375802e-06 6.82569771e-06
      6.82569771e-06 6.82569771e-06 8.00847920e-06 8.00847920e-06
      8.00847920e-06 1.30245353e-05 1.30245353e-05 1.30245353e-05
      1.04866231e-05 1.04866231e-05 1.04866231e-05 -1.58421130e-06
      -1.58421130e-06 -1.58421130e-06 -1.24627172e-06 -1.24627172e-06
      -1.24627172e-06 -1.49866793e-07 -1.49866793e-07 -1.49866793e-07
      -4.99721580e-07 -4.99721580e-07 -4.99721580e-07 -8.33956278e-07
      -8.33956278e-07 -8.33956278e-07 -8.17218279e-07 -8.17218279e-07
      -8.17218279e-07 -8.81126311e-07 -8.81126311e-07 -8.81126311e-07
      -9.50580215e-07 -9.50580215e-07 -9.50580215e-07 -1.07550454e-06
      -1.07550454e-06 -1.07550454e-06 -9.55453856e-07 -9.55453856e-07
      -9.55453856e-07 -9.43484508e-07 -9.43484508e-07 -9.43484508e-07
      -8.95731546e-07 -8.95731546e-07 -8.95731546e-07 -9.04345086e-07
      -9.04345086e-07 -9.04345086e-07 -7.78837830e-07 -7.78837830e-07
      -7.78837830e-07 -7.78837830e-07 -7.78837830e-07 -7.78837830e-07
      -6.48072785e-07 -6.48072785e-07 -6.48072785e-07 -6.29144779e-07
      -6.29144779e-07 -6.29144779e-07 -5.61704894e-07 -5.61704894e-07
      -5.61704894e-07 -5.68217672e-07 -5.68217672e-07 -5.68217672e-07
      -7.57136945e-07 -7.57136945e-07 -7.57136945e-07 -5.13369059e-07
      -5.13369059e-07 -5.13369059e-07 -3.55375505e-07 -3.55375505e-07
      -3.55375505e-07 -4.14951955e-07 -4.14951955e-07 -4.14951955e-07
      -4.36398835e-07 -4.36398835e-07 -4.36398835e-07 -4.00238577e-07
      -4.00238577e-07 -4.00238577e-07 5.88819648e-06 5.88819648e-06
      5.88819648e-06 9.71468216e-06 9.71468216e-06 9.71468216e-06
      4.97473320e-06 4.97473320e-06 4.97473320e-06 1.18867238e-05
      1.18867238e-05 1.18867238e-05 8.11632344e-06 8.11632344e-06
      8.11632344e-06 -1.17277821e-07 -1.17277821e-07 -1.17277821e-07 0.
      0. 0. -4.60980267e-08 -4.60980267e-08 -4.60980267e-08
      -2.30427428e-08 -2.30427428e-08 -2.30427428e-08 0. 0. 0. 0. 0. 0.
      0. 0. 0. 0. 0. 0. 0. 0. 0. 0. 0. 0. 0. 0. 0. 0. 0. 0. 0. 0. 0. 0.
      0. 0. 0. 0. 0. 0. 0. 0. 0. 0. 0. 0. 0. 0. 3.00013916e-08
      3.00013916e-08 3.00013916e-08 6.03762302e-08 6.03762302e-08
      6.03762302e-08 9.82107213e-06 9.82107213e-06 9.82107213e-06
      6.04055185e-06 6.04055185e-06 6.04055185e-06 5.16499404e-06
      5.16499404e-06 5.16499404e-06 2.59925241e-06 2.59925241e-06
      2.59925241e-06 2.43690261e-06 2.43690261e-06 2.43690261e-06
      1.95477378e-06 1.95477378e-06 1.95477378e-06 2.11495171e-06
      2.11495171e-06 2.11495171e-06 1.55518364e-06 1.55518364e-06
      1.55518364e-06 1.72930083e-06 1.72930083e-06 1.72930083e-06
      2.39414362e-06 2.39414362e-06 2.39414362e-06 2.76866513e-06
      2.76866513e-06 2.76866513e-06 3.18541788e-06 3.18541788e-06
      3.18541788e-06 3.14802583e-06 3.14802583e-06 3.14802583e-06
      3.98126349e-06 3.98126349e-06 3.98126349e-06 6.78402603e-06
      6.78402603e-06 6.78402603e-06 6.54978066e-06 6.54978066e-06
      6.54978066e-06 5.72357703e-06 5.72357703e-06 5.72357703e-06
      7.91679304e-06 7.91679304e-06 7.91679304e-06 1.20448685e-05
      1.20448685e-05 1.20448685e-05 9.05240267e-06 9.05240267e-06
      9.05240267e-06 -1.73201818e-06 -1.73201818e-06 -1.73201818e-06
      -1.50818039e-06 -1.50818039e-06 -1.50818039e-06 4.14254551e-08
      4.14254551e-08 4.14254551e-08 -2.44521260e-07 -2.44521260e-07
      -2.44521260e-07 -7.64056608e-07 -7.64056608e-07 -7.64056608e-07
      -8.25072902e-07 -8.25072902e-07 -8.25072902e-07 -7.70361339e-07
      -7.70361339e-07 -7.70361339e-07 -8.91753871e-07 -8.91753871e-07
      -8.91753871e-07 -9.49238370e-07 -9.49238370e-07 -9.49238370e-07
      -8.99400447e-07 -8.99400447e-07 -8.99400447e-07 -8.84658164e-07
      -8.84658164e-07 -8.84658164e-07 -8.92512787e-07 -8.92512787e-07
      -8.92512787e-07 -9.11440793e-07 -9.11440793e-07 -9.11440793e-07
      -8.52614505e-07 -8.52614505e-07 -8.52614505e-07 -7.85933537e-07
      -7.85933537e-07 -7.85933537e-07 -7.22608377e-07 -7.22608377e-07
      -7.22608377e-07 -7.86516466e-07 -7.86516466e-07 -7.86516466e-07
      -7.67588404e-07 -7.67588404e-07 -7.67588404e-07 -6.96033794e-07
      -6.96033794e-07 -6.96033794e-07 -7.57273995e-07 -7.57273995e-07
      -7.57273995e-07 -5.78173115e-07 -5.78173115e-07 -5.78173115e-07
      -4.43398335e-07 -4.43398335e-07 -4.43398335e-07 -2.31318808e-07
      -2.31318808e-07 -2.31318808e-07 -8.75714221e-08 -8.75714221e-08
      -8.75714221e-08 2.21953115e-07 2.21953115e-07 2.21953115e-07
      6.60167416e-06 6.60167416e-06 6.60167416e-06 1.15692765e-05
      1.15692765e-05 1.15692765e-05 5.81185986e-06 5.81185986e-06
      5.81185986e-06 1.17880281e-05 1.17880281e-05 1.17880281e-05
      8.90579759e-06 8.90579759e-06 8.90579759e-06 -9.21500884e-08
      -9.21500884e-08 -9.21500884e-08 -7.52945226e-08 -7.52945226e-08
      -7.52945226e-08 6.66809541e-08 6.66809541e-08 6.66809541e-08
      -1.73331244e-07 -1.73331244e-07 -1.73331244e-07 0. 0. 0. 0. 0. 0.
      0. 0. 0. 0. 0. 0. 0. 0. 0. 0. 0. 0. 0. 0. 0. 0. 0. 0. 0. 0. 0. 0.
      0. 0. 0. 0. 0. 0. 0. 0. 0. 0. 0. 0. 0. 0. 1.33361908e-07
      1.33361908e-07 1.33361908e-07 3.31968727e-06 3.31968727e-06
      3.31968727e-06 8.88701288e-06 8.88701288e-06 8.88701288e-06
      5.35810977e-06 5.35810977e-06 5.35810977e-06 4.83512531e-06
      4.83512531e-06 4.83512531e-06 2.60629463e-06 2.60629463e-06
      2.60629463e-06 2.20412767e-06 2.20412767e-06 2.20412767e-06
      2.07928565e-06 2.07928565e-06 2.07928565e-06 1.75509547e-06
      1.75509547e-06 1.75509547e-06 1.41663543e-06 1.41663543e-06
      1.41663543e-06 1.60801312e-06 1.60801312e-06 1.60801312e-06
      2.02959995e-06 2.02959995e-06 2.02959995e-06 2.36122651e-06
      2.36122651e-06 2.36122651e-06 2.72116677e-06 2.72116677e-06
      2.72116677e-06 2.37784752e-06 2.37784752e-06 2.37784752e-06
      3.07100618e-06 3.07100618e-06 3.07100618e-06 5.35520394e-06
      5.35520394e-06 5.35520394e-06 6.81702795e-06 6.81702795e-06
      6.81702795e-06 4.87635680e-06 4.87635680e-06 4.87635680e-06
      8.01064016e-06 8.01064016e-06 8.01064016e-06 1.23295722e-05
      1.23295722e-05 1.23295722e-05 8.33722970e-06 8.33722970e-06
      8.33722970e-06 -1.55501439e-07 -1.55501439e-07 -1.55501439e-07
      -1.02603576e-06 -1.02603576e-06 -1.02603576e-06 2.80006589e-07
      2.80006589e-07 2.80006589e-07 5.79679309e-08 5.79679309e-08
      5.79679309e-08 -3.87927798e-07 -3.87927798e-07 -3.87927798e-07
      -7.14307873e-07 -7.14307873e-07 -7.14307873e-07 -7.11534994e-07
      -7.11534994e-07 -7.11534994e-07 -7.66246615e-07 -7.66246615e-07
      -7.66246615e-07 -1.01822820e-06 -1.01822820e-06 -1.01822820e-06
      -7.70361339e-07 -7.70361339e-07 -7.70361339e-07 -7.66246615e-07
      -7.66246615e-07 -7.66246615e-07 -7.66246615e-07 -7.66246615e-07
      -7.66246615e-07 -7.66246615e-07 -7.66246615e-07 -7.66246615e-07
      -7.85174620e-07 -7.85174620e-07 -7.85174620e-07 -7.63473679e-07
      -7.63473679e-07 -7.63473679e-07 -7.19076525e-07 -7.19076525e-07
      -7.19076525e-07 -7.82984614e-07 -7.82984614e-07 -7.82984614e-07
      -9.06032085e-07 -9.06032085e-07 -9.06032085e-07 -8.91289801e-07
      -8.91289801e-07 -8.91289801e-07 -6.53291579e-07 -6.53291579e-07
      -6.53291579e-07 -6.53291579e-07 -6.53291579e-07 -6.53291579e-07
      -7.83297708e-07 -7.83297708e-07 -7.83297708e-07 -3.12082420e-07
      -3.12082420e-07 -3.12082420e-07 -3.69207868e-07 -3.69207868e-07
      -3.69207868e-07 1.36449145e-07 1.36449145e-07 1.36449145e-07
      7.16168370e-06 7.16168370e-06 7.16168370e-06 1.07609085e-05
      1.07609085e-05 1.07609085e-05 3.85721023e-06 3.85721023e-06
      3.85721023e-06 1.04185920e-05 1.04185920e-05 1.04185920e-05
      9.45839292e-06 9.45839292e-06 9.45839292e-06 -5.19386951e-08
      -5.19386951e-08 -5.19386951e-08 1.33361908e-07 1.33361908e-07
      1.33361908e-07 -3.71254103e-08 -3.71254103e-08 -3.71254103e-08
      -1.11078101e-07 -1.11078101e-07 -1.11078101e-07 0. 0. 0. 0. 0. 0.
      0. 0. 0. 0. 0. 0. 0. 0. 0. 0. 0. 0. 0. 0. 0. 0. 0. 0. 0. 0. 0. 0.
      0. 0. 0. 0. 0. 0. 0. 0. 0. 0. 0. 0. 0. 0. 9.39094491e-08
      9.39094491e-08 9.39094491e-08 3.47619130e-06 3.47619130e-06
      3.47619130e-06 5.61027900e-06 5.61027900e-06 5.61027900e-06
      4.84729571e-06 4.84729571e-06 4.84729571e-06 3.93226264e-06
      3.93226264e-06 3.93226264e-06 2.36797177e-06 2.36797177e-06
      2.36797177e-06 1.27306532e-06 1.27306532e-06 1.27306532e-06
      1.72843727e-06 1.72843727e-06 1.72843727e-06 1.18061200e-06
      1.18061200e-06 1.18061200e-06 1.01388741e-06 1.01388741e-06
      1.01388741e-06 1.06148934e-06 1.06148934e-06 1.06148934e-06
      1.51131815e-06 1.51131815e-06 1.51131815e-06 1.71869249e-06
      1.71869249e-06 1.71869249e-06 1.88531408e-06 1.88531408e-06
      1.88531408e-06 1.66310633e-06 1.66310633e-06 1.66310633e-06
      2.52637756e-06 2.52637756e-06 2.52637756e-06 4.15913746e-06
      4.15913746e-06 4.15913746e-06 5.04450600e-06 5.04450600e-06
      5.04450600e-06 4.46259946e-06 4.46259946e-06 4.46259946e-06
      6.81911024e-06 6.81911024e-06 6.81911024e-06 1.12707539e-05
      1.12707539e-05 1.12707539e-05 7.62463378e-06 7.62463378e-06
      7.62463378e-06 4.63472759e-07 4.63472759e-07 4.63472759e-07
      -1.05065669e-06 -1.05065669e-06 -1.05065669e-06 3.91530534e-07
      3.91530534e-07 3.91530534e-07 2.33399930e-07 2.33399930e-07
      2.33399930e-07 -3.98555329e-07 -3.98555329e-07 -3.98555329e-07
      -8.25968925e-07 -8.25968925e-07 -8.25968925e-07 -6.92606989e-07
      -6.92606989e-07 -6.92606989e-07 -8.19081265e-07 -8.19081265e-07
      -8.19081265e-07 -9.40473797e-07 -9.40473797e-07 -9.40473797e-07
      -8.96835616e-07 -8.96835616e-07 -8.96835616e-07 -6.99565646e-07
      -6.99565646e-07 -6.99565646e-07 -6.99565646e-07 -6.99565646e-07
      -6.99565646e-07 -7.63473679e-07 -7.63473679e-07 -7.63473679e-07
      -6.96792767e-07 -6.96792767e-07 -6.96792767e-07 -7.60700800e-07
      -7.60700800e-07 -7.60700800e-07 -8.27381768e-07 -8.27381768e-07
      -8.27381768e-07 -7.82984614e-07 -7.82984614e-07 -7.82984614e-07
      -7.82984614e-07 -7.82984614e-07 -7.82984614e-07 -8.91289801e-07
      -8.91289801e-07 -8.91289801e-07 -8.38768244e-07 -8.38768244e-07
      -8.38768244e-07 -8.16308386e-07 -8.16308386e-07 -8.16308386e-07
      -7.26826158e-07 -7.26826158e-07 -7.26826158e-07 -6.27834993e-07
      -6.27834993e-07 -6.27834993e-07 -9.10322854e-07 -9.10322854e-07
      -9.10322854e-07 -4.33385736e-07 -4.33385736e-07 -4.33385736e-07
      6.85640907e-06 6.85640907e-06 6.85640907e-06 1.00257221e-05
      1.00257221e-05 1.00257221e-05 5.30270768e-07 5.30270768e-07
      5.30270768e-07 1.27797621e-05 1.27797621e-05 1.27797621e-05
      1.04652127e-05 1.04652127e-05 1.04652127e-05 1.10733778e-08
      1.10733778e-08 1.10733778e-08 -1.57092703e-08 -1.57092703e-08
      -1.57092703e-08 -1.24277495e-08 -1.24277495e-08 -1.24277495e-08 0.
      0. 0. 0. 0. 0. 0. 0. 0. 0. 0. 0. 0. 0. 0. 0. 0. 0. 0. 0. 0. 0. 0.
      0. 0. 0. 0. 0. 0. 0. 0. 0. 0. 0. 0. 0. 0. 0. 0. 0. 0. 0. 0. 0. 0.
      6.66809541e-08 6.66809541e-08 6.66809541e-08 3.74090109e-06
      3.74090109e-06 3.74090109e-06 5.00017995e-06 5.00017995e-06
      5.00017995e-06 3.74005617e-06 3.74005617e-06 3.74005617e-06
      4.00866156e-06 4.00866156e-06 4.00866156e-06 2.17003344e-06
      2.17003344e-06 2.17003344e-06 1.46709954e-06 1.46709954e-06
      1.46709954e-06 6.58949432e-07 6.58949432e-07 6.58949432e-07
      4.66826691e-07 4.66826691e-07 4.66826691e-07 3.14673798e-07
      3.14673798e-07 3.14673798e-07 7.00801252e-07 7.00801252e-07
      7.00801252e-07 9.30246301e-07 9.30246301e-07 9.30246301e-07
      1.07748087e-06 1.07748087e-06 1.07748087e-06 1.19188269e-06
      1.19188269e-06 1.19188269e-06 8.53140307e-07 8.53140307e-07
      8.53140307e-07 1.82766746e-06 1.82766746e-06 1.82766746e-06
      3.46452816e-06 3.46452816e-06 3.46452816e-06 3.71259193e-06
      3.71259193e-06 3.71259193e-06 3.29075556e-06 3.29075556e-06
      3.29075556e-06 5.62208970e-06 5.62208970e-06 5.62208970e-06
      8.76875492e-06 8.76875492e-06 8.76875492e-06 6.04635579e-06
      6.04635579e-06 6.04635579e-06 -1.87725050e-06 -1.87725050e-06
      -1.87725050e-06 -1.26642828e-06 -1.26642828e-06 -1.26642828e-06
      1.42008787e-07 1.42008787e-07 1.42008787e-07 6.67142572e-08
      6.67142572e-08 6.67142572e-08 -5.31917237e-07 -5.31917237e-07
      -5.31917237e-07 -1.08303220e-06 -1.08303220e-06 -1.08303220e-06
      -9.49670266e-07 -9.49670266e-07 -9.49670266e-07 -8.85762233e-07
      -8.85762233e-07 -8.85762233e-07 -8.88535112e-07 -8.88535112e-07
      -8.88535112e-07 -8.84420388e-07 -8.84420388e-07 -8.84420388e-07
      -8.40782207e-07 -8.40782207e-07 -8.40782207e-07 -7.63473679e-07
      -7.63473679e-07 -7.63473679e-07 -7.60700800e-07 -7.60700800e-07
      -7.60700800e-07 -8.31567490e-07 -8.31567490e-07 -8.31567490e-07
      -7.79628806e-07 -7.79628806e-07 -7.79628806e-07 -8.27381768e-07
      -8.27381768e-07 -8.27381768e-07 -6.96033794e-07 -6.96033794e-07
      -6.96033794e-07 -6.29352826e-07 -6.29352826e-07 -6.29352826e-07
      -7.49627418e-07 -7.49627418e-07 -7.49627418e-07 -7.67972551e-07
      -7.67972551e-07 -7.67972551e-07 -7.18730064e-07 -7.18730064e-07
      -7.18730064e-07 -5.92705362e-07 -5.92705362e-07 -5.92705362e-07
      -5.91155413e-07 -5.91155413e-07 -5.91155413e-07 -9.21396236e-07
      -9.21396236e-07 -9.21396236e-07 -6.28759267e-07 -6.28759267e-07
      -6.28759267e-07 5.89946740e-06 5.89946740e-06 5.89946740e-06
      1.11857680e-05 1.11857680e-05 1.11857680e-05 3.07811297e-06
      3.07811297e-06 3.07811297e-06 1.34281827e-05 1.34281827e-05
      1.34281827e-05 1.16898236e-05 1.16898236e-05 1.16898236e-05
      -7.56693481e-08 -7.56693481e-08 -7.56693481e-08 -2.37239306e-07
      -2.37239306e-07 -2.37239306e-07 2.42695876e-07 2.42695876e-07
      2.42695876e-07 1.03223464e-07 1.03223464e-07 1.03223464e-07 0. 0.
      0. 0. 0. 0. 0. 0. 0. 0. 0. 0. 0. 0. 0. 0. 0. 0. 0. 0. 0. 0. 0. 0.
      0. 0. 0. 0. 0. 0. 0. 0. 0. 0. 0. 0. 0. 0. 0. 0. 0. 0.
      1.91724183e-07 1.91724183e-07 1.91724183e-07 -2.30427428e-08
      -2.30427428e-08 -2.30427428e-08 4.76018158e-06 4.76018158e-06
      4.76018158e-06 2.56285557e-06 2.56285557e-06 2.56285557e-06
      2.81796292e-06 2.81796292e-06 2.81796292e-06 1.73946330e-06
      1.73946330e-06 1.73946330e-06 7.21336392e-07 7.21336392e-07
      7.21336392e-07 2.92842770e-07 2.92842770e-07 2.92842770e-07
      8.59625331e-08 8.59625331e-08 8.59625331e-08 1.05440023e-07
      1.05440023e-07 1.05440023e-07 4.12158244e-07 4.12158244e-07
      4.12158244e-07 6.08592586e-07 6.08592586e-07 6.08592586e-07
      5.11316102e-07 5.11316102e-07 5.11316102e-07 3.22798087e-07
      3.22798087e-07 3.22798087e-07 -2.66001070e-08 -2.66001070e-08
      -2.66001070e-08 6.63225137e-07 6.63225137e-07 6.63225137e-07
      1.98351950e-06 1.98351950e-06 1.98351950e-06 2.44010835e-06
      2.44010835e-06 2.44010835e-06 1.97926693e-06 1.97926693e-06
      1.97926693e-06 3.48515482e-06 3.48515482e-06 3.48515482e-06
      6.66552569e-06 6.66552569e-06 6.66552569e-06 3.98329439e-06
      3.98329439e-06 3.98329439e-06 -4.44441775e-06 -4.44441775e-06
      -4.44441775e-06 -2.23493976e-06 -2.23493976e-06 -2.23493976e-06
      5.99316365e-08 5.99316365e-08 5.99316365e-08 2.94980936e-07
      2.94980936e-07 2.94980936e-07 -4.75863828e-07 -4.75863828e-07
      -4.75863828e-07 -1.08580514e-06 -1.08580514e-06 -1.08580514e-06
      -9.52443202e-07 -9.52443202e-07 -9.52443202e-07 -1.02697879e-06
      -1.02697879e-06 -1.02697879e-06 -1.11258771e-06 -1.11258771e-06
      -1.11258771e-06 -9.74144086e-07 -9.74144086e-07 -9.74144086e-07
      -9.26391181e-07 -9.26391181e-07 -9.26391181e-07 -8.56937277e-07
      -8.56937277e-07 -8.56937277e-07 -9.06103082e-07 -9.06103082e-07
      -9.06103082e-07 -8.39422171e-07 -8.39422171e-07 -8.39422171e-07
      -8.39422171e-07 -8.39422171e-07 -8.39422171e-07 -8.87175077e-07
      -8.87175077e-07 -8.87175077e-07 -6.37207506e-07 -6.37207506e-07
      -6.37207506e-07 -5.70526538e-07 -5.70526538e-07 -5.70526538e-07
      -5.27025350e-07 -5.27025350e-07 -5.27025350e-07 -4.89003980e-07
      -4.89003980e-07 -4.89003980e-07 -4.88273372e-07 -4.88273372e-07
      -4.88273372e-07 -5.14742908e-07 -5.14742908e-07 -5.14742908e-07
      -3.50384312e-07 -3.50384312e-07 -3.50384312e-07 -1.74221682e-07
      -1.74221682e-07 -1.74221682e-07 -1.89376365e-07 -1.89376365e-07
      -1.89376365e-07 4.43962017e-06 4.43962017e-06 4.43962017e-06
      1.03170969e-05 1.03170969e-05 1.03170969e-05 7.46955584e-06
      7.46955584e-06 7.46955584e-06 1.15788635e-05 1.15788635e-05
      1.15788635e-05 1.13653205e-05 1.13653205e-05 1.13653205e-05
      1.30589015e-07 1.30589015e-07 1.30589015e-07 3.29494384e-07
      3.29494384e-07 3.29494384e-07 -6.74398848e-08 -6.74398848e-08
      -6.74398848e-08 1.81690822e-08 1.81690822e-08 1.81690822e-08 0. 0.
      0. 0. 0. 0. 0. 0. 0. 0. 0. 0. 0. 0. 0. 0. 0. 0. 0. 0. 0. 0. 0. 0.
      0. 0. 0. 0. 0. 0. 0. 0. 0. 0. 0. 0. 0. 0. 0. 0. 0. 0.
      1.62604366e-07 1.62604366e-07 1.62604366e-07 -7.85463516e-09
      -7.85463516e-09 -7.85463516e-09 4.14484430e-06 4.14484430e-06
      4.14484430e-06 9.17132240e-07 9.17132240e-07 9.17132240e-07
      1.77630739e-06 1.77630739e-06 1.77630739e-06 8.95994219e-07
      8.95994219e-07 8.95994219e-07 2.21761969e-08 2.21761969e-08
      2.21761969e-08 -2.24258201e-07 -2.24258201e-07 -2.24258201e-07
      -3.16243472e-07 -3.16243472e-07 -3.16243472e-07 -2.80923956e-07
      -2.80923956e-07 -2.80923956e-07 -6.54598438e-08 -6.54598438e-08
      -6.54598438e-08 3.80000174e-08 3.80000174e-08 3.80000174e-08
      -7.81565301e-09 -7.81565301e-09 -7.81565301e-09 -2.08898484e-07
      -2.08898484e-07 -2.08898484e-07 -2.26274707e-07 -2.26274707e-07
      -2.26274707e-07 5.24767984e-07 5.24767984e-07 5.24767984e-07
      1.38146345e-06 1.38146345e-06 1.38146345e-06 9.38621042e-07
      9.38621042e-07 9.38621042e-07 1.89207253e-06 1.89207253e-06
      1.89207253e-06 2.02143724e-06 2.02143724e-06 2.02143724e-06
      6.09232984e-06 6.09232984e-06 6.09232984e-06 4.45986643e-06
      4.45986643e-06 4.45986643e-06 -3.96299720e-06 -3.96299720e-06
      -3.96299720e-06 -2.79917344e-06 -2.79917344e-06 -2.79917344e-06
      -2.73322485e-08 -2.73322485e-08 -2.73322485e-08 3.23876890e-07
      3.23876890e-07 3.23876890e-07 -3.15619928e-07 -3.15619928e-07
      -3.15619928e-07 -1.11594352e-06 -1.11594352e-06 -1.11594352e-06
      -9.85354518e-07 -9.85354518e-07 -9.85354518e-07 -1.06819061e-06
      -1.06819061e-06 -1.06819061e-06 -1.19877961e-06 -1.19877961e-06
      -1.19877961e-06 -1.07926394e-06 -1.07926394e-06 -1.07926394e-06
      -1.00922728e-06 -1.00922728e-06 -1.00922728e-06 -9.42546251e-07
      -9.42546251e-07 -9.42546251e-07 -9.27804024e-07 -9.27804024e-07
      -9.27804024e-07 -9.06103082e-07 -9.06103082e-07 -9.06103082e-07
      -7.79836910e-07 -7.79836910e-07 -7.79836910e-07 -7.79836910e-07
      -7.79836910e-07 -7.79836910e-07 -6.42289251e-07 -6.42289251e-07
      -6.42289251e-07 -6.42289251e-07 -6.42289251e-07 -6.42289251e-07
      -5.71109410e-07 -5.71109410e-07 -5.71109410e-07 -5.52912013e-07
      -5.52912013e-07 -5.52912013e-07 -3.53393602e-07 -3.53393602e-07
      -3.53393602e-07 -3.19486929e-07 -3.19486929e-07 -3.19486929e-07
      -3.30697361e-07 -3.30697361e-07 -3.30697361e-07 5.88583013e-08
      5.88583013e-08 5.88583013e-08 2.64449458e-08 2.64449458e-08
      2.64449458e-08 3.14002841e-06 3.14002841e-06 3.14002841e-06
      6.62358707e-06 6.62358707e-06 6.62358707e-06 5.72514227e-06
      5.72514227e-06 5.72514227e-06 1.33036247e-05 1.33036247e-05
      1.33036247e-05 9.67500273e-06 9.67500273e-06 9.67500273e-06
      -5.19386951e-08 -5.19386951e-08 -5.19386951e-08 5.41607399e-08
      5.41607399e-08 5.41607399e-08 -7.42225055e-08 -7.42225055e-08
      -7.42225055e-08 0. 0. 0. 0. 0. 0. 0. 0. 0. 0. 0. 0. 0. 0. 0. 0. 0.
      0. 0. 0. 0. 0. 0. 0. 0. 0. 0. 0. 0. 0. 0. 0. 0. 0. 0. 0. 0. 0. 0.
      0. 0. 0. 0. 0. 0. -6.74398848e-08 -6.74398848e-08 -6.74398848e-08
      1.46744128e-07 1.46744128e-07 1.46744128e-07 3.51672747e-06
      3.51672747e-06 3.51672747e-06 -3.46360935e-07 -3.46360935e-07
      -3.46360935e-07 5.91492380e-07 5.91492380e-07 5.91492380e-07
      -5.39460643e-07 -5.39460643e-07 -5.39460643e-07 -5.70793134e-07
      -5.70793134e-07 -5.70793134e-07 -6.24117774e-07 -6.24117774e-07
      -6.24117774e-07 -4.47114957e-07 -4.47114957e-07 -4.47114957e-07
      -6.02741181e-07 -6.02741181e-07 -6.02741181e-07 -4.12717867e-07
      -4.12717867e-07 -4.12717867e-07 -4.30886956e-07 -4.30886956e-07
      -4.30886956e-07 -3.93272416e-07 -3.93272416e-07 -3.93272416e-07
      -2.50956106e-07 -2.50956106e-07 -2.50956106e-07 -5.56272006e-08
      -5.56272006e-08 -5.56272006e-08 7.36976176e-07 7.36976176e-07
      7.36976176e-07 -1.05324929e-07 -1.05324929e-07 -1.05324929e-07
      -1.02438882e-07 -1.02438882e-07 -1.02438882e-07 -4.50108644e-07
      -4.50108644e-07 -4.50108644e-07 5.14594944e-07 5.14594944e-07
      5.14594944e-07 4.47748062e-06 4.47748062e-06 4.47748062e-06
      5.06332481e-06 5.06332481e-06 5.06332481e-06 -4.09833046e-06
      -4.09833046e-06 -4.09833046e-06 -4.62686194e-06 -4.62686194e-06
      -4.62686194e-06 -6.10823463e-07 -6.10823463e-07 -6.10823463e-07
      -1.28442409e-07 -1.28442409e-07 -1.28442409e-07 -5.74025080e-07
      -5.74025080e-07 -5.74025080e-07 -1.31044067e-06 -1.31044067e-06
      -1.31044067e-06 -1.13764440e-06 -1.13764440e-06 -1.13764440e-06
      -1.13764440e-06 -1.13764440e-06 -1.13764440e-06 -1.28716147e-06
      -1.28716147e-06 -1.28716147e-06 -1.08989150e-06 -1.08989150e-06
      -1.08989150e-06 -8.97390180e-07 -8.97390180e-07 -8.97390180e-07
      -9.64071205e-07 -9.64071205e-07 -9.64071205e-07 -1.06040704e-06
      -1.06040704e-06 -1.06040704e-06 -8.67459846e-07 -8.67459846e-07
      -8.67459846e-07 -7.82609789e-07 -7.82609789e-07 -7.82609789e-07
      -7.13155941e-07 -7.13155941e-07 -7.13155941e-07 -8.28348789e-07
      -8.28348789e-07 -8.28348789e-07 -8.40318137e-07 -8.40318137e-07
      -8.40318137e-07 -5.91567868e-07 -5.91567868e-07 -5.91567868e-07
      -6.54121550e-07 -6.54121550e-07 -6.54121550e-07 -2.33119025e-07
      -2.33119025e-07 -2.33119025e-07 -1.23366974e-07 -1.23366974e-07
      -1.23366974e-07 -6.94410915e-07 -6.94410915e-07 -6.94410915e-07
      -3.50699281e-07 -3.50699281e-07 -3.50699281e-07 -5.96194411e-07
      -5.96194411e-07 -5.96194411e-07 2.22327390e-06 2.22327390e-06
      2.22327390e-06 1.44848343e-06 1.44848343e-06 1.44848343e-06
      3.28789429e-06 3.28789429e-06 3.28789429e-06 1.51829954e-05
      1.51829954e-05 1.51829954e-05 7.47970262e-06 7.47970262e-06
      7.47970262e-06 8.87942875e-08 8.87942875e-08 8.87942875e-08
      -3.61045693e-07 -3.61045693e-07 -3.61045693e-07 1.08305201e-07
      1.08305201e-07 1.08305201e-07 -1.09064132e-07 -1.09064132e-07
      -1.09064132e-07 0. 0. 0. 0. 0. 0. 0. 0. 0. 0. 0. 0. 0. 0. 0. 0. 0.
      0. 0. 0. 0. 0. 0. 0. 0. 0. 0. 0. 0. 0. 0. 0. 0. 0. 0. 0. 0. 0. 0.
      0. 0. 0. -7.85463516e-09 -7.85463516e-09 -7.85463516e-09
      1.30006114e-07 1.30006114e-07 1.30006114e-07 3.21316725e-06
      3.21316725e-06 3.21316725e-06 -3.51303947e-06 -3.51303947e-06
      -3.51303947e-06 -9.55078121e-07 -9.55078121e-07 -9.55078121e-07
      -1.58345290e-06 -1.58345290e-06 -1.58345290e-06 -1.76442768e-06
      -1.76442768e-06 -1.76442768e-06 -5.94711935e-07 -5.94711935e-07
      -5.94711935e-07 -1.25949998e-06 -1.25949998e-06 -1.25949998e-06
      -1.68739064e-06 -1.68739064e-06 -1.68739064e-06 -1.17623938e-06
      -1.17623938e-06 -1.17623938e-06 -1.29459625e-06 -1.29459625e-06
      -1.29459625e-06 -1.11041356e-06 -1.11041356e-06 -1.11041356e-06
      -7.30811450e-07 -7.30811450e-07 -7.30811450e-07 -2.50445652e-07
      -2.50445652e-07 -2.50445652e-07 4.75953890e-08 4.75953890e-08
      4.75953890e-08 -1.35663498e-07 -1.35663498e-07 -1.35663498e-07
      -3.12463771e-06 -3.12463771e-06 -3.12463771e-06 -2.09313521e-06
      -2.09313521e-06 -2.09313521e-06 -1.70245460e-06 -1.70245460e-06
      -1.70245460e-06 1.81606106e-06 1.81606106e-06 1.81606106e-06
      3.28571014e-06 3.28571014e-06 3.28571014e-06 -3.42623275e-06
      -3.42623275e-06 -3.42623275e-06 -7.03562637e-06 -7.03562637e-06
      -7.03562637e-06 -1.88598790e-06 -1.88598790e-06 -1.88598790e-06
      -1.58372785e-07 -1.58372785e-07 -1.58372785e-07 -1.46108533e-07
      -1.46108533e-07 -1.46108533e-07 -1.16694730e-06 -1.16694730e-06
      -1.16694730e-06 -1.28450608e-06 -1.28450608e-06 -1.28450608e-06
      -1.02697879e-06 -1.02697879e-06 -1.02697879e-06 -7.63870446e-07
      -7.63870446e-07 -7.63870446e-07 -1.12248972e-06 -1.12248972e-06
      -1.12248972e-06 -1.03352500e-06 -1.03352500e-06 -1.03352500e-06
      -9.16318186e-07 -9.16318186e-07 -9.16318186e-07 -1.12431508e-06
      -1.12431508e-06 -1.12431508e-06 -8.29498788e-07 -8.29498788e-07
      -8.29498788e-07 -9.77282866e-07 -9.77282866e-07 -9.77282866e-07
      -7.75514081e-07 -7.75514081e-07 -7.75514081e-07 -5.84609211e-07
      -5.84609211e-07 -5.84609211e-07 -6.67941379e-07 -6.67941379e-07
      -6.67941379e-07 -4.39354608e-07 -4.39354608e-07 -4.39354608e-07
      -8.18217359e-07 -8.18217359e-07 -8.18217359e-07 -4.62987259e-07
      -4.62987259e-07 -4.62987259e-07 -2.61432064e-07 -2.61432064e-07
      -2.61432064e-07 -3.05790252e-07 -3.05790252e-07 -3.05790252e-07
      -1.29202661e-07 -1.29202661e-07 -1.29202661e-07 -3.21767430e-07
      -3.21767430e-07 -3.21767430e-07 -2.27265991e-06 -2.27265991e-06
      -2.27265991e-06 -4.27063469e-06 -4.27063469e-06 -4.27063469e-06
      -5.01916020e-07 -5.01916020e-07 -5.01916020e-07 1.23299642e-05
      1.23299642e-05 1.23299642e-05 4.40536542e-06 4.40536542e-06
      4.40536542e-06 -3.53182794e-09 -3.53182794e-09 -3.53182794e-09
      -8.82164475e-09 -8.82164475e-09 -8.82164475e-09 5.68444030e-08
      5.68444030e-08 5.68444030e-08 -1.57092703e-08 -1.57092703e-08
      -1.57092703e-08 0. 0. 0. 0. 0. 0. 0. 0. 0. 0. 0. 0. 0. 0. 0. 0. 0.
      0. 0. 0. 0. 0. 0. 0. 0. 0. 0. 0. 0. 0. 0. 0. 0. 0. 0. 0. 0. 0. 0.
      0. 0. 0. 1.34183220e-09 1.34183220e-09 1.34183220e-09
      -2.95838607e-08 -2.95838607e-08 -2.95838607e-08 -5.49303309e-07
      -5.49303309e-07 -5.49303309e-07 -3.13470809e-06 -3.13470809e-06
      -3.13470809e-06 -5.22877463e-06 -5.22877463e-06 -5.22877463e-06
      -2.77386016e-06 -2.77386016e-06 -2.77386016e-06 -1.89634557e-06
      -1.89634557e-06 -1.89634557e-06 -1.23265329e-06 -1.23265329e-06
      -1.23265329e-06 -1.55915609e-06 -1.55915609e-06 -1.55915609e-06
      -2.30715045e-06 -2.30715045e-06 -2.30715045e-06 -2.47580670e-06
      -2.47580670e-06 -2.47580670e-06 -2.22293306e-06 -2.22293306e-06
      -2.22293306e-06 -1.83187058e-06 -1.83187058e-06 -1.83187058e-06
      -1.02394267e-06 -1.02394267e-06 -1.02394267e-06 -6.96074892e-07
      -6.96074892e-07 -6.96074892e-07 -1.31233435e-07 -1.31233435e-07
      -1.31233435e-07 -2.27755919e-07 -2.27755919e-07 -2.27755919e-07
      -5.10445625e-06 -5.10445625e-06 -5.10445625e-06 -5.23509925e-06
      -5.23509925e-06 -5.23509925e-06 -1.79513506e-06 -1.79513506e-06
      -1.79513506e-06 4.37314640e-07 4.37314640e-07 4.37314640e-07
      1.15955845e-06 1.15955845e-06 1.15955845e-06 -3.51065842e-06
      -3.51065842e-06 -3.51065842e-06 -8.17142973e-06 -8.17142973e-06
      -8.17142973e-06 -3.64190555e-06 -3.64190555e-06 -3.64190555e-06
      -2.78835927e-07 -2.78835927e-07 -2.78835927e-07 -4.63240525e-07
      -4.63240525e-07 -4.63240525e-07 -1.06436391e-06 -1.06436391e-06
      -1.06436391e-06 -8.72653573e-07 -8.72653573e-07 -8.72653573e-07
      -5.46913554e-07 -5.46913554e-07 -5.46913554e-07 -1.24165888e-06
      -1.24165888e-06 -1.24165888e-06 -6.20965579e-07 -6.20965579e-07
      -6.20965579e-07 -6.34726348e-07 -6.34726348e-07 -6.34726348e-07
      -6.29043484e-07 -6.29043484e-07 -6.29043484e-07 -6.34825710e-07
      -6.34825710e-07 -6.34825710e-07 -3.96167877e-07 -3.96167877e-07
      -3.96167877e-07 -6.45716057e-07 -6.45716057e-07 -6.45716057e-07
      -3.80247258e-07 -3.80247258e-07 -3.80247258e-07 -1.19652128e-07
      -1.19652128e-07 -1.19652128e-07 -7.52817868e-07 -7.52817868e-07
      -7.52817868e-07 -6.79247734e-08 -6.79247734e-08 -6.79247734e-08
      -8.33894546e-07 -8.33894546e-07 -8.33894546e-07 -4.45927782e-07
      -4.45927782e-07 -4.45927782e-07 -4.30079638e-07 -4.30079638e-07
      -4.30079638e-07 -1.50981464e-07 -1.50981464e-07 -1.50981464e-07
      -3.19323419e-07 -3.19323419e-07 -3.19323419e-07 -1.59422621e-06
      -1.59422621e-06 -1.59422621e-06 -6.00842031e-06 -6.00842031e-06
      -6.00842031e-06 -5.46371302e-06 -5.46371302e-06 -5.46371302e-06
      -8.99327279e-06 -8.99327279e-06 -8.99327279e-06 3.85614703e-06
      3.85614703e-06 3.85614703e-06 -2.35639064e-08 -2.35639064e-08
      -2.35639064e-08 8.43753689e-09 8.43753689e-09 8.43753689e-09
      -1.34879770e-07 -1.34879770e-07 -1.34879770e-07 5.73084584e-08
      5.73084584e-08 5.73084584e-08 -2.91950897e-07 -2.91950897e-07
      -2.91950897e-07 0. 0. 0. 0. 0. 0. 0. 0. 0. 0. 0. 0. 0. 0. 0. 0. 0.
      0. 0. 0. 0. 0. 0. 0. 0. 0. 0. 0. 0. 0. 0. 0. 0. 0. 0. 0. 0. 0. 0.
      0. 0. 0. 6.66809541e-08 6.66809541e-08 6.66809541e-08
      3.22749372e-07 3.22749372e-07 3.22749372e-07 -6.37441303e-07
      -6.37441303e-07 -6.37441303e-07 -4.27467603e-06 -4.27467603e-06
      -4.27467603e-06 -8.91361196e-06 -8.91361196e-06 -8.91361196e-06
      -5.79783500e-06 -5.79783500e-06 -5.79783500e-06 -3.45183912e-06
      -3.45183912e-06 -3.45183912e-06 -1.85544138e-06 -1.85544138e-06
      -1.85544138e-06 -1.70046326e-06 -1.70046326e-06 -1.70046326e-06
      -1.48709989e-06 -1.48709989e-06 -1.48709989e-06 -2.56898443e-06
      -2.56898443e-06 -2.56898443e-06 -2.29153557e-06 -2.29153557e-06
      -2.29153557e-06 -1.73348974e-06 -1.73348974e-06 -1.73348974e-06
      -2.01431885e-06 -2.01431885e-06 -2.01431885e-06 -2.01525063e-06
      -2.01525063e-06 -2.01525063e-06 -1.08105030e-06 -1.08105030e-06
      -1.08105030e-06 -1.94125892e-06 -1.94125892e-06 -1.94125892e-06
      -5.48652997e-06 -5.48652997e-06 -5.48652997e-06 -8.47980664e-06
      -8.47980664e-06 -8.47980664e-06 -4.28175736e-06 -4.28175736e-06
      -4.28175736e-06 -8.54132963e-07 -8.54132963e-07 -8.54132963e-07
      7.55867759e-08 7.55867759e-08 7.55867759e-08 -7.94638254e-06
      -7.94638254e-06 -7.94638254e-06 -1.08016557e-05 -1.08016557e-05
      -1.08016557e-05 -5.53373411e-06 -5.53373411e-06 -5.53373411e-06
      -6.12117503e-07 -6.12117503e-07 -6.12117503e-07 -5.84528095e-07
      -5.84528095e-07 -5.84528095e-07 -1.37426184e-06 -1.37426184e-06
      -1.37426184e-06 -1.13133979e-06 -1.13133979e-06 -1.13133979e-06
      -8.11159339e-07 -8.11159339e-07 -8.11159339e-07 -8.60821274e-07
      -8.60821274e-07 -8.60821274e-07 -9.76772981e-07 -9.76772981e-07
      -9.76772981e-07 -1.01127330e-06 -1.01127330e-06 -1.01127330e-06
      -7.96488109e-07 -7.96488109e-07 -7.96488109e-07 -7.02265595e-07
      -7.02265595e-07 -7.02265595e-07 -7.03024511e-07 -7.03024511e-07
      -7.03024511e-07 -3.29458601e-07 -3.29458601e-07 -3.29458601e-07
      -3.04193804e-07 -3.04193804e-07 -3.04193804e-07 -2.03947579e-07
      -2.03947579e-07 -2.03947579e-07 -3.46865022e-07 -3.46865022e-07
      -3.46865022e-07 -5.74985847e-07 -5.74985847e-07 -5.74985847e-07
      -4.21471611e-07 -4.21471611e-07 -4.21471611e-07 3.37997903e-07
      3.37997903e-07 3.37997903e-07 -2.89210050e-07 -2.89210050e-07
      -2.89210050e-07 1.86618351e-07 1.86618351e-07 1.86618351e-07
      -1.40197028e-06 -1.40197028e-06 -1.40197028e-06 -4.97898463e-06
      -4.97898463e-06 -4.97898463e-06 -1.12854805e-05 -1.12854805e-05
      -1.12854805e-05 -8.05828495e-06 -8.05828495e-06 -8.05828495e-06
      -8.53141773e-06 -8.53141773e-06 -8.53141773e-06 3.16681565e-07
      3.16681565e-07 3.16681565e-07 2.66723816e-07 2.66723816e-07
      2.66723816e-07 -8.31491604e-08 -8.31491604e-08 -8.31491604e-08
      -5.47115917e-08 -5.47115917e-08 -5.47115917e-08 0. 0. 0.
      -1.43493338e-07 -1.43493338e-07 -1.43493338e-07 0. 0. 0. 0. 0. 0.
      0. 0. 0. 0. 0. 0. 0. 0. 0. 0. 0. 0. 0. 0. 0. 0. 0. 0. 0. 0. 0. 0.
      0. 0. 0. 0. 0. 0. 0. 0. 0. 0. 0. 0. 0. 0. 9.01361190e-08
      9.01361190e-08 9.01361190e-08 -7.85463516e-09 -7.85463516e-09
      -7.85463516e-09 -2.99899767e-08 -2.99899767e-08 -2.99899767e-08
      -7.89244496e-06 -7.89244496e-06 -7.89244496e-06 -9.32091370e-06
      -9.32091370e-06 -9.32091370e-06 -1.23928421e-05 -1.23928421e-05
      -1.23928421e-05 -6.26638666e-06 -6.26638666e-06 -6.26638666e-06
      -3.09479742e-06 -3.09479742e-06 -3.09479742e-06 -1.80657241e-06
      -1.80657241e-06 -1.80657241e-06 -1.83197426e-06 -1.83197426e-06
      -1.83197426e-06 -2.56965609e-06 -2.56965609e-06 -2.56965609e-06
      -2.92146456e-06 -2.92146456e-06 -2.92146456e-06 -2.11540396e-06
      -2.11540396e-06 -2.11540396e-06 -2.14443003e-06 -2.14443003e-06
      -2.14443003e-06 -2.19312165e-06 -2.19312165e-06 -2.19312165e-06
      -1.66662721e-06 -1.66662721e-06 -1.66662721e-06 -1.78427661e-06
      -1.78427661e-06 -1.78427661e-06 -5.45430294e-06 -5.45430294e-06
      -5.45430294e-06 -9.44963085e-06 -9.44963085e-06 -9.44963085e-06
      -6.80634548e-06 -6.80634548e-06 -6.80634548e-06 -1.03825982e-06
      -1.03825982e-06 -1.03825982e-06 -1.88170930e-06 -1.88170930e-06
      -1.88170930e-06 -1.15940866e-05 -1.15940866e-05 -1.15940866e-05
      -1.22944621e-05 -1.22944621e-05 -1.22944621e-05 -9.19847571e-06
      -9.19847571e-06 -9.19847571e-06 -3.75773971e-06 -3.75773971e-06
      -3.75773971e-06 -5.72546185e-07 -5.72546185e-07 -5.72546185e-07
      -5.28920509e-07 -5.28920509e-07 -5.28920509e-07 -1.12589896e-06
      -1.12589896e-06 -1.12589896e-06 -9.25010340e-07 -9.25010340e-07
      -9.25010340e-07 -3.56634274e-07 -3.56634274e-07 -3.56634274e-07
      -8.95833352e-07 -8.95833352e-07 -8.95833352e-07 -1.09999655e-06
      -1.09999655e-06 -1.09999655e-06 -6.57422561e-07 -6.57422561e-07
      -6.57422561e-07 -7.24103529e-07 -7.24103529e-07 -7.24103529e-07
      -9.30713952e-07 -9.30713952e-07 -9.30713952e-07 -3.87525972e-07
