<?xml version="1.0"?>
<opencv_storage>
<opencv_ml_svm>
  <format>3</format>
  <svmType>C_SVC</svmType>
  <kernel>
    <type>LINEAR</type></kernel>
  <C>100.</C>
  <term_criteria><iterations>3000</iterations></term_criteria>
  <var_count>30000</var_count>
  <class_count>4</class_count>
  <class_labels type_id="opencv-matrix">
    <rows>4</rows>
    <cols>1</cols>
    <dt>i</dt>
    <data>
      0 1 2 3</data></class_labels>
  <sv_total>6</sv_total>
  <support_vectors>
    <_>
      0. 0. 0. 0. 0. 0. 0. 0. 0. 0. 0. 0. 0. 0. 0. 0. 0. 0. 0. 0. 0. 0.
      0. 0. 0. 0. 0. 0. 0. 0. 0. 0. 0. 0. 0. 0. 0. 0. 0. 0. 0. 0. 0. 0.
      0. 0. 0. 0. 0. 0. 0. 0. 0. 0. 0. 0. 0. 0. 0. 0. 0. 0. 0. 0. 0. 0.
      0. 0. 0. 0. 0. 0. 0. 0. 0. 0. 0. 0. 0. 0. 0. 0. 0. 0. 0. 0. 0. 0.
      0. 0. 0. 0. 0. 0. 0. 0. 0. 0. 0. 0. 0. 0. 0. 0. 0. 0. 0. 0. 0. 0.
      0. 0. 0. 0. 0. 0. 0. 0. 0. 0. 0. 0. 0. 0. 0. 0. 0. 0. 0. 0. 0. 0.
      0. 0. 0. 0. 0. 0. 0. 0. 0. 0. 0. 0. 0. 0. 0. 0. 0. 0. 0. 0. 0. 0.
      0. 0. 0. 0. 0. 0. 0. 0. 0. 0. 0. 0. 0. 0. 0. 0. 0. 0. 0. 0. 0. 0.
      0. 0. 0. 0. 0. 0. 0. 0. 0. 0. 0. 0. 0. 0. 0. 0. 0. 0. 0. 0. 0. 0.
      0. 0. 0. 0. 0. 0. 0. 0. 0. 0. 0. 0. 0. 0. 0. 0. 0. 0. 0. 0. 0. 0.
      0. 0. 0. 0. 0. 0. 0. 0. 0. 0. 0. 0. 0. 0. 0. 0. 0. 0. 0. 0. 0. 0.
      0. 0. 0. 0. 0. 0. 0. 0. 0. 0. 0. 0. 0. 0. 0. 0. 0. 0. 0. 0. 0. 0.
      0. 0. 0. 0. 0. 0. 0. 0. 0. 0. 0. 0. 0. 0. 0. 0. 0. 0. 0. 0. 0. 0.
      0. 0. 0. 0. 0. 0. 0. 0. 0. 0. 0. 0. 0. 0. 0. 0. 0. 0. 0. 0. 0. 0.
      0. 0. 0. 0. 0. 0. 0. 0. 0. 0. 0. 0. 0. 0. 0. 0. 0. 0. 0. 0. 0. 0.
      0. 0. 0. 0. 0. 0. 0. 0. 0. 0. 0. 0. 0. 0. 0. 0. 0. 0. 0. 0. 0. 0.
      0. 0. 0. 0. 0. 0. 0. 0. 0. 0. 0. 0. 0. 0. 0. 0. 0. 0. 0. 0. 0. 0.
      0. 0. 0. 0. 0. 0. 0. 0. 0. 0. 0. 0. 0. 0. 0. 0. 0. 0. 0. 0. 0. 0.
      0. 0. 0. 0. 0. 0. 0. 0. 0. 0. 0. 0. 0. 0. 0. 0. 0. 0. 0. 0. 0. 0.
      0. 0. 0. 0. 0. 0. 0. 0. 0. 0. 0. 0. 0. 0. 0. 0. 0. 0. 0. 0. 0. 0.
      0. 0. 0. 0. 0. 0. 0. 0. 0. 0. 0. 0. 0. 0. 0. 0. 0. 0. 0. 0. 0. 0.
      0. 0. 0. 0. 0. 0. 0. 0. 0. 0. 0. 0. 0. 0. 0. 0. 0. 0. 0. 0. 0. 0.
      0. 0. 0. 0. 0. 0. 0. 0. 0. 0. 0. 0. 0. 0. 0. 0. 0. 0. 0. 0. 0. 0.
      0. 0. 0. 0. 0. 0. 0. 0. 0. 0. 0. 0. 0. 0. 0. 0. 0. 0. 0. 0. 0. 0.
      0. 0. 0. 0. 0. 0. 0. 0. 0. 0. 0. 0. 0. 0. 0. 0. 0. 0. 0. 0. 0. 0.
      0. 0. 0. 0. 0. 0. 0. 0. 0. 0. 0. 0. 0. 0. 0. 0. 0. 0. 0. 0. 0. 0.
      0. 0. 0. 0. 0. 0. 0. 0. 0. 0. 0. 0. 0. 0. 0. 0. 0. 0. 0. 0. 0. 0.
      0. 0. 0. 0. 0. 0. 0. 0. 0. 0. 0. 0. 0. 0. 0. 0. 0. 0. 0. 0. 0. 0.
      0. 0. 0. 0. 0. 0. 0. 0. 0. 0. 0. 0. 0. 0. 0. 0. 0. 0. 0. 0. 0. 0.
      0. 0. 0. 0. 0. 0. 0. 0. 0. 0. 0. 0. 0. 0. 0. 0. 0. 0. 0. 0. 0. 0.
      0. 0. 0. 0. 0. 0. 0. 0. 0. 0. 0. 0. 0. 0. 0. 0. 0. 0. 0. 0. 0. 0.
      0. 0. 0. 0. 0. 0. 0. 0. 0. 0. 0. 0. 0. 0. 0. 0. 0. 0. 0. 0. 0. 0.
      0. 0. 0. 0. 0. 0. 0. 0. 0. 0. 0. 0. 0. 0. 0. 0. 0. 0. 0. 0. 0. 0.
      0. 0. 0. 0. 0. 0. 0. 0. 0. 0. 0. 0. 0. 0. 0. 0. 0. 0. 0. 0. 0. 0.
      0. 0. 0. 0. 0. 0. 0. 0. 0. 0. 0. 0. 0. 0. 0. 0. 0. 0. 0. 0. 0. 0.
      0. 0. 0. 0. 0. 0. 0. 0. 0. 0. 0. 0. 0. 0. 0. 0. 0. 0. 0. 0. 0. 0.
      0. 0. 0. 0. 0. 0. 0. 0. 0. 0. 0. 0. 0. 0. 0. 0. 0. 0. 0. 0. 0. 0.
      0. 0. 0. 0. 0. 0. 0. 0. 0. 0. 0. 0. 0. 0. 0. 0. 0. 0. 0. 0. 0. 0.
      0. 0. 0. 0. 0. 0. 0. 0. 0. 0. 0. 0. 0. 0. 0. 0. 0. 0. 0. 0. 0. 0.
      0. 0. 0. 0. 0. 0. 0. 0. 0. 0. 0. 0. 0. 0. 0. 0. 0. 0. 0. 0. 0. 0.
      0. 0. 0. 0. 0. 0. 0. 0. 0. 0. 0. 0. 0. 0. 0. 0. 0. 0. 0. 0. 0. 0.
      0. 0. 0. 0. 0. 0. 0. 0. 0. 0. 0. 0. 0. 0. 0. 0. 0. 0. 0. 0. 0. 0.
      0. 0. 0. 0. 0. 0. 0. 0. 0. 0. 0. 0. 0. 0. 0. 0. 0. 0. 0. 0. 0. 0.
      0. 0. 0. 0. 0. 0. 0. 0. 0. 0. 0. 0. 0. 0. 0. 0. 0. 0. 0. 0. 0. 0.
      0. 0. 0. 0. 0. 0. 0. 0. 0. 0. 0. 0. 0. 0. 0. 0. 0. 0. 0. 0. 0. 0.
      0. 0. 0. 0. 0. 0. 0. 0. 0. 0. 0. 0. 0. 0. 0. 0. 0. 0. 0. 0. 0. 0.
      0. 0. 0. 0. 0. 0. 0. 0. 0. 0. 0. 0. 0. 0. 0. 0. 0. 0. 0. 0. 0. 0.
      0. 0. 0. 0. 0. 0. 0. 0. 0. 0. 0. 0. 0. 0. 0. 0. 0. 0. 0. 0. 0. 0.
      0. 0. 0. 0. 0. 0. 0. 0. 0. 0. 0. 0. 0. 0. 0. 0. 0. 0. 0. 0. 0. 0.
      0. 0. 0. 0. 0. 0. 0. 0. 0. 0. 0. 0. 0. 0. 0. 0. 0. 0. 0. 0. 0. 0.
      0. 0. 0. 0. 0. 0. 0. 0. 0. 0. 0. 0. 0. 0. 0. 0. 0. 0. 0. 0. 0. 0.
      0. 0. 0. 0. 0. 0. 0. 0. 0. 0. 0. 0. 0. 0. 0. 0. 0. 0. 0. 0. 0. 0.
      0. 0. 0. 0. 0. 0. 0. 0. 0. 0. 0. 0. 0. 0. 0. 0. 0. 0. 0. 0. 0. 0.
      0. 0. 0. 0. 0. 0. 0. 0. 0. 0. 0. 0. 0. 0. 0. 0. 0. 0. 0. 0. 0. 0.
      0. 0. 0. 0. 0. 0. 0. 0. 0. 0. 0. 0. 0. 0. 0. 0. 0. 0. 0. 0. 0. 0.
      0. 0. 0. 0. 0. 0. 0. 0. 0. 0. 0. 0. 0. 0. 0. 0. 0. 0. 0. 0. 0. 0.
      0. 0. 0. 0. 0. 0. 0. 0. 0. 0. 0. 0. 0. 0. 0. 0. 0. 0. 0. 0. 0. 0.
      0. 0. 0. 0. 0. 0. 0. 0. 0. 0. 0. 0. 0. 0. 0. 0. 0. 0. 0. 0. 0. 0.
      0. 0. 0. 0. 0. 0. 0. 0. 0. 0. 0. 0. 0. 0. 0. 0. 0. 0. 0. 0. 0. 0.
      0. 0. 0. 0. 0. 0. 0. 0. 0. 0. 0. 0. 0. 0. 0. 0. 0. 0. 0. 0. 0. 0.
      0. 0. 0. 0. 0. 0. 0. 0. 0. 0. 0. 0. 0. 0. 0. 0. 0. 0. 0. 0. 0. 0.
      0. 0. 0. 0. 0. 0. 0. 0. 0. 0. 0. 0. 0. 0. 0. 0. 0. 0. 0. 0. 0. 0.
      0. 0. 0. 0. 0. 0. 0. 0. 0. 0. 0. 0. 0. 0. 0. 0. 0. 0. 0. 0. 0. 0.
      0. 0. 0. 0. 0. 0. 0. 0. 0. 0. 0. 0. 0. 0. 0. 0. 0. 0. 0. 0. 0. 0.
      0. 0. 0. 0. 0. 0. 0. 0. 0. 0. 0. 0. 0. 0. 0. 0. 0. 0. 0. 0. 0. 0.
      0. 0. 0. 0. 0. 0. 0. 0. 0. 0. 0. 0. 0. 0. 0. 0. 0. 0. 0. 0. 0. 0.
      0. 0. 0. 0. 0. 0. 0. 0. 0. 0. 0. 0. 0. 0. 0. 0. 0. 0. 0. 0. 0. 0.
      0. 0. 0. 0. 0. 0. 0. 0. 0. 0. 0. 0. 0. 0. 0. 0. 0. 0. 0. 0. 0. 0.
      0. 0. 0. 0. 0. 0. 0. 0. 0. 0. 0. 0. 0. 0. 0. 0. 0. 0. 0. 0. 0. 0.
      0. 0. 0. 0. 0. 0. 0. 0. 0. 0. 0. 0. 0. 0. 0. 0. 0. 0. 0. 0. 0. 0.
      0. 0. 0. 0. 0. 0. 0. 0. 0. 0. 0. 0. 0. 0. 0. 0. 0. 0. 0. 0. 0. 0.
      0. 0. 0. 0. 0. 0. 0. 0. 0. 0. 0. 0. 0. 0. 0. 0. 0. 0. 0. 0. 0. 0.
      0. 0. 0. 0. 0. 0. 0. 0. 0. 0. 0. 0. 0. 0. 0. 0. 0. 0. 0. 0. 0. 0.
      0. 0. 0. 0. 0. 0. 0. 0. 0. 0. 0. 0. 0. 0. 0. 0. 0. 0. 0. 0. 0. 0.
      0. 0. 0. 0. 0. 0. 0. 0. 0. 0. 0. 0. 0. 0. 0. 0. 0. 0. 0. 0. 0. 0.
      0. 0. 0. 0. 0. 0. 0. 0. 0. 0. 0. 0. 0. 0. 0. 0. 0. 0. 0. 0. 0. 0.
      0. 0. 0. 0. 0. 0. 0. 0. 0. 0. 0. 0. 0. 0. 0. 0. 0. 0. 0. 0. 0. 0.
      0. 0. 0. 0. 0. 0. 0. 0. 0. 0. 0. 0. 0. 0. 0. 0. 0. 0. 0. 0. 0. 0.
      0. 0. 0. 0. 0. 0. 0. 0. 0. 0. 0. 0. 0. 0. 0. 0. 0. 0. 0. 0. 0. 0.
      0. 0. 0. 0. 0. 0. 0. 0. 0. 0. 0. 0. 0. 0. 0. 0. 0. 0. 0. 0. 0. 0.
      0. 0. 0. 0. 0. 0. 0. 0. 0. 0. 0. 0. 0. 0. 0. 0. 0. 0. 0. 0. 0. 0.
      0. 0. 0. 0. 0. 0. 0. 0. 0. 0. 0. 0. 0. 0. 0. 0. 0. 0. 0. 0. 0. 0.
      0. 0. 0. 0. 0. 0. 0. 0. 0. 0. 0. 0. 0. 0. 0. 0. 0. 0. 0. 0. 0. 0.
      0. 0. 0. 0. 0. 0. 0. 0. 0. 0. 0. 0. 0. 0. 0. 0. 0. 0. 0. 0. 0. 0.
      0. 0. 0. 0. 0. 0. 0. 0. 0. 0. 0. 0. 0. 0. 0. 0. 0. 0. 0. 0. 0. 0.
      0. 0. 0. 0. 0. 0. 0. 0. 0. 0. 0. 0. 0. 0. 0. 0. 0. 0. 0. 0. 0. 0.
      0. 0. 0. 0. 0. 0. 0. 0. 0. 0. 0. 0. 0. 0. 0. 0. 0. 0. 0. 0. 0. 0.
      0. 0. 0. 0. 0. 0. 0. 0. 0. 0. 0. 0. 0. 0. 0. 0. 0. 0. 0. 0. 0. 0.
      0. 0. 0. 0. 0. 0. 0. 0. 0. 0. 0. 0. 0. 0. 0. 0. 0. 0. 0. 0. 0. 0.
      0. 0. 0. 0. 0. 0. 0. 0. 0. 0. 0. 0. 0. 0. 0. 0. 0. 0. 0. 0. 0. 0.
      0. 0. 0. 0. 0. 0. 0. 0. 0. 0. 0. 0. 0. 0. 0. 0. 0. 0. 0. 0. 0. 0.
      0. 0. 0. 0. 0. 0. 0. 0. 0. 0. 0. 0. 0. 0. 0. 0. 0. 0. 0. 0. 0. 0.
      0. 0. 0. 0. 0. 0. 0. 0. 0. 0. 0. 0. 0. 0. 0. 0. 0. 0. 0. 0. 0. 0.
      0. 0. 0. 0. 0. 0. 0. 0. 0. 0. 0. 0. 0. 0. 0. 0. 0. 0. 0. 0. 0. 0.
      0. 0. 0. 0. 0. 0. 0. 0. 0. 0. 0. 0. 0. 0. 0. 0. 0. 0. 0. 0. 0. 0.
      0. 0. 0. 0. 0. 0. 0. 0. 0. 0. 0. 0. 0. 0. 0. 0. 0. 0. 0. 0. 0. 0.
      0. 0. 0. 0. 0. 0. 0. 0. 0. 0. 0. 0. 0. 0. 0. 0. 0. 0. 0. 0. 0. 0.
      0. 0. 0. 0. 0. 0. 0. 0. 0. 0. 0. 0. 0. 0. 0. 0. 0. 0. 0. 0. 0. 0.
      0. 0. 0. 0. 0. 0. 0. 0. 0. 0. 0. 0. 0. 0. 0. 0. 0. 0. 0. 0. 0. 0.
      0. 0. 0. 0. 0. 0. 0. 0. 0. 0. 0. 0. 0. 0. 0. 0. 0. 0. 0. 0. 0. 0.
      0. 0. 0. 0. 0. 0. 0. 0. 0. 0. 0. 0. 0. 0. 0. 0. 0. 0. 0. 0. 0. 0.
      0. 0. 0. 0. 0. 0. 0. 0. 0. 0. 0. 0. 0. 0. 0. 0. 0. 0. 0. 0. 0. 0.
      0. 0. 0. 0. 0. 0. 0. 0. 0. 0. 0. 0. 0. 0. 0. 0. 0. 0. 0. 0. 0. 0.
      0. 0. 0. 0. 0. 0. 0. 0. 0. 0. 0. 0. 0. 0. 0. 0. 0. 0. 0. 0. 0. 0.
      0. 0. 0. 0. 0. 0. 0. 0. 0. 0. 0. 0. 0. 0. 0. 0. 0. 0. 0. 0. 0. 0.
      0. 0. 0. 0. 0. 0. 0. 0. 0. 0. 0. 0. 0. 0. 0. 0. 0. 0. 0. 0. 0. 0.
      0. 0. 0. 0. 0. 0. 0. 0. 0. 0. 0. 0. 0. 0. 0. 0. 0. 0. 0. 0. 0. 0.
      0. 0. 0. 0. 0. 0. 0. 0. 0. 0. 0. 0. 0. 0. 0. 0. 0. 0. 0. 0. 0. 0.
      0. 0. 0. 0. 0. 0. 0. 0. 0. 0. 0. 0. 0. 0. 0. 0. 0. 0. 0. 0. 0. 0.
      0. 0. 0. 0. 0. 0. 0. 0. 0. 0. 0. 0. 0. 0. 0. 0. 0. 0. 0. 0. 0. 0.
      0. 0. 0. 0. 0. 0. 0. 0. 0. 0. 0. 0. 0. 0. 0. 0. 0. 0. 0. 0. 0. 0.
      0. 0. 0. 0. 0. 0. 0. 0. 0. 0. 0. 0. 0. 0. 0. 0. 0. 0. 0. 0. 0. 0.
      0. 0. 0. 0. 0. 0. 0. 0. 0. 0. 0. 0. 0. 0. 0. 0. 0. 0. 0. 0. 0. 0.
      0. 0. 0. 0. 0. 0. 0. 0. 0. 0. 0. 0. 0. 0. 0. 0. 0. 0. 0. 0. 0. 0.
      0. 0. 0. 0. 0. 0. 0. 0. 0. 0. 0. 0. 0. 0. 0. 0. 0. 0. 0. 0. 0. 0.
      0. 0. 0. 0. 0. 0. 0. 0. 0. 0. 0. 0. 0. 0. 0. 0. 0. 0. 0. 0. 0. 0.
      0. 0. 0. 0. 0. 0. 0. 0. 0. 0. 0. 0. 0. 0. 0. 0. 0. 0. 0. 0. 0. 0.
      0. 0. 0. 0. 0. 0. 0. 0. 0. 0. 0. 0. 0. 0. 0. 0. 0. 0. 0. 0. 0. 0.
      0. 0. 0. 0. 0. 0. 0. 0. 0. 0. 0. 0. 0. 0. 0. 0. 0. 0. 0. 0. 0. 0.
      0. 0. 0. 0. 0. 0. 0. 0. 0. 0. 0. 0. 0. 0. 0. 0. 0. 0. 0. 0. 0. 0.
      0. 0. 0. 0. 0. 0. 0. 0. 0. 0. 0. 0. 0. 0. 0. 0. 0. 0. 0. 0. 0. 0.
      0. 0. 0. 0. 0. 0. 0. 0. 0. 0. 0. 0. 0. 0. 0. 0. 0. 0. 0. 0. 0. 0.
      0. 0. 0. 0. 0. 0. 0. 0. 0. 0. 0. 0. 0. 0. 0. 0. 0. 0. 0. 0. 0. 0.
      0. 0. 0. 0. 0. 0. 0. 0. 0. 0. 0. 0. 0. 0. 0. 0. 0. 0. 0. 0. 0. 0.
      0. 0. 0. 0. 0. 0. 0. 0. 0. 0. 0. 0. 0. 0. 0. 0. 0. 0. 0. 0. 0. 0.
      0. 0. 0. 0. 0. 0. 0. 0. 0. 0. 0. 0. 0. 0. 0. 0. 0. 0. 0. 0. 0. 0.
      0. 0. 0. 0. 0. 0. 0. 0. 0. 0. 0. 0. 0. 0. 0. 0. 0. 0. 0. 0. 0. 0.
      0. 0. 0. 0. 0. 0. 0. 0. 0. 0. 0. 0. 0. 0. 0. 0. 0. 0. 0. 0. 0. 0.
      0. 0. 0. 0. 0. 0. 0. 0. 0. 0. 0. 0. 0. 0. 0. 0. 0. 0. 0. 0. 0. 0.
      0. 0. 0. 0. 0. 0. 0. 0. 0. 0. 0. 0. 0. 0. 0. 0. 0. 0. 0. 0. 0. 0.
      0. 0. 0. 0. 0. 0. 0. 0. 0. 0. 0. 0. 0. 0. 0. 0. 0. 0. 0. 0. 0. 0.
      0. 0. 0. 0. 0. 0. 0. 0. 0. 0. 0. 0. 0. 0. 0. 0. 0. 0. 0. 0. 0. 0.
      0. 0. 0. 0. 0. 0. 0. 0. 0. 0. 0. 0. 0. 0. 0. 0. 0. 0. 0. 0. 0. 0.
      0. 0. 0. 0. 0. 0. 0. 0. 0. 0. 0. 0. 0. 0. 0. 0. 0. 0. 0. 0. 0. 0.
      0. 0. 0. 0. 0. 0. 0. 0. 0. 0. 0. 0. 0. 0. 0. 0. 0. 0. 0. 0. 0. 0.
      0. 0. 0. 0. 0. 0. 0. 0. 0. 0. 0. 0. 0. 0. 0. 0. 0. 0. 0. 0. 0. 0.
      0. 0. 0. 0. 0. 0. 0. 0. 0. 0. 0. 0. 0. 0. 0. 0. 0. 0. 0. 0. 0. 0.
      0. 0. 0. 0. 0. 0. 0. 0. 0. 0. 0. 0. 0. 0. 0. 0. 0. 0. 0. 0. 0. 0.
      0. 0. 0. 0. 0. 0. 0. 0. 0. 0. 0. 0. 0. 0. 0. 0. 0. 0. 0. 0. 0. 0.
      0. 0. 0. 0. 0. 0. 0. 0. 0. 0. 0. 0. 0. 0. 0. 0. 0. 0. 0. 0. 0. 0.
      0. 0. 0. 0. 0. 0. 0. 0. 0. 0. 0. 0. 0. 0. 0. 0. 0. 0. 0. 0. 0. 0.
      0. 0. 0. 0. 0. 0. 0. 0. 0. 0. 0. 0. 0. 0. 0. 0. 0. 0. 0. 0. 0. 0.
      0. 0. 0. 0. 0. 0. 0. 0. 0. 0. 0. 0. 0. 0. 0. 0. 0. 0. 0. 0. 0. 0.
      0. 0. 0. 0. 0. 0. 0. 0. 0. 0. 0. 0. 0. 0. 0. 0. 0. 0. 0. 0. 0. 0.
      0. 0. 0. 0. 0. 0. 0. 0. 0. 0. 0. 0. 0. 0. 0. 0. 0. 0. 0. 0. 0. 0.
      0. 0. 0. 0. 0. 0. 0. 0. 0. 0. 0. 0. 0. 0. 0. 0. 0. 0. 0. 0. 0. 0.
      0. 0. 0. 0. 0. 0. 0. 0. 0. 0. 0. 0. 0. 0. 0. 0. 0. 0. 0. 0. 0. 0.
      0. 0. 0. 0. 0. 0. 0. 0. 0. 0. 0. 0. 0. 0. 0. 0. 0. 0. 0. 0. 0. 0.
      0. 0. 0. 0. 0. 0. 0. 0. 0. 0. 0. 0. 0. 0. 0. 0. 0. 0. 0. 0. 0. 0.
      0. 0. 0. 0. 0. 0. 0. 0. 0. 0. 0. 0. 0. 0. 0. 0. 0. 0. 0. 0. 0. 0.
      0. 0. 0. 0. 0. 0. 0. 0. 0. 0. 0. 0. 0. 0. 0. 0. 0. 0. 0. 0. 0. 0.
      0. 0. 0. 0. 0. 0. 0. 0. 0. 0. 0. 0. 0. 0. 0. 0. 0. 0. 0. 0. 0. 0.
      0. 0. 0. 0. 0. 0. 0. 0. 0. 0. 0. 0. 0. 0. 0. 0. 0. 0. 0. 0. 0. 0.
      0. 0. 0. 0. 0. 0. 0. 0. 0. 0. 0. 0. 0. 0. 0. 0. 0. 0. 0. 0. 0. 0.
      0. 0. 0. 0. 0. 0. 0. 0. 0. 0. 0. 0. 0. 0. 0. 0. 0. 0. 0. 0. 0. 0.
      0. 0. 0. 0. 0. 0. 0. 0. 0. 0. 0. 0. 0. 0. 0. 0. 0. 0. 0. 0. 0. 0.
      0. 0. 0. 0. 0. 0. 0. 0. 0. 0. 0. 0. 0. 0. 0. 0. 0. 0. 0. 0. 0. 0.
      0. 0. 0. 0. 0. 0. 0. 0. 0. 0. 0. 0. 0. 0. 0. 0. 0. 0. 0. 0. 0. 0.
      0. 0. 0. 0. 0. 0. 0. 0. 0. 0. 0. 0. 0. 0. 0. 0. 0. 0. 0. 0. 0. 0.
      0. 0. 0. 0. 0. 0. 0. 0. 0. 0. 0. 0. 0. 0. 0. 0. 0. 0. 0. 0. 0. 0.
      0. 0. 0. 0. 0. 0. 0. 0. 0. 0. 0. 0. 0. 0. 0. 0. 0. 0. 0. 0. 0. 0.
      0. 0. 0. 0. 0. 0. 0. 0. 0. 0. 0. 0. 0. 0. 0. 0. 0. 0. 0. 0. 0. 0.
      0. 0. 0. 0. 0. 0. 0. 0. 0. 0. 0. 0. 0. 0. 0. 0. 0. 0. 0. 0. 0. 0.
      0. 0. 0. 0. 0. 0. 0. 0. 0. 0. 0. 0. 0. 0. 0. 0. 0. 0. 0. 0. 0. 0.
      0. 0. 0. 0. 0. 0. 0. 0. 0. 0. 0. 0. 0. 0. 0. 0. 0. 0. 0. 0. 0. 0.
      0. 0. 0. 0. 0. 0. 0. 0. 0. 0. 0. 0. 0. 0. 0. 0. 0. 0. 0. 0. 0. 0.
      0. 0. 0. 0. 0. 0. 0. 0. 0. 0. 0. 0. 0. 0. 0. 0. 0. 0. 0. 0. 0. 0.
      0. 0. 0. 0. 0. 0. 0. 0. 0. 0. 0. 0. 0. 0. 0. 0. 0. 0. 0. 0. 0. 0.
      0. 0. 0. 0. 0. 0. 0. 0. 0. 0. 0. 0. 0. 0. 0. 0. 0. 0. 0. 0. 0. 0.
      0. 0. 0. 0. 0. 0. 0. 0. 0. 0. 0. 0. 0. 0. 0. 0. 0. 0. 0. 0. 0. 0.
      0. 0. 0. 0. 0. 0. 0. 0. 0. 0. 0. 0. 0. 0. 0. 0. 0. 0. 0. 0. 0. 0.
      0. 0. 0. 0. 0. 0. 0. 0. 0. 0. 0. 0. 0. 0. 0. 0. 0. 0. 0. 0. 0. 0.
      0. 0. 0. 0. 0. 0. 0. 0. 0. 0. 0. 0. 0. 0. 0. 0. 0. 0. 0. 0. 0. 0.
      0. 0. 0. 0. 0. 0. 0. 0. 0. 0. 0. 0. 0. 0. 0. 0. 0. 0. 0. 0. 0. 0.
      0. 0. 0. 0. 0. 0. 0. 0. 0. 0. 0. 0. 0. 0. 0. 0. 0. 0. 0. 0. 0. 0.
      0. 0. 0. 0. 0. 0. 0. 0. 0. 0. 0. 0. 0. 0. 0. 0. 0. 0. 0. 0. 0. 0.
      0. 0. 0. 0. 0. 0. 0. 0. 0. 0. 0. 0. 0. 0. 0. 0. 0. 0. 0. 0. 0. 0.
      0. 0. 0. 0. 0. 0. 0. 0. 0. 0. 0. 0. 0. 0. 0. 0. 0. 0. 0. 0. 0. 0.
      0. 0. 0. 0. 0. 0. 0. 0. 0. 0. 0. 0. 0. 0. 0. 0. 0. 0. 0. 0. 0. 0.
      0. 0. 0. 0. 0. 0. 0. 0. 0. 0. 0. 0. 0. 0. 0. 0. 0. 0. 0. 0. 0. 0.
      0. 0. 0. 0. 0. 0. 0. 0. 0. 0. 0. 0. 0. 0. 0. 0. 0. 0. 0. 0. 0. 0.
      0. 0. 0. 0. 0. 0. 0. 0. 0. 0. 0. 0. 0. 0. 0. 0. 0. 0. 0. 0. 0. 0.
      0. 0. 0. 0. 0. 0. 0. 0. 0. 0. 0. 0. 0. 0. 0. 0. 0. 0. 0. 0. 0. 0.
      0. 0. 0. 0. 0. 0. 0. 0. 0. 0. 0. 0. 0. 0. 0. 0. 0. 0. 0. 0. 0. 0.
      0. 0. 0. 0. 0. 0. 0. 0. 0. 0. 0. 0. 0. 0. 0. 0. 0. 0. 0. 0. 0. 0.
      0. 0. 0. 0. 0. 0. 0. 0. 0. 0. 0. 0. 0. 0. 0. 0. 0. 0. 0. 0. 0. 0.
      0. 0. 0. 0. 0. 0. 0. 0. 0. 0. 0. 0. 0. 0. 0. 0. 0. 0. 0. 0. 0. 0.
      0. 0. 0. 0. 0. 0. 0. 0. 0. 0. 0. 0. 0. 0. 0. 0. 0. 0. 0. 0. 0. 0.
      0. 0. 0. 0. 0. 0. 0. 0. 0. 0. 0. 0. 0. 0. 0. 0. 0. 0. 0. 0. 0. 0.
      0. 0. 0. 0. 0. 0. 0. 0. 0. 0. 0. 0. 0. 0. 0. 0. 0. 0. 0. 0. 0. 0.
      0. 0. 0. 0. 0. 0. 0. 0. 0. 0. 0. 0. 0. 0. 0. 0. 0. 0. 0. 0. 0. 0.
      0. 0. 0. 0. 0. 0. 0. 0. 0. 0. 0. 0. 0. 0. 0. 0. 0. 0. 0. 0. 0. 0.
      0. 0. 0. 0. 0. 0. 0. 0. 0. 0. 0. 0. 0. 0. 0. 0. 0. 0. 0. 0. 0. 0.
      0. 0. 0. 0. 0. 0. 0. 0. 0. 0. 0. 0. 0. 0. 0. 0. 0. 0. 0. 0. 0. 0.
      0. 0. 0. 0. 0. 0. 0. 0. 0. 0. 0. 0. 0. 0. 0. 0. 0. 0. 0. 0. 0. 0.
      0. 0. 0. 0. 0. 0. 0. 0. 0. 0. 0. 0. 0. 0. 0. 0. 0. 0. 0. 0. 0. 0.
      0. 0. 0. 0. 0. 0. 0. 0. 0. 0. 0. 0. 0. 0. 0. 0. 0. 0. 0. 0. 0. 0.
      0. 0. 0. 0. 0. 0. 0. 0. 0. 0. 0. 0. 0. 0. 0. 0. 0. 0. 0. 0. 0. 0.
      0. 0. 0. 0. 0. 0. 0. 0. 0. 0. 0. 0. 0. 0. 0. 0. 0. 0. 0. 0. 0. 0.
      0. 0. 0. 0. 0. 0. 0. 0. 0. 0. 0. 0. 0. 0. 0. 0. 0. 0. 0. 0. 0. 0.
      0. 0. 0. 0. 0. 0. 0. 0. 0. 0. 0. 0. 0. 0. 0. 0. 0. 0. 0. 0. 0. 0.
      0. 0. 0. 0. 0. 0. 0. 0. 0. 0. 0. 0. 0. 0. 0. 0. 0. 0. 0. 0. 0. 0.
      0. 0. 0. 0. 0. 0. 0. 0. 0. 0. 0. 0. 0. 0. 0. 0. 0. 0. 0. 0. 0. 0.
      0. 0. 0. 0. 0. 0. 0. 0. 0. 0. 0. 0. 0. 0. 0. 0. 0. 0. 0. 0. 0. 0.
      0. 0. 0. 0. 0. 0. 0. 0. 0. 0. 0. 0. 0. 0. 0. 0. 0. 0. 0. 0. 0. 0.
      0. 0. 0. 0. 0. 0. 0. 0. 0. 0. 0. 0. 0. 0. 0. 0. 0. 0. 0. 0. 0. 0.
      0. 0. 0. 0. 0. 0. 0. 0. 0. 0. 0. 0. 0. 0. 0. 0. 0. 0. 0. 0. 0. 0.
      0. 0. 0. 0. 0. 0. 0. 0. 0. 0. 0. 0. 0. 0. 0. 0. 0. 0. 0. 0. 0. 0.
      0. 0. 0. 0. 0. 0. 0. 0. 0. 0. 0. 0. 0. 0. 0. 0. 0. 0. 0. 0. 0. 0.
      0. 0. 0. 0. 0. 0. 0. 0. 0. 0. 0. 0. 0. 0. 0. 0. 0. 0. 0. 0. 0. 0.
      0. 0. 0. 0. 0. 0. 0. 0. 0. 0. 0. 0. 0. 0. 0. 0. 0. 0. 0. 0. 0. 0.
      0. 0. 0. 0. 0. 0. 0. 0. 0. 0. 0. 0. 0. 0. 0. 0. 0. 0. 0. 0. 0. 0.
      0. 0. 0. 0. 0. 0. 0. 0. 0. 0. 0. 0. 0. 0. 0. 0. 0. 0. 0. 0. 0. 0.
      0. 0. 0. 0. 0. 0. 0. 0. 0. 0. 0. 0. 0. 0. 0. 0. 0. 0. 0. 0. 0. 0.
      0. 0. 0. 0. 0. 0. 0. 0. 0. 0. 0. 0. 0. 0. 0. 0. 0. 0. 0. 0. 0. 0.
      0. 0. 0. 0. 0. 0. 0. 0. 0. 0. 0. 0. 0. 0. 0. 0. 0. 0. 0. 0. 0. 0.
      0. 0. 0. 0. 0. 0. 0. 0. 0. 0. 0. 0. 0. 0. 0. 0. 0. 0. 0. 0. 0. 0.
      0. 0. 0. 0. 0. 0. 0. 0. 0. 0. 0. 0. 0. 0. 0. 0. 0. 0. 0. 0. 0. 0.
      0. 0. 0. 0. 0. 0. 0. 0. 0. 0. 0. 0. 0. 0. 0. 0. 0. 0. 0. 0. 0. 0.
      0. 0. 0. 0. 0. 0. 0. 0. 0. 0. 0. 0. 0. 0. 0. 0. 0. 0. 0. 0. 0. 0.
      0. 0. 0. 0. 0. 0. 0. 0. 0. 0. 0. 0. 0. 0. 0. 0. 0. 0. 0. 0. 0. 0.
      0. 0. 0. 0. 0. 0. 0. 0. 0. 0. 0. 0. 0. 0. 0. 0. 0. 0. 0. 0. 0. 0.
      0. 0. 0. 0. 0. 0. 0. 0. 0. 0. 0. 0. 0. 0. 0. 0. 0. 0. 0. 0. 0. 0.
      0. 0. 0. 0. 0. 0. 0. 0. 0. 0. 0. 0. 0. 0. 0. 0. 0. 0. 0. 0. 0. 0.
      0. 0. 0. 0. 0. 0. 0. 0. 0. 0. 0. 0. 0. 0. 0. 0. 0. 0. 0. 0. 0. 0.
      0. 0. 0. 0. 0. 0. 0. 0. 0. 0. 0. 0. 0. 0. 0. 0. 0. 0. 0. 0. 0. 0.
      0. 0. 0. 0. 0. 0. 0. 0. 0. 0. 0. 0. 0. 0. 0. 0. 0. 0. 0. 0. 0. 0.
      0. 0. 0. 0. 0. 0. 0. 0. 0. 0. 0. 0. 0. 0. 0. 0. 0. 0. 0. 0. 0. 0.
      0. 0. 0. 0. 0. 0. 0. 0. 0. 0. 0. 0. 0. 0. 0. 0. 0. 0. 0. 0. 0. 0.
      0. 0. 0. 0. 0. 0. 0. 0. 0. 0. 0. 0. 0. 0. 0. 0. 0. 0. 0. 0. 0. 0.
      0. 0. 0. 0. 0. 0. 0. 0. 0. 0. 0. 0. 0. 0. 0. 0. 0. 0. 0. 0. 0. 0.
      0. 0. 0. 0. 0. 0. 0. 0. 0. 0. 0. 0. 0. 0. 0. 0. 0. 0. 0. 0. 0. 0.
      0. 0. 0. 0. 0. 0. 0. 0. 0. 0. 0. 0. 0. 0. 0. 0. 0. 0. 0. 0. 0. 0.
      0. 0. 0. 0. 0. 0. 0. 0. 0. 0. 0. 0. 0. 0. 0. 0. 0. 0. 0. 0. 0. 0.
      0. 0. 0. 0. 0. 0. 0. 0. 0. 0. 0. 0. 0. 0. 0. 0. 0. 0. 0. 0. 0. 0.
      0. 0. 0. 0. 0. 0. 0. 0. 0. 0. 0. 0. 0. 0. 0. 0. 0. 0. 0. 0. 0. 0.
      0. 0. 0. 0. 0. 0. 0. 0. 0. 0. 0. 0. 0. 0. 0. 0. 0. 0. 0. 0. 0. 0.
      0. 0. 0. 0. 0. 0. 0. 0. 0. 0. 0. 0. 0. 0. 0. 0. 0. 0. 0. 0. 0. 0.
      0. 0. 0. 0. 0. 0. 0. 0. 0. 0. 0. 0. 0. 0. 0. 0. 0. 0. 0. 0. 0. 0.
      0. 0. 0. 0. 0. 0. 0. 0. 0. 0. 0. 0. 0. 0. 0. 0. 0. 0. 0. 0. 0. 0.
      0. 0. 0. 0. 0. 0. 0. 0. 0. 0. 0. 0. 0. 0. 0. 0. 0. 0. 0. 0. 0. 0.
      0. 0. 0. 0. 0. 0. 0. 0. 0. 0. 0. 0. 0. 0. 0. 0. 0. 0. 0. 0. 0. 0.
      0. 0. 0. 0. 0. 0. 0. 0. 0. 0. 0. 0. 0. 0. 0. 0. 0. 0. 0. 0. 0. 0.
      0. 0. 0. 0. 0. 0. 0. 0. 0. 0. 0. 0. 0. 0. 0. 0. 0. 0. 0. 0. 0. 0.
      0. 0. 0. 0. 0. 0. 0. 0. 0. 0. 0. 0. 0. 0. 0. 0. 0. 0. 0. 0. 0. 0.
      0. 0. 0. 0. 0. 0. 0. 0. 0. 0. 0. 0. 0. 0. 0. 0. 0. 0. 0. 0. 0. 0.
      0. 0. 0. 0. 0. 0. 0. 0. 0. 0. 0. 0. 0. 0. 0. 0. 0. 0. 0. 0. 0. 0.
      0. 0. 0. 0. 0. 0. 0. 0. 0. 0. 0. 0. 0. 0. 0. 0. 0. 0. 0. 0. 0. 0.
      0. 0. 0. 0. 0. 0. 0. 0. 0. 0. 0. 0. 0. 0. 0. 0. 0. 0. 0. 0. 0. 0.
      0. 0. 0. 0. 0. 0. 0. 0. 0. 0. 0. 0. 0. 0. 0. 0. 0. 0. 0. 0. 0. 0.
      0. 0. 0. 0. 0. 0. 0. 0. 0. 0. 0. 0. 0. 0. 0. 0. 0. 0. 0. 0. 0. 0.
      0. 0. 0. 0. 0. 0. 0. 0. 0. 0. 0. 0. 0. 0. 0. 0. 0. 0. 0. 0. 0. 0.
      0. 0. 0. 0. 0. 0. 0. 0. 0. 0. 0. 0. 0. 0. 0. 0. 0. 0. 0. 0. 0. 0.
      0. 0. 0. 0. 0. 0. 0. 0. 0. 0. 0. 0. 0. 0. 0. 0. 0. 0. 0. 0. 0. 0.
      0. 0. 0. 0. 0. 0. 0. 0. 0. 0. 0. 0. 0. 0. 0. 0. 0. 0. 0. 0. 0. 0.
      0. 0. 0. 0. 0. 0. 0. 0. 0. 0. 0. 0. 0. 0. 0. 0. 0. 0. 0. 0. 0. 0.
      0. 0. 0. 0. 0. 0. 0. 0. 0. 0. 0. 0. 0. 0. 0. 0. 0. 0. 0. 0. 0. 0.
      0. 0. 0. 0. 0. 0. 0. 0. 0. 0. 0. 0. 0. 0. 0. 0. 0. 0. 0. 0. 0. 0.
      0. 0. 0. 0. 0. 0. 0. 0. 0. 0. 0. 0. 0. 0. 0. 0. 0. 0. 0. 0. 0. 0.
      0. 0. 0. 0. 0. 0. 0. 0. 0. 0. 0. 0. 0. 0. 0. 0. 0. 0. 0. 0. 0. 0.
      0. 0. 0. 0. 0. 0. 0. 0. 0. 0. 0. 0. 0. 0. 0. 0. 0. 0. 0. 0. 0. 0.
      0. 0. 0. 0. 0. 0. 0. 0. 0. 0. 0. 0. 0. 0. 0. 0. 0. 0. 0. 0. 0. 0.
      0. 0. 0. 0. 0. 0. 0. 0. 0. 0. 0. 0. 0. 0. 0. 0. 0. 0. 0. 0. 0. 0.
      0. 0. 0. 0. 0. 0. 0. 0. 0. 0. 0. 0. 0. 0. 0. 0. 0. 0. 0. 0. 0. 0.
      0. 0. 0. 0. 0. 0. 0. 0. 0. 0. 0. 0. 0. 0. 0. 0. 0. 0. 0. 0. 0. 0.
      0. 0. 0. 0. 0. 0. 0. 0. 0. 0. 0. 0. 0. 0. 0. 0. 0. 0. 0. 0. 0. 0.
      0. 0. 0. 0. 0. 0. 0. 0. 0. 0. 0. 0. 0. 0. 0. 0. 0. 0. 0. 0. 0. 0.
      0. 0. 0. 0. 0. 0. 0. 0. 0. 0. 0. 0. 0. 0. 0. 0. 0. 0. 0. 0. 0. 0.
      0. 0. 0. 0. 0. 0. 0. 0. 0. 0. 0. 0. 0. 0. 0. 0. 0. 0. 0. 0. 0. 0.
      0. 0. 0. 0. 0. 0. 0. 0. 0. 0. 0. 0. 0. 0. 0. 0. 0. 0. 0. 0. 0. 0.
      0. 0. 0. 0. 0. 0. 0. 0. 0. 0. 0. 0. 0. 0. 0. 0. 0. 0. 0. 0. 0. 0.
      0. 0. 0. 0. 0. 0. 0. 0. 0. 0. 0. 0. 0. 0. 0. 0. 0. 0. 0. 0. 0. 0.
      0. 0. 0. 0. 0. 0. 0. 0. 0. 0. 0. 0. 0. 0. 0. 0. 0. 0. 0. 0. 0. 0.
      0. 0. 0. 0. 0. 0. 0. 0. 0. 0. 0. 0. 0. 0. 0. 0. 0. 0. 0. 0. 0. 0.
      0. 0. 0. 0. 0. 0. 0. 0. 0. 0. 0. 0. 0. 0. 0. 0. 0. 0. 0. 0. 0. 0.
      0. 0. 0. 0. 0. 0. 0. 0. 0. 0. 0. 0. 0. 0. 0. 0. 0. 0. 0. 0. 0. 0.
      0. 0. 0. 0. 0. 0. 0. 0. 0. 0. 0. 0. 0. 0. 0. 0. 0. 0. 0. 0. 0. 0.
      0. 0. 0. 0. 0. 0. 0. 0. 0. 0. 0. 0. 0. 0. 0. 0. 0. 0. 0. 0. 0. 0.
      0. 0. 0. 0. 0. 0. 0. 0. 0. 0. 0. 0. 0. 0. 0. 0. 0. 0. 0. 0. 0. 0.
      0. 0. 0. 0. 0. 0. 0. 0. 0. 0. 0. 0. 0. 0. 0. 0. 0. 0. 0. 0. 0. 0.
      0. 0. 0. 0. 0. 0. 0. 0. 0. 0. 0. 0. 0. 0. 0. 0. 0. 0. 0. 0. 0. 0.
      0. 0. 0. 0. 0. 0. 0. 0. 0. 0. 0. 0. 0. 0. 0. 0. 0. 0. 0. 0. 0. 0.
      0. 0. 0. 0. 0. 0. 0. 0. 0. 0. 0. 0. 0. 0. 0. 0. 0. 0. 0. 0. 0. 0.
      0. 0. 0. 0. 0. 0. 0. 0. 0. 0. 0. 0. 0. 0. 0. 0. 0. 0. 0. 0. 0. 0.
      0. 0. 0. 0. 0. 0. 0. 0. 0. 0. 0. 0. 0. 0. 0. 0. 0. 0. 0. 0. 0. 0.
      0. 0. 0. 0. 0. 0. 0. 0. 0. 0. 0. 0. 0. 0. 0. 0. 0. 0. 0. 0. 0. 0.
      0. 0. 0. 0. 0. 0. 0. 0. 0. 0. 0. 0. 0. 0. 0. 0. 0. 0. 0. 0. 0. 0.
      0. 0. 0. 0. 0. 0. 0. 0. 0. 0. 0. 0. 0. 0. 0. 0. 0. 0. 0. 0. 0. 0.
      0. 0. 0. 0. 0. 0. 0. 0. 0. 0. 0. 0. 0. 0. 0. 0. 0. 0. 0. 0. 0. 0.
      0. 0. 0. 0. 0. 0. 0. 0. 0. 0. 0. 0. 0. 0. 0. 0. 0. 0. 0. 0. 0. 0.
      0. 0. 0. 0. 0. 0. 0. 0. 0. 0. 0. 0. 0. 0. 0. 0. 0. 0. 0. 0. 0. 0.
      0. 0. 0. 0. 0. 0. 0. 0. 0. 0. 0. 0. 0. 0. 0. 0. 0. 0. 0. 0. 0. 0.
      0. 0. 0. 0. 0. 0. 0. 0. 0. 0. 0. 0. 0. 0. 0. 0. 0. 0. 0. 0. 0. 0.
      0. 0. 0. 0. 0. 0. 0. 0. 0. 0. 0. 0. 0. 0. 0. 0. 0. 0. 0. 0. 0. 0.
      0. 0. 0. 0. 0. 0. 0. 0. 0. 0. 0. 0. 0. 0. 0. 0. 0. 0. 0. 0. 0. 0.
      0. 0. 0. 0. 0. 0. 0. 0. 0. 0. 0. 0. 0. 0. 0. 0. 0. 0. 0. 0. 0. 0.
      0. 0. 0. 0. 0. 0. 0. 0. 0. 0. 0. 0. 0. 0. 0. 0. 0. 0. 0. 0. 0. 0.
      0. 0. 0. 0. 0. 0. 0. 0. 0. 0. 0. 0. 0. 0. 0. 0. 0. 0. 0. 0. 0. 0.
      0. 0. 0. 0. 0. 0. 0. 0. 0. 0. 0. 0. 0. 0. 0. 0. 0. 0. 0. 0. 0. 0.
      0. 0. 0. 0. 0. 0. 0. 0. 0. 0. 0. 0. 0. 0. 0. 0. 0. 0. 0. 0. 0. 0.
      0. 0. 0. 0. 0. 0. 0. 0. 0. 0. 0. 0. 0. 0. 0. 0. 0. 0. 0. 0. 0. 0.
      0. 0. 0. 0. 0. 0. 0. 0. 0. 0. 0. 0. 0. 0. 0. 0. 0. 0. 0. 0. 0. 0.
      0. 0. 0. 0. 0. 0. 0. 0. 0. 0. 0. 0. 0. 0. 0. 0. 0. 0. 0. 0. 0. 0.
      0. 0. 0. 0. 0. 0. 0. 0. 0. 0. 0. 0. 0. 0. 0. 0. 0. 0. 0. 0. 0. 0.
      0. 0. 0. 0. 0. 0. 0. 0. 0. 0. 0. 0. 0. 0. 0. 0. 0. 0. 0. 0. 0. 0.
      0. 0. 0. 0. 0. 0. 0. 0. 0. 0. 0. 0. 0. 0. 0. 0. 0. 0. 0. 0. 0. 0.
      0. 0. 0. 0. 0. 0. 0. 0. 0. 0. 0. 0. 0. 0. 0. 0. 0. 0. 0. 0. 0. 0.
      0. 0. 0. 0. 0. 0. 0. 0. 0. 0. 0. 0. 0. 0. 0. 0. 0. 0. 0. 0. 0. 0.
      0. 0. 0. 0. 0. 0. 0. 0. 0. 0. 0. 0. 0. 0. 0. 0. 0. 0. 0. 0. 0. 0.
      0. 0. 0. 0. 0. 0. 0. 0. 0. 0. 0. 0. 0. 0. 0. 0. 0. 0. 0. 0. 0. 0.
      0. 0. 0. 0. 0. 0. 0. 0. 0. 0. 0. 0. 0. 0. 0. 0. 0. 0. 0. 0. 0. 0.
      0. 0. 0. 0. 0. 0. 0. 0. 0. 0. 0. 0. 0. 0. 0. 0. 0. 0. 0. 0. 0. 0.
      0. 0. 0. 0. 0. 0. 0. 0. 0. 0. 0. 0. 0. 0. 0. 0. 0. 0. 0. 0. 0. 0.
      0. 0. 0. 0. 0. 0. 0. 0. 0. 0. 0. 0. 0. 0. 0. 0. 0. 0. 0. 0. 0. 0.
      0. 0. 0. 0. 0. 0. 0. 0. 0. 0. 0. 0. 0. 0. 0. 0. 0. 0. 0. 0. 0. 0.
      0. 0. 0. 0. 0. 0. 0. 0. 0. 0. 0. 0. 0. 0. 0. 0. 0. 0. 0. 0. 0. 0.
      0. 0. 0. 0. 0. 0. 0. 0. 0. 0. 0. 0. 0. 0. 0. 0. 0. 0. 0. 0. 0. 0.
      0. 0. 0. 0. 0. 0. 0. 0. 0. 0. 0. 0. 0. 0. 0. 0. 0. 0. 0. 0. 0. 0.
      0. 0. 0. 0. 0. 0. 0. 0. 0. 0. 0. 0. 0. 0. 0. 0. 0. 0. 0. 0. 0. 0.
      0. 0. 0. 0. 0. 0. 0. 0. 0. 0. 0. 0. 0. 0. 0. 0. 0. 0. 0. 0. 0. 0.
      0. 0. 0. 0. 0. 0. 0. 0. 0. 0. 0. 0. 0. 0. 0. 0. 0. 0. 0. 0. 0. 0.
      0. 0. 0. 0. 0. 0. 0. 0. 0. 0. 0. 0. 0. 0. 0. 0. 0. 0. 0. 0. 0. 0.
      0. 0. 0. 0. 0. 0. 0. 0. 0. 0. 0. 0. 0. 0. 0. 0. 0. 0. 0. 0. 0. 0.
      0. 0. 0. 0. 0. 0. 0. 0. 0. 0. 0. 0. 0. 0. 0. 0. 0. 0. 0. 0. 0. 0.
      0. 0. 0. 0. 0. 0. 0. 0. 0. 0. 0. 0. 0. 0. 0. 0. 0. 0. 0. 0. 0. 0.
      0. 0. 0. 0. 0. 0. 0. 0. 0. 0. 0. 0. 0. 0. 0. 0. 0. 0. 0. 0. 0. 0.
      0. 0. 0. 0. 0. 0. 0. 0. 0. 0. 0. 0. 0. 0. 0. 0. 0. 0. 0. 0. 0. 0.
      0. 0. 0. 0. 0. 0. 0. 0. 0. 0. 0. 0. 0. 0. 0. 0. 0. 0. 0. 0. 0. 0.
      0. 0. 0. 0. 0. 0. 0. 0. 0. 0. 0. 0. 0. 0. 0. 0. 0. 0. 0. 0. 0. 0.
      0. 0. 0. 0. 0. 0. 0. 0. 0. 0. -6.94731810e-08 -6.94731810e-08
      -6.94731810e-08 -1.38946362e-07 -1.38946362e-07 -1.38946362e-07 0.
      0. 0. -1.38946362e-07 -1.38946362e-07 -1.38946362e-07 0. 0. 0. 0.
      0. 0. 0. 0. 0. 0. 0. 0. 0. 0. 0. 0. 0. 0. -6.94731810e-08
      -6.94731810e-08 -6.94731810e-08 0. 0. 0. 0. 0. 0. 0. 0. 0. 0. 0.
      0. 0. 0. 0. 0. 0. 0. 0. 0. 0. 0. 0. 0. -6.94731810e-08
      -6.94731810e-08 -6.94731810e-08 0. 0. 0. 0. 0. 0. -1.38946362e-07
      -1.38946362e-07 -1.38946362e-07 -6.94731810e-08 -6.94731810e-08
      -6.94731810e-08 0. 0. 0. 0. 0. 0. 0. 0. 0. 0. 0. 0. 0. 0. 0. 0. 0.
      0. 0. 0. 0. -6.94731810e-08 -6.94731810e-08 -6.94731810e-08
      -6.94731810e-08 -6.94731810e-08 -6.94731810e-08 0. 0. 0.
      -6.94731810e-08 -6.94731810e-08 -6.94731810e-08 0. 0. 0. 0. 0. 0.
      -1.38946362e-07 -1.38946362e-07 -1.38946362e-07 0. 0. 0. 0. 0. 0.
      0. 0. 0. 0. 0. 0. -6.94731810e-08 -6.94731810e-08 -6.94731810e-08
      -6.94731810e-08 -6.94731810e-08 -6.94731810e-08 0. 0. 0. 0. 0. 0.
      0. 0. 0. -6.94731810e-08 -6.94731810e-08 -6.94731810e-08
      -6.94731810e-08 -6.94731810e-08 -6.94731810e-08 0. 0. 0.
      -2.08419550e-07 -2.08419550e-07 -2.08419550e-07 0. 0. 0. 0. 0. 0.
      -1.38946362e-07 -1.38946362e-07 -1.38946362e-07 0. 0. 0.
      -6.94731810e-08 -6.94731810e-08 -6.94731810e-08 -6.94731810e-08
      -6.94731810e-08 -6.94731810e-08 0. 0. 0. 0. 0. 0. 0. 0. 0.
      -6.94731810e-08 -6.94731810e-08 -6.94731810e-08 0. 0. 0. 0. 0. 0.
      0. 0. 0. 0. 0. 0. -1.38946362e-07 -1.38946362e-07 -1.38946362e-07
      0. 0. 0. 0. 0. 0. -6.94731810e-08 -6.94731810e-08 -6.94731810e-08
      0. 0. 0. -6.94731810e-08 -6.94731810e-08 -6.94731810e-08 0. 0. 0.
      0. 0. 0. 0. 0. 0. 0. 0. 0. 0. 0. 0. 0. 0. 0. 0. 0. 0. 0. 0. 0. 0.
      0. 0. 0. 0. 0. 0. 0. 0. 0. 0. 0. 0. 0. 0. 0. 0. 0. 0. 0. 0. 0. 0.
      0. 0. 0. 0. 0. 0. 0. 0. 0. 0. 0. 0. 0. 0. 0. 0. 0. 0. 0. 0. 0. 0.
      0. 0. 0. 0. 0. 0. 0. 0. 0. 0. 0. 0. 0. 0. 0. 0. 0. 0. 0. 0. 0. 0.
      0. 0. -6.94731810e-08 -6.94731810e-08 -6.94731810e-08
      -1.38946362e-07 -1.38946362e-07 -1.38946362e-07 0. 0. 0.
      -2.08419550e-07 -2.08419550e-07 -2.08419550e-07 0. 0. 0.
      -6.94731810e-08 -6.94731810e-08 -6.94731810e-08 0. 0. 0. 0. 0. 0.
      0. 0. 0. 0. 0. 0. 0. 0. 0. 0. 0. 0. 0. 0. 0. 0. 0. 0. 0. 0. 0. 0.
      0. 0. -1.38946362e-07 -1.38946362e-07 -1.38946362e-07 0. 0. 0. 0.
      0. 0. -1.38946362e-07 -1.38946362e-07 -1.38946362e-07 0. 0. 0. 0.
      0. 0. -6.94731810e-08 -6.94731810e-08 -6.94731810e-08
      -6.94731810e-08 -6.94731810e-08 -6.94731810e-08 -6.94731810e-08
      -6.94731810e-08 -6.94731810e-08 -6.94731810e-08 -6.94731810e-08
      -6.94731810e-08 0. 0. 0. 0. 0. 0. 0. 0. 0. 0. 0. 0. 0. 0. 0.
      -2.08419550e-07 -2.08419550e-07 -2.08419550e-07 0. 0. 0.
      -2.08419550e-07 -2.08419550e-07 -2.08419550e-07 0. 0. 0. 0. 0. 0.
      -6.94731810e-08 -6.94731810e-08 -6.94731810e-08 0. 0. 0.
      -6.94731810e-08 -6.94731810e-08 -6.94731810e-08 -6.94731810e-08
      -6.94731810e-08 -6.94731810e-08 0. 0. 0. 0. 0. 0. 0. 0. 0. 0. 0.
      0. 0. 0. 0. 0. 0. 0. 0. 0. 0. 0. 0. 0. 0. 0. 0. 0. 0. 0. 0. 0. 0.
      -6.94731810e-08 -6.94731810e-08 -6.94731810e-08 0. 0. 0. 0. 0. 0.
      -6.94731810e-08 -6.94731810e-08 -6.94731810e-08 0. 0. 0. 0. 0. 0.
      0. 0. 0. 0. 0. 0. 0. 0. 0. 0. 0. 0. 0. 0. 0. 0. 0. 0. 0. 0. 0.
      -6.94731810e-08 -6.94731810e-08 -6.94731810e-08 0. 0. 0.
      -1.38946362e-07 -1.38946362e-07 -1.38946362e-07 0. 0. 0. 0. 0. 0.
      -2.08419550e-07 -2.08419550e-07 -2.08419550e-07 0. 0. 0. 0. 0. 0.
      0. 0. 0. 0. 0. 0. 0. 0. 0. 0. 0. 0. 0. 0. 0. 0. 0. 0. 0. 0. 0. 0.
      0. 0. 0. 0. 0. 0. 0. 0. 0. 0. 0. 0. 0. 0. 0. 0. 0. 0. 0. 0. 0. 0.
      0. 0. 0. 0. 0. 0. 0. 0. 0. 0. 0. 0. 0. 0. 0. 0. 0. 0. 0. 0. 0. 0.
      0. 0. 0. 0. 0. 0. 0. 0. 0. 0. 0. 0. 0. 0. 0. -1.38946362e-07
      -1.38946362e-07 -1.38946362e-07 -2.08419550e-07 -2.08419550e-07
      -2.08419550e-07 0. 0. 0. 0. 0. 0. -6.94731810e-08 -6.94731810e-08
      -6.94731810e-08 0. 0. 0. -6.94731810e-08 -6.94731810e-08
      -6.94731810e-08 -6.94731810e-08 -6.94731810e-08 -6.94731810e-08
      -6.94731810e-08 -6.94731810e-08 -6.94731810e-08 0. 0. 0. 0. 0. 0.
      0. 0. 0. -6.94731810e-08 -6.94731810e-08 -6.94731810e-08 0. 0. 0.
      0. 0. 0. -1.38946362e-07 -1.38946362e-07 -1.38946362e-07
      -6.94731810e-08 -6.94731810e-08 -6.94731810e-08 0. 0. 0. 0. 0. 0.
      -6.94731810e-08 -6.94731810e-08 -6.94731810e-08 -6.94731810e-08
      -6.94731810e-08 -6.94731810e-08 -6.94731810e-08 -6.94731810e-08
      -6.94731810e-08 0. 0. 0. 0. 0. 0. 0. 0. 0. 0. 0. 0. 0. 0. 0. 0. 0.
      0. -6.94731810e-08 -6.94731810e-08 -6.94731810e-08 -6.94731810e-08
      -6.94731810e-08 -6.94731810e-08 -6.94731810e-08 -6.94731810e-08
      -6.94731810e-08 0. 0. 0. -2.77892724e-07 -2.77892724e-07
      -2.77892724e-07 0. 0. 0. 0. 0. 0. -6.94731810e-08 -6.94731810e-08
      -6.94731810e-08 0. 0. 0. 0. 0. 0. 0. 0. 0. 0. 0. 0. 0. 0. 0. 0. 0.
      0. 0. 0. 0. 0. 0. 0. -6.94731810e-08 -6.94731810e-08
      -6.94731810e-08 -6.94731810e-08 -6.94731810e-08 -6.94731810e-08
      -6.94731810e-08 -6.94731810e-08 -6.94731810e-08 0. 0. 0.
      -6.94731810e-08 -6.94731810e-08 -6.94731810e-08 0. 0. 0.
      -6.94731810e-08 -6.94731810e-08 -6.94731810e-08 -6.94731810e-08
      -6.94731810e-08 -6.94731810e-08 -6.94731810e-08 -6.94731810e-08
      -6.94731810e-08 -1.38946362e-07 -1.38946362e-07 -1.38946362e-07 0.
      0. 0. 0. 0. 0. 0. 0. 0. -6.94731810e-08 -6.94731810e-08
      -6.94731810e-08 0. 0. 0. 0. 0. 0. 0. 0. 0. -6.94731810e-08
      -6.94731810e-08 -6.94731810e-08 0. 0. 0. 0. 0. 0. -2.77892724e-07
      -2.77892724e-07 -2.77892724e-07 0. 0. 0. -6.94731810e-08
      -6.94731810e-08 -6.94731810e-08 0. 0. 0. 0. 0. 0. -1.38946362e-07
      -1.38946362e-07 -1.38946362e-07 0. 0. 0. 0. 0. 0. 0. 0. 0. 0. 0.
      0. 0. 0. 0. 0. 0. 0. 0. 0. 0. 0. 0. 0. 0. 0. 0. 0. 0. 0. 0. 0. 0.
      0. 0. 0. 0. 0. 0. 0. 0. 0. 0. 0. 0. 0. 0. 0. 0. 0. 0. 0. 0. 0. 0.
      0. 0. 0. 0. 0. 0. 0. 0. 0. 0. 0. 0. 0. 0. 0. 0. 0. 0. 0. 0. 0. 0.
      0. 0. 0. 0. 0. 0. 0. 0. 0. 0. 0. 0. 0. 0. 0. 0. 0. 0. 0.
      -1.38946362e-07 -1.38946362e-07 -1.38946362e-07 0. 0. 0.
      -1.38946362e-07 -1.38946362e-07 -1.38946362e-07 -3.95997131e-06
      -3.95997131e-06 -3.95997131e-06 -4.37681047e-06 -4.37681047e-06
      -4.37681047e-06 -4.72417651e-06 -4.72417651e-06 -4.72417651e-06
      -4.58522982e-06 -4.58522982e-06 -4.58522982e-06 -4.30733735e-06
      -4.30733735e-06 -4.30733735e-06 -4.16839066e-06 -4.16839066e-06
      -4.16839066e-06 -4.16839066e-06 -4.16839066e-06 -4.16839066e-06
      -4.09891754e-06 -4.09891754e-06 -4.09891754e-06 -3.95997131e-06
      -3.95997131e-06 -3.95997131e-06 -3.75155173e-06 -3.75155173e-06
      -3.75155173e-06 -3.33471280e-06 -3.33471280e-06 -3.33471280e-06
      -6.94731810e-08 -6.94731810e-08 -6.94731810e-08 0. 0. 0.
      -2.08419550e-07 -2.08419550e-07 -2.08419550e-07 0. 0. 0.
      -6.94731810e-08 -6.94731810e-08 -6.94731810e-08 0. 0. 0.
      -6.94731810e-08 -6.94731810e-08 -6.94731810e-08 -6.94731810e-08
      -6.94731810e-08 -6.94731810e-08 -6.94731810e-08 -6.94731810e-08
      -6.94731810e-08 0. 0. 0. 0. 0. 0. 0. 0. 0. 0. 0. 0. 0. 0. 0. 0. 0.
      0. 0. 0. 0. -6.94731810e-08 -6.94731810e-08 -6.94731810e-08 0. 0.
      0. -6.94731810e-08 -6.94731810e-08 -6.94731810e-08 0. 0. 0.
      -2.77892724e-07 -2.77892724e-07 -2.77892724e-07 0. 0. 0.
      -2.08419550e-07 -2.08419550e-07 -2.08419550e-07 -1.38946362e-07
      -1.38946362e-07 -1.38946362e-07 -1.38946362e-07 -1.38946362e-07
      -1.38946362e-07 -6.94731810e-08 -6.94731810e-08 -6.94731810e-08 0.
      0. 0. 0. 0. 0. 0. 0. 0. 0. 0. 0. 0. 0. 0. -6.94731810e-08
      -6.94731810e-08 -6.94731810e-08 -6.94731810e-08 -6.94731810e-08
      -6.94731810e-08 0. 0. 0. 0. 0. 0. -6.94731810e-08 -6.94731810e-08
      -6.94731810e-08 0. 0. 0. 0. 0. 0. -6.94731810e-08 -6.94731810e-08
      -6.94731810e-08 -6.94731810e-08 -6.94731810e-08 -6.94731810e-08
      -1.38946362e-07 -1.38946362e-07 -1.38946362e-07 -6.94731810e-08
      -6.94731810e-08 -6.94731810e-08 0. 0. 0. 0. 0. 0. 0. 0. 0. 0. 0.
      0. 0. 0. 0. -6.94731810e-08 -6.94731810e-08 -6.94731810e-08 0. 0.
      0. -1.38946362e-07 -1.38946362e-07 -1.38946362e-07 0. 0. 0.
      -2.08419550e-07 -2.08419550e-07 -2.08419550e-07 0. 0. 0. 0. 0. 0.
      0. 0. 0. 0. 0. 0. 0. 0. 0. 0. 0. 0. 0. 0. 0. 0. 0. 0. 0. 0. 0. 0.
      0. 0. 0. 0. 0. 0. 0. 0. 0. 0. 0. 0. 0. 0. 0. 0. 0. 0. 0. 0. 0. 0.
      0. 0. 0. 0. 0. 0. 0. 0. 0. 0. 0. 0. 0. 0. 0. 0. 0. 0. 0. 0. 0. 0.
      0. 0. 0. 0. 0. 0. 0. 0. 0. 0. 0. 0. 0. 0. 0. 0. 0. 0. 0. 0. 0.
      -1.38946362e-07 -1.38946362e-07 -1.38946362e-07 0. 0. 0.
      -6.94731810e-08 -6.94731810e-08 -6.94731810e-08 0. 0. 0.
      -2.08419550e-07 -2.08419550e-07 -2.08419550e-07 -3.95997131e-06
      -3.95997131e-06 -3.95997131e-06 -5.07154209e-06 -5.07154209e-06
      -5.07154209e-06 -6.04416664e-06 -6.04416664e-06 -6.04416664e-06
      -6.04416664e-06 -6.04416664e-06 -6.04416664e-06 -5.90522041e-06
      -5.90522041e-06 -5.90522041e-06 -5.69680105e-06 -5.69680105e-06
      -5.69680105e-06 -5.62732748e-06 -5.62732748e-06 -5.62732748e-06
      -5.69680105e-06 -5.69680105e-06 -5.69680105e-06 -5.69680105e-06
      -5.69680105e-06 -5.69680105e-06 -5.62732748e-06 -5.62732748e-06
      -5.62732748e-06 -5.41890813e-06 -5.41890813e-06 -5.41890813e-06
      -5.34943501e-06 -5.34943501e-06 -5.34943501e-06 -5.62732748e-06
      -5.62732748e-06 -5.62732748e-06 -5.27996190e-06 -5.27996190e-06
      -5.27996190e-06 -4.93259586e-06 -4.93259586e-06 -4.93259586e-06
      -5.21048878e-06 -5.21048878e-06 -5.21048878e-06 -5.14101521e-06
      -5.14101521e-06 -5.14101521e-06 -4.93259586e-06 -4.93259586e-06
      -4.93259586e-06 -5.14101521e-06 -5.14101521e-06 -5.14101521e-06
      -5.00206897e-06 -5.00206897e-06 -5.00206897e-06 -4.93259586e-06
      -4.93259586e-06 -4.93259586e-06 -4.72417651e-06 -4.72417651e-06
      -4.72417651e-06 -4.51575670e-06 -4.51575670e-06 -4.51575670e-06
      -4.37681047e-06 -4.37681047e-06 -4.37681047e-06 -4.30733735e-06
      -4.30733735e-06 -4.30733735e-06 -4.23786423e-06 -4.23786423e-06
      -4.23786423e-06 -4.16839066e-06 -4.16839066e-06 -4.16839066e-06
      -3.95997131e-06 -3.95997131e-06 -3.95997131e-06 -3.33471280e-06
      -3.33471280e-06 -3.33471280e-06 -6.94731810e-08 -6.94731810e-08
      -6.94731810e-08 0. 0. 0. 0. 0. 0. 0. 0. 0. -3.47365898e-07
      -3.47365898e-07 -3.47365898e-07 0. 0. 0. 0. 0. 0. 0. 0. 0. 0. 0.
      0. 0. 0. 0. 0. 0. 0. 0. 0. 0. 0. 0. 0. -6.94731810e-08
      -6.94731810e-08 -6.94731810e-08 0. 0. 0. -2.08419550e-07
      -2.08419550e-07 -2.08419550e-07 -2.08419550e-07 -2.08419550e-07
      -2.08419550e-07 0. 0. 0. -6.94731810e-08 -6.94731810e-08
      -6.94731810e-08 -2.08419550e-07 -2.08419550e-07 -2.08419550e-07 0.
      0. 0. -2.08419550e-07 -2.08419550e-07 -2.08419550e-07 0. 0. 0. 0.
      0. 0. 0. 0. 0. 0. 0. 0. 0. 0. 0. -6.94731810e-08 -6.94731810e-08
      -6.94731810e-08 -6.94731810e-08 -6.94731810e-08 -6.94731810e-08 0.
      0. 0. 0. 0. 0. -6.94731810e-08 -6.94731810e-08 -6.94731810e-08 0.
      0. 0. -1.38946362e-07 -1.38946362e-07 -1.38946362e-07 0. 0. 0. 0.
      0. 0. -3.47365898e-07 -3.47365898e-07 -3.47365898e-07 0. 0. 0. 0.
      0. 0. 0. 0. 0. 0. 0. 0. 0. 0. 0. 0. 0. 0. 0. 0. 0. 0. 0. 0. 0. 0.
      0. 0. 0. 0. 0. 0. 0. 0. 0. 0. 0. 0. 0. 0. 0. 0. 0. 0. 0. 0. 0. 0.
      0. 0. 0. 0. 0. 0. 0. 0. 0. 0. 0. 0. 0. 0. 0. 0. 0. 0. 0. 0. 0. 0.
      0. 0. 0. 0. 0. 0. 0. 0. 0. 0. 0. 0. 0. 0. 0. 0. 0. 0. 0. 0.
      -2.08419550e-07 -2.08419550e-07 -2.08419550e-07 0. 0. 0. 0. 0. 0.
      0. 0. 0. -5.07154209e-06 -5.07154209e-06 -5.07154209e-06
      -5.90522041e-06 -5.90522041e-06 -5.90522041e-06 -5.90522041e-06
      -5.90522041e-06 -5.90522041e-06 -5.90522041e-06 -5.90522041e-06
      -5.90522041e-06 -5.83574729e-06 -5.83574729e-06 -5.83574729e-06
      -5.76627417e-06 -5.76627417e-06 -5.76627417e-06 -5.83574729e-06
      -5.83574729e-06 -5.83574729e-06 -5.97469352e-06 -5.97469352e-06
      -5.97469352e-06 -6.11363976e-06 -6.11363976e-06 -6.11363976e-06
      -6.11363976e-06 -6.11363976e-06 -6.11363976e-06 -6.04416664e-06
      -6.04416664e-06 -6.04416664e-06 -6.25258645e-06 -6.25258645e-06
      -6.25258645e-06 -5.41890813e-06 -5.41890813e-06 -5.41890813e-06
      -6.04416664e-06 -6.04416664e-06 -6.04416664e-06 -5.90522041e-06
      -5.90522041e-06 -5.90522041e-06 -5.62732748e-06 -5.62732748e-06
      -5.62732748e-06 -5.97469352e-06 -5.97469352e-06 -5.97469352e-06
      -5.69680105e-06 -5.69680105e-06 -5.69680105e-06 -5.76627417e-06
      -5.76627417e-06 -5.76627417e-06 -6.04416664e-06 -6.04416664e-06
      -6.04416664e-06 -6.04416664e-06 -6.04416664e-06 -6.04416664e-06
      -5.97469352e-06 -5.97469352e-06 -5.97469352e-06 -5.76627417e-06
      -5.76627417e-06 -5.76627417e-06 -5.62732748e-06 -5.62732748e-06
      -5.62732748e-06 -5.62732748e-06 -5.62732748e-06 -5.62732748e-06
      -5.62732748e-06 -5.62732748e-06 -5.62732748e-06 -5.55785437e-06
      -5.55785437e-06 -5.55785437e-06 -5.48838125e-06 -5.48838125e-06
      -5.48838125e-06 -5.62732748e-06 -5.62732748e-06 -5.62732748e-06
      -5.21048878e-06 -5.21048878e-06 -5.21048878e-06 -5.21048878e-06
      -5.21048878e-06 -5.21048878e-06 -5.14101521e-06 -5.14101521e-06
      -5.14101521e-06 -5.21048878e-06 -5.21048878e-06 -5.21048878e-06
      -4.72417651e-06 -4.72417651e-06 -4.72417651e-06 -4.65470293e-06
      -4.65470293e-06 -4.65470293e-06 -4.58522982e-06 -4.58522982e-06
      -4.58522982e-06 -4.72417651e-06 -4.72417651e-06 -4.72417651e-06
      -4.72417651e-06 -4.72417651e-06 -4.72417651e-06 -4.65470293e-06
      -4.65470293e-06 -4.65470293e-06 -4.37681047e-06 -4.37681047e-06
      -4.37681047e-06 -4.16839066e-06 -4.16839066e-06 -4.16839066e-06
      -4.02944443e-06 -4.02944443e-06 -4.02944443e-06 -4.02944443e-06
      -4.02944443e-06 -4.02944443e-06 -3.82102508e-06 -3.82102508e-06
      -3.82102508e-06 0. 0. 0. 0. 0. 0. -4.86312274e-07 -4.86312274e-07
      -4.86312274e-07 0. 0. 0. 0. 0. 0. -2.08419550e-07 -2.08419550e-07
      -2.08419550e-07 0. 0. 0. -1.38946362e-07 -1.38946362e-07
      -1.38946362e-07 -6.94731810e-08 -6.94731810e-08 -6.94731810e-08
      -6.94731810e-08 -6.94731810e-08 -6.94731810e-08 -6.94731810e-08
      -6.94731810e-08 -6.94731810e-08 -6.94731810e-08 -6.94731810e-08
      -6.94731810e-08 0. 0. 0. 0. 0. 0. 0. 0. 0. -1.38946362e-07
      -1.38946362e-07 -1.38946362e-07 -6.94731810e-08 -6.94731810e-08
      -6.94731810e-08 0. 0. 0. 0. 0. 0. -1.38946362e-07 -1.38946362e-07
      -1.38946362e-07 0. 0. 0. 0. 0. 0. 0. 0. 0. 0. 0. 0. 0. 0. 0. 0. 0.
      0. 0. 0. 0. 0. 0. 0. 0. 0. 0. 0. 0. 0. 0. 0. 0. 0. 0. 0. 0. 0. 0.
      0. 0. 0. 0. 0. 0. 0. 0. 0. 0. 0. 0. 0. 0. 0. 0. 0. 0. 0. 0. 0. 0.
      0. 0. 0. 0. 0. 0. 0. 0. 0. 0. 0. 0. 0. 0. 0. 0. 0. 0. 0. 0. 0. 0.
      0. 0. 0. 0. 0. 0. 0. 0. 0. 0. -6.94731810e-08 -6.94731810e-08
      -6.94731810e-08 0. 0. 0. -6.94731810e-08 -6.94731810e-08
      -6.94731810e-08 -6.94731810e-08 -6.94731810e-08 -6.94731810e-08
      -3.68207861e-06 -3.68207861e-06 -3.68207861e-06 -5.41890813e-06
      -5.41890813e-06 -5.41890813e-06 -5.69680105e-06 -5.69680105e-06
      -5.69680105e-06 -5.83574729e-06 -5.83574729e-06 -5.83574729e-06
      -6.18311333e-06 -6.18311333e-06 -6.18311333e-06 -6.11363976e-06
      -6.11363976e-06 -6.11363976e-06 -6.04416664e-06 -6.04416664e-06
      -6.04416664e-06 -6.04416664e-06 -6.04416664e-06 -6.04416664e-06
      -6.04416664e-06 -6.04416664e-06 -6.04416664e-06 -6.11363976e-06
      -6.11363976e-06 -6.11363976e-06 -6.04416664e-06 -6.04416664e-06
      -6.04416664e-06 -5.90522041e-06 -5.90522041e-06 -5.90522041e-06
      -5.83574729e-06 -5.83574729e-06 -5.83574729e-06 -6.18311333e-06
      -6.18311333e-06 -6.18311333e-06 -6.32205956e-06 -6.32205956e-06
      -6.32205956e-06 -6.32205956e-06 -6.32205956e-06 -6.32205956e-06
      -6.04416664e-06 -6.04416664e-06 -6.04416664e-06 -5.90522041e-06
      -5.90522041e-06 -5.90522041e-06 -6.18311333e-06 -6.18311333e-06
      -6.18311333e-06 -5.90522041e-06 -5.90522041e-06 -5.90522041e-06
      -5.90522041e-06 -5.90522041e-06 -5.90522041e-06 -6.04416664e-06
      -6.04416664e-06 -6.04416664e-06 -6.04416664e-06 -6.04416664e-06
      -6.04416664e-06 -5.90522041e-06 -5.90522041e-06 -5.90522041e-06
      -5.83574729e-06 -5.83574729e-06 -5.83574729e-06 -5.90522041e-06
      -5.90522041e-06 -5.90522041e-06 -5.97469352e-06 -5.97469352e-06
      -5.97469352e-06 -5.97469352e-06 -5.97469352e-06 -5.97469352e-06
      -6.11363976e-06 -6.11363976e-06 -6.11363976e-06 -6.04416664e-06
      -6.04416664e-06 -6.04416664e-06 -5.97469352e-06 -5.97469352e-06
      -5.97469352e-06 -5.69680105e-06 -5.69680105e-06 -5.69680105e-06
      -5.69680105e-06 -5.69680105e-06 -5.69680105e-06 -6.04416664e-06
      -6.04416664e-06 -6.04416664e-06 -5.83574729e-06 -5.83574729e-06
      -5.83574729e-06 -5.83574729e-06 -5.83574729e-06 -5.83574729e-06
      -5.41890813e-06 -5.41890813e-06 -5.41890813e-06 -5.62732748e-06
      -5.62732748e-06 -5.62732748e-06 -5.76627417e-06 -5.76627417e-06
      -5.76627417e-06 -5.90522041e-06 -5.90522041e-06 -5.90522041e-06
      -5.90522041e-06 -5.90522041e-06 -5.90522041e-06 -5.90522041e-06
      -5.90522041e-06 -5.90522041e-06 -5.97469352e-06 -5.97469352e-06
      -5.97469352e-06 -5.97469352e-06 -5.97469352e-06 -5.97469352e-06
      -5.83574729e-06 -5.83574729e-06 -5.83574729e-06 -5.41890813e-06
      -5.41890813e-06 -5.41890813e-06 -5.27996190e-06 -5.27996190e-06
      -5.27996190e-06 -5.07154209e-06 -5.07154209e-06 -5.07154209e-06
      -5.07154209e-06 -5.07154209e-06 -5.07154209e-06 -5.21048878e-06
      -5.21048878e-06 -5.21048878e-06 -4.93259586e-06 -4.93259586e-06
      -4.93259586e-06 -4.79364962e-06 -4.79364962e-06 -4.79364962e-06
      -4.65470293e-06 -4.65470293e-06 -4.65470293e-06 -4.51575670e-06
      -4.51575670e-06 -4.51575670e-06 -4.44628358e-06 -4.44628358e-06
      -4.44628358e-06 -4.30733735e-06 -4.30733735e-06 -4.30733735e-06
      -4.02944443e-06 -4.02944443e-06 -4.02944443e-06 -3.61260550e-06
      -3.61260550e-06 -3.61260550e-06 -3.54313215e-06 -3.54313215e-06
      -3.54313215e-06 -3.68207861e-06 -3.68207861e-06 -3.68207861e-06
      -3.68207861e-06 -3.68207861e-06 -3.68207861e-06 0. 0. 0.
      -2.08419550e-07 -2.08419550e-07 -2.08419550e-07 -6.94731810e-08
      -6.94731810e-08 -6.94731810e-08 -6.94731810e-08 -6.94731810e-08
      -6.94731810e-08 0. 0. 0. -6.94731810e-08 -6.94731810e-08
      -6.94731810e-08 -6.94731810e-08 -6.94731810e-08 -6.94731810e-08 0.
      0. 0. 0. 0. 0. 0. 0. 0. 0. 0. 0. 0. 0. 0. 0. 0. 0. 0. 0. 0. 0. 0.
      0. 0. 0. 0. 0. 0. 0. 0. 0. 0. 0. 0. 0. 0. 0. 0. 0. 0. 0. 0. 0. 0.
      0. 0. 0. 0. 0. 0. 0. 0. 0. 0. 0. 0. 0. 0. 0. 0. 0. 0. 0. 0. 0. 0.
      0. 0. 0. 0. 0. 0. 0. 0. 0. 0. 0. 0. 0. 0. 0. 0. 0. 0. 0. 0. 0. 0.
      0. 0. 0. 0. -1.38946362e-07 -1.38946362e-07 -1.38946362e-07
      -4.79364962e-06 -4.79364962e-06 -4.79364962e-06 -5.76627417e-06
      -5.76627417e-06 -5.76627417e-06 -6.11363976e-06 -6.11363976e-06
      -6.11363976e-06 -5.90522041e-06 -5.90522041e-06 -5.90522041e-06
      -6.32205956e-06 -6.32205956e-06 -6.32205956e-06 -6.39153268e-06
      -6.39153268e-06 -6.39153268e-06 -6.39153268e-06 -6.39153268e-06
      -6.39153268e-06 -6.39153268e-06 -6.39153268e-06 -6.39153268e-06
      -6.39153268e-06 -6.39153268e-06 -6.39153268e-06 -6.46100580e-06
      -6.46100580e-06 -6.46100580e-06 -6.39153268e-06 -6.39153268e-06
      -6.39153268e-06 -6.32205956e-06 -6.32205956e-06 -6.32205956e-06
      -6.18311333e-06 -6.18311333e-06 -6.18311333e-06 -6.32205956e-06
      -6.32205956e-06 -6.32205956e-06 -6.04416664e-06 -6.04416664e-06
      -6.04416664e-06 -5.97469352e-06 -5.97469352e-06 -5.97469352e-06
      -6.11363976e-06 -6.11363976e-06 -6.11363976e-06 -6.04416664e-06
      -6.04416664e-06 -6.04416664e-06 -6.18311333e-06 -6.18311333e-06
      -6.18311333e-06 -6.53047891e-06 -6.53047891e-06 -6.53047891e-06
      -6.39153268e-06 -6.39153268e-06 -6.39153268e-06 -6.53047891e-06
      -6.53047891e-06 -6.53047891e-06 -6.53047891e-06 -6.53047891e-06
      -6.53047891e-06 -6.32205956e-06 -6.32205956e-06 -6.32205956e-06
      -6.11363976e-06 -6.11363976e-06 -6.11363976e-06 -6.11363976e-06
      -6.11363976e-06 -6.11363976e-06 -6.11363976e-06 -6.11363976e-06
      -6.11363976e-06 -6.04416664e-06 -6.04416664e-06 -6.04416664e-06
      -6.11363976e-06 -6.11363976e-06 -6.11363976e-06 -6.18311333e-06
      -6.18311333e-06 -6.18311333e-06 -6.18311333e-06 -6.18311333e-06
      -6.18311333e-06 -6.04416664e-06 -6.04416664e-06 -6.04416664e-06
      -6.04416664e-06 -6.04416664e-06 -6.04416664e-06 -6.18311333e-06
      -6.18311333e-06 -6.18311333e-06 -6.25258645e-06 -6.25258645e-06
      -6.25258645e-06 -5.83574729e-06 -5.83574729e-06 -5.83574729e-06
      -5.90522041e-06 -5.90522041e-06 -5.90522041e-06 -5.97469352e-06
      -5.97469352e-06 -5.97469352e-06 -6.04416664e-06 -6.04416664e-06
      -6.04416664e-06 -6.11363976e-06 -6.11363976e-06 -6.11363976e-06
      -6.11363976e-06 -6.11363976e-06 -6.11363976e-06 -6.04416664e-06
      -6.04416664e-06 -6.04416664e-06 -5.97469352e-06 -5.97469352e-06
      -5.97469352e-06 -5.90522041e-06 -5.90522041e-06 -5.90522041e-06
      -5.90522041e-06 -5.90522041e-06 -5.90522041e-06 -6.11363976e-06
      -6.11363976e-06 -6.11363976e-06 -6.04416664e-06 -6.04416664e-06
      -6.04416664e-06 -6.18311333e-06 -6.18311333e-06 -6.18311333e-06
      -6.18311333e-06 -6.18311333e-06 -6.18311333e-06 -6.18311333e-06
      -6.18311333e-06 -6.18311333e-06 -6.32205956e-06 -6.32205956e-06
      -6.32205956e-06 -6.25258645e-06 -6.25258645e-06 -6.25258645e-06
      -6.11363976e-06 -6.11363976e-06 -6.11363976e-06 -6.04416664e-06
      -6.04416664e-06 -6.04416664e-06 -6.11363976e-06 -6.11363976e-06
      -6.11363976e-06 -6.11363976e-06 -6.11363976e-06 -6.11363976e-06
      -5.83574729e-06 -5.83574729e-06 -5.83574729e-06 -5.48838125e-06
      -5.48838125e-06 -5.48838125e-06 -5.48838125e-06 -5.48838125e-06
      -5.48838125e-06 -5.83574729e-06 -5.83574729e-06 -5.83574729e-06
      -6.80837184e-06 -6.80837184e-06 -6.80837184e-06 -5.83574729e-06
      -5.83574729e-06 -5.83574729e-06 0. 0. 0. 0. 0. 0. -1.38946362e-07
      -1.38946362e-07 -1.38946362e-07 -2.08419550e-07 -2.08419550e-07
      -2.08419550e-07 0. 0. 0. 0. 0. 0. 0. 0. 0. 0. 0. 0. 0. 0. 0. 0. 0.
      0. 0. 0. 0. 0. 0. 0. 0. 0. 0. 0. 0. 0. 0. 0. 0. 0. 0. 0. 0. 0. 0.
      0. 0. 0. 0. 0. 0. 0. 0. 0. 0. 0. 0. 0. 0. 0. 0. 0. 0. 0. 0. 0. 0.
      0. 0. 0. 0. 0. 3.25324947e-07 3.25324947e-07 3.25324947e-07
      -7.52195660e-07 -7.52195660e-07 -7.52195660e-07 -8.12406711e-08
      -8.12406711e-08 -8.12406711e-08 1.49144782e-07 1.49144782e-07
      1.49144782e-07 -2.37115756e-07 -2.37115756e-07 -2.37115756e-07
      3.25324947e-07 3.25324947e-07 3.25324947e-07 -1.74856939e-06
      -1.74856939e-06 -1.74856939e-06 0. 0. 0. -4.13315047e-06
      -4.13315047e-06 -4.13315047e-06 -7.39996085e-06 -7.39996085e-06
      -7.39996085e-06 -6.68138637e-06 -6.68138637e-06 -6.68138637e-06
      -1.17433055e-05 -1.17433055e-05 -1.17433055e-05 -1.32081786e-05
      -1.32081786e-05 -1.32081786e-05 -1.44159549e-05 -1.44159549e-05
      -1.44159549e-05 -1.27705571e-05 -1.27705571e-05 -1.27705571e-05
      -1.18380831e-05 -1.18380831e-05 -1.18380831e-05 -1.34161883e-05
      -1.34161883e-05 -1.34161883e-05 -1.43942352e-05 -1.43942352e-05
      -1.43942352e-05 -1.30200624e-05 -1.30200624e-05 -1.30200624e-05
      -1.42074969e-05 -1.42074969e-05 -1.42074969e-05 -1.49556608e-05
      -1.49556608e-05 -1.49556608e-05 -1.47115807e-05 -1.47115807e-05
      -1.47115807e-05 -1.49296902e-05 -1.49296902e-05 -1.49296902e-05
      -1.33376034e-05 -1.33376034e-05 -1.33376034e-05 -1.29189930e-05
      -1.29189930e-05 -1.29189930e-05 -1.31821016e-05 -1.31821016e-05
      -1.31821016e-05 -1.29045111e-05 -1.29045111e-05 -1.29045111e-05
      -1.24063599e-05 -1.24063599e-05 -1.24063599e-05 -1.33993899e-05
      -1.33993899e-05 -1.33993899e-05 -1.33028161e-05 -1.33028161e-05
      -1.33028161e-05 -1.16142828e-05 -1.16142828e-05 -1.16142828e-05
      -1.27215362e-05 -1.27215362e-05 -1.27215362e-05 -1.24328653e-05
      -1.24328653e-05 -1.24328653e-05 -1.25683555e-05 -1.25683555e-05
      -1.25683555e-05 -1.31036932e-05 -1.31036932e-05 -1.31036932e-05
      -1.37426059e-05 -1.37426059e-05 -1.37426059e-05 -1.22337551e-05
      -1.22337551e-05 -1.22337551e-05 -1.28717384e-05 -1.28717384e-05
      -1.28717384e-05 -1.40110096e-05 -1.40110096e-05 -1.40110096e-05
      -1.39994627e-05 -1.39994627e-05 -1.39994627e-05 -1.20563145e-05
      -1.20563145e-05 -1.20563145e-05 -1.29143218e-05 -1.29143218e-05
      -1.29143218e-05 -1.18581929e-05 -1.18581929e-05 -1.18581929e-05
      -1.13444194e-05 -1.13444194e-05 -1.13444194e-05 -1.19760280e-05
      -1.19760280e-05 -1.19760280e-05 -1.16683177e-05 -1.16683177e-05
      -1.16683177e-05 -1.14361474e-05 -1.14361474e-05 -1.14361474e-05
      -1.21122594e-05 -1.21122594e-05 -1.21122594e-05 -1.23967857e-05
      -1.23967857e-05 -1.23967857e-05 -1.34069269e-05 -1.34069269e-05
      -1.34069269e-05 -1.20111472e-05 -1.20111472e-05 -1.20111472e-05
      -1.28396186e-05 -1.28396186e-05 -1.28396186e-05 -1.32969899e-05
      -1.32969899e-05 -1.32969899e-05 -1.28395250e-05 -1.28395250e-05
      -1.28395250e-05 -1.27176445e-05 -1.27176445e-05 -1.27176445e-05
      -1.31459137e-05 -1.31459137e-05 -1.31459137e-05 -1.26061250e-05
      -1.26061250e-05 -1.26061250e-05 -1.25274100e-05 -1.25274100e-05
      -1.25274100e-05 -1.26052273e-05 -1.26052273e-05 -1.26052273e-05
      -1.12660091e-05 -1.12660091e-05 -1.12660091e-05 -1.09383409e-05
      -1.09383409e-05 -1.09383409e-05 -1.20396535e-05 -1.20396535e-05
      -1.20396535e-05 -1.12442694e-05 -1.12442694e-05 -1.12442694e-05
      -1.09037846e-05 -1.09037846e-05 -1.09037846e-05 -1.20407258e-05
      -1.20407258e-05 -1.20407258e-05 -1.04673891e-05 -1.04673891e-05
      -1.04673891e-05 -5.81166205e-06 -5.81166205e-06 -5.81166205e-06
      -6.86579506e-06 -6.86579506e-06 -6.86579506e-06 -6.22848029e-06
      -6.22848029e-06 -6.22848029e-06 -5.48746584e-06 -5.48746584e-06
      -5.48746584e-06 -6.29952137e-06 -6.29952137e-06 -6.29952137e-06
      -6.49683079e-06 -6.49683079e-06 -6.49683079e-06 -8.75362093e-06
      -8.75362093e-06 -8.75362093e-06 -8.03630155e-06 -8.03630155e-06
      -8.03630155e-06 -3.56517330e-06 -3.56517330e-06 -3.56517330e-06
      6.96851332e-09 6.96851332e-09 6.96851332e-09 2.95928828e-07
      2.95928828e-07 2.95928828e-07 -3.11750171e-07 -3.11750171e-07
      -3.11750171e-07 3.96530055e-07 3.96530055e-07 3.96530055e-07
      1.00288950e-07 1.00288950e-07 1.00288950e-07 0. 0. 0. 0. 0. 0. 0.
      0. 0. 0. 0. 0. 0. 0. 0. 0. 0. 0. 0. 0. 0. 0. 0. 0. 0. 0. 0. 0. 0.
      0. 0. 0. 0. 0. 0. 0. 0. 0. 0. 0. 0. 0. 0. 0. 0. 0. 0. 0. 0. 0. 0.
      0. 0. 0. 0. 0. 0. 0. 0. 0. 1.69449862e-07 1.69449862e-07
      1.69449862e-07 4.94774781e-07 4.94774781e-07 4.94774781e-07
      -1.55875085e-07 -1.55875085e-07 -1.55875085e-07 6.50649895e-07
      6.50649895e-07 6.50649895e-07 -3.18356427e-07 -3.18356427e-07
      -3.18356427e-07 3.62254421e-10 3.62254421e-10 3.62254421e-10
      3.25324947e-07 3.25324947e-07 3.25324947e-07 -1.07055212e-06
      -1.07055212e-06 -1.07055212e-06 -6.14026976e-06 -6.14026976e-06
      -6.14026976e-06 1.10489391e-05 1.10489391e-05 1.10489391e-05
      2.17977431e-05 2.17977431e-05 2.17977431e-05 1.47222127e-05
      1.47222127e-05 1.47222127e-05 1.25344559e-05 1.25344559e-05
      1.25344559e-05 4.57735678e-06 4.57735678e-06 4.57735678e-06
      -4.53218536e-06 -4.53218536e-06 -4.53218536e-06 -4.35376433e-06
      -4.35376433e-06 -4.35376433e-06 -5.09533538e-06 -5.09533538e-06
      -5.09533538e-06 -1.13931483e-05 -1.13931483e-05 -1.13931483e-05
      -1.44840933e-05 -1.44840933e-05 -1.44840933e-05 -1.56628957e-05
      -1.56628957e-05 -1.56628957e-05 -7.73104966e-06 -7.73104966e-06
      -7.73104966e-06 -5.38755694e-06 -5.38755694e-06 -5.38755694e-06
      -1.16596048e-05 -1.16596048e-05 -1.16596048e-05 -5.57712292e-06
      -5.57712292e-06 -5.57712292e-06 4.45403521e-06 4.45403521e-06
      4.45403521e-06 1.12960322e-06 1.12960322e-06 1.12960322e-06
      -1.19483536e-06 -1.19483536e-06 -1.19483536e-06 -3.31032561e-06
      -3.31032561e-06 -3.31032561e-06 -3.89730258e-06 -3.89730258e-06
      -3.89730258e-06 -2.04209982e-06 -2.04209982e-06 -2.04209982e-06
      -3.53140695e-06 -3.53140695e-06 -3.53140695e-06 -6.72075976e-06
      -6.72075976e-06 -6.72075976e-06 -7.70365659e-06 -7.70365659e-06
      -7.70365659e-06 -7.55606106e-06 -7.55606106e-06 -7.55606106e-06
      -7.56592272e-06 -7.56592272e-06 -7.56592272e-06 -1.00405687e-05
      -1.00405687e-05 -1.00405687e-05 -1.03726697e-05 -1.03726697e-05
      -1.03726697e-05 -8.03394141e-06 -8.03394141e-06 -8.03394141e-06
      -2.85552892e-06 -2.85552892e-06 -2.85552892e-06 2.05908364e-07
      2.05908364e-07 2.05908364e-07 -8.44765418e-06 -8.44765418e-06
      -8.44765418e-06 -8.39383574e-06 -8.39383574e-06 -8.39383574e-06
      -6.09351400e-06 -6.09351400e-06 -6.09351400e-06 -3.40387442e-06
      -3.40387442e-06 -3.40387442e-06 -8.36760819e-07 -8.36760819e-07
      -8.36760819e-07 -1.11379825e-06 -1.11379825e-06 -1.11379825e-06
      -4.44920943e-06 -4.44920943e-06 -4.44920943e-06 -5.14043268e-06
      -5.14043268e-06 -5.14043268e-06 -6.41747647e-06 -6.41747647e-06
      -6.41747647e-06 -4.23408119e-06 -4.23408119e-06 -4.23408119e-06
      -2.05683045e-06 -2.05683045e-06 -2.05683045e-06 -4.10772100e-06
      -4.10772100e-06 -4.10772100e-06 -7.49783976e-06 -7.49783976e-06
      -7.49783976e-06 -4.84803695e-06 -4.84803695e-06 -4.84803695e-06
      -3.11684721e-06 -3.11684721e-06 -3.11684721e-06 -7.23876747e-06
      -7.23876747e-06 -7.23876747e-06 -4.46431523e-06 -4.46431523e-06
      -4.46431523e-06 -6.21955166e-07 -6.21955166e-07 -6.21955166e-07
      -2.38146185e-06 -2.38146185e-06 -2.38146185e-06 3.97418216e-06
      3.97418216e-06 3.97418216e-06 1.91834602e-06 1.91834602e-06
      1.91834602e-06 -5.41932332e-06 -5.41932332e-06 -5.41932332e-06
      -2.71852764e-06 -2.71852764e-06 -2.71852764e-06 -5.37176356e-06
      -5.37176356e-06 -5.37176356e-06 -4.17897718e-06 -4.17897718e-06
      -4.17897718e-06 -2.88118326e-06 -2.88118326e-06 -2.88118326e-06
      -6.39320945e-07 -6.39320945e-07 -6.39320945e-07 -7.46847320e-07
      -7.46847320e-07 -7.46847320e-07 -9.10047402e-06 -9.10047402e-06
      -9.10047402e-06 -3.23233544e-05 -3.23233544e-05 -3.23233544e-05
      -2.66037459e-05 -2.66037459e-05 -2.66037459e-05 -2.67488103e-05
      -2.67488103e-05 -2.67488103e-05 -2.24598498e-05 -2.24598498e-05
      -2.24598498e-05 -9.11345433e-06 -9.11345433e-06 -9.11345433e-06
      -4.42759665e-06 -4.42759665e-06 -4.42759665e-06 7.88434363e-07
      7.88434363e-07 7.88434363e-07 -1.25059316e-07 -1.25059316e-07
      -1.25059316e-07 1.17655270e-06 1.17655270e-06 1.17655270e-06
      6.14647547e-07 6.14647547e-07 6.14647547e-07 9.99766812e-08
      9.99766812e-08 9.99766812e-08 0. 0. 0. 0. 0. 0. 0. 0. 0. 0. 0. 0.
      0. 0. 0. 0. 0. 0. 0. 0. 0. 0. 0. 0. 0. 0. 0. 0. 0. 0. 0. 0. 0. 0.
      0. 0. 0. 0. 0. 0. 0. 0. 0. 0. 0. 0. 0. 0. 0. 0. 0. 0. 0. 0. 0. 0.
      0. 0. 0. 0. -8.12406711e-08 -8.12406711e-08 -8.12406711e-08 0. 0.
      0. -1.07761434e-06 -1.07761434e-06 -1.07761434e-06 -5.55472184e-07
      -5.55472184e-07 -5.55472184e-07 -7.18409581e-07 -7.18409581e-07
      -7.18409581e-07 -1.55875085e-07 -1.55875085e-07 -1.55875085e-07
      -2.43722013e-07 -2.43722013e-07 -2.43722013e-07 -9.59905628e-06
      -9.59905628e-06 -9.59905628e-06 -2.49929235e-06 -2.49929235e-06
      -2.49929235e-06 7.56561894e-06 7.56561894e-06 7.56561894e-06
      1.67212456e-05 1.67212456e-05 1.67212456e-05 3.08539093e-05
      3.08539093e-05 3.08539093e-05 4.20500255e-05 4.20500255e-05
      4.20500255e-05 3.41409723e-05 3.41409723e-05 3.41409723e-05
      2.19196609e-05 2.19196609e-05 2.19196609e-05 -3.69763234e-06
      -3.69763234e-06 -3.69763234e-06 -6.70508825e-06 -6.70508825e-06
      -6.70508825e-06 -1.64546345e-05 -1.64546345e-05 -1.64546345e-05
      -7.71616396e-06 -7.71616396e-06 -7.71616396e-06 -6.59971818e-07
      -6.59971818e-07 -6.59971818e-07 1.83669381e-05 1.83669381e-05
      1.83669381e-05 1.80518782e-05 1.80518782e-05 1.80518782e-05
      1.87734131e-05 1.87734131e-05 1.87734131e-05 1.91518848e-05
      1.91518848e-05 1.91518848e-05 7.82463758e-06 7.82463758e-06
      7.82463758e-06 -1.00411808e-05 -1.00411808e-05 -1.00411808e-05
      -1.31515844e-05 -1.31515844e-05 -1.31515844e-05 -9.91703200e-06
      -9.91703200e-06 -9.91703200e-06 1.33451358e-05 1.33451358e-05
      1.33451358e-05 1.04130913e-05 1.04130913e-05 1.04130913e-05
      6.37043377e-06 6.37043377e-06 6.37043377e-06 8.09788162e-06
      8.09788162e-06 8.09788162e-06 7.31471164e-06 7.31471164e-06
      7.31471164e-06 6.74809780e-06 6.74809780e-06 6.74809780e-06
      1.88611466e-05 1.88611466e-05 1.88611466e-05 1.81623254e-05
      1.81623254e-05 1.81623254e-05 1.64678513e-05 1.64678513e-05
      1.64678513e-05 1.75914302e-05 1.75914302e-05 1.75914302e-05
      1.13274082e-05 1.13274082e-05 1.13274082e-05 1.27330331e-05
      1.27330331e-05 1.27330331e-05 9.14336579e-06 9.14336579e-06
      9.14336579e-06 9.78334720e-06 9.78334720e-06 9.78334720e-06
      1.16482570e-05 1.16482570e-05 1.16482570e-05 1.19538709e-05
      1.19538709e-05 1.19538709e-05 1.10721994e-05 1.10721994e-05
      1.10721994e-05 8.79048548e-06 8.79048548e-06 8.79048548e-06
      7.14578027e-06 7.14578027e-06 7.14578027e-06 1.78739938e-05
      1.78739938e-05 1.78739938e-05 1.94768454e-05 1.94768454e-05
      1.94768454e-05 1.70712956e-05 1.70712956e-05 1.70712956e-05
      2.07382946e-05 2.07382946e-05 2.07382946e-05 2.01942203e-05
      2.01942203e-05 2.01942203e-05 1.86943089e-05 1.86943089e-05
      1.86943089e-05 1.05016979e-05 1.05016979e-05 1.05016979e-05
      1.31434954e-05 1.31434954e-05 1.31434954e-05 1.12876951e-05
      1.12876951e-05 1.12876951e-05 9.73438637e-06 9.73438637e-06
      9.73438637e-06 1.40595621e-05 1.40595621e-05 1.40595621e-05
      1.09898974e-05 1.09898974e-05 1.09898974e-05 1.07554888e-05
      1.07554888e-05 1.07554888e-05 2.10550334e-05 2.10550334e-05
      2.10550334e-05 1.98936286e-05 1.98936286e-05 1.98936286e-05
      1.97200079e-05 1.97200079e-05 1.97200079e-05 2.14722986e-05
      2.14722986e-05 2.14722986e-05 1.72936325e-05 1.72936325e-05
      1.72936325e-05 1.82470994e-05 1.82470994e-05 1.82470994e-05
      2.29143207e-05 2.29143207e-05 2.29143207e-05 9.57229804e-06
      9.57229804e-06 9.57229804e-06 7.39007328e-06 7.39007328e-06
      7.39007328e-06 -1.04852315e-05 -1.04852315e-05 -1.04852315e-05
      -3.66332170e-05 -3.66332170e-05 -3.66332170e-05 -5.72841673e-05
      -5.72841673e-05 -5.72841673e-05 -5.81199674e-05 -5.81199674e-05
      -5.81199674e-05 -3.50970622e-05 -3.50970622e-05 -3.50970622e-05
      -2.54326028e-06 -2.54326028e-06 -2.54326028e-06 -2.20187033e-07
      -2.20187033e-07 -2.20187033e-07 -6.94731810e-08 -6.94731810e-08
      -6.94731810e-08 -1.43433070e-07 -1.43433070e-07 -1.43433070e-07 0.
      0. 0. 3.34708119e-08 3.34708119e-08 3.34708119e-08 0. 0. 0. 0. 0.
      0. 0. 0. 0. 0. 0. 0. 0. 0. 0. 0. 0. 0. 0. 0. 0. 0. 0. 0. 0. 0. 0.
      0. 0. 0. 0. 0. 0. 0. 0. 0. 0. 0. 0. 0. 0. 0. 0. 0. 0. 0. 0. 0. 0.
      0. 0. 0. 0. 0. 0. 0. 0. 0. 0. 0. -1.23348946e-06 -1.23348946e-06
      -1.23348946e-06 6.50649895e-07 6.50649895e-07 6.50649895e-07
      -3.92990842e-07 -3.92990842e-07 -3.92990842e-07 5.69409224e-07
      5.69409224e-07 5.69409224e-07 6.50649895e-07 6.50649895e-07
      6.50649895e-07 -8.74284694e-07 -8.74284694e-07 -8.74284694e-07
      1.46414334e-06 1.46414334e-06 1.46414334e-06 -1.94388522e-05
      -1.94388522e-05 -1.94388522e-05 -1.07760009e-07 -1.07760009e-07
      -1.07760009e-07 -1.94360600e-05 -1.94360600e-05 -1.94360600e-05
      3.89511979e-06 3.89511979e-06 3.89511979e-06 2.08458750e-05
      2.08458750e-05 2.08458750e-05 2.84606140e-05 2.84606140e-05
      2.84606140e-05 2.06291443e-05 2.06291443e-05 2.06291443e-05
      6.23067172e-06 6.23067172e-06 6.23067172e-06 -7.56489362e-06
      -7.56489362e-06 -7.56489362e-06 -1.70598526e-06 -1.70598526e-06
      -1.70598526e-06 -7.32386809e-07 -7.32386809e-07 -7.32386809e-07
      -4.94742017e-06 -4.94742017e-06 -4.94742017e-06 -3.16159003e-06
      -3.16159003e-06 -3.16159003e-06 -1.74795096e-05 -1.74795096e-05
      -1.74795096e-05 -2.30935657e-05 -2.30935657e-05 -2.30935657e-05
      -1.81187115e-05 -1.81187115e-05 -1.81187115e-05 -1.61884345e-05
      -1.61884345e-05 -1.61884345e-05 -8.64586809e-07 -8.64586809e-07
      -8.64586809e-07 -2.65838003e-06 -2.65838003e-06 -2.65838003e-06
      6.40650387e-06 6.40650387e-06 6.40650387e-06 7.68485370e-06
      7.68485370e-06 7.68485370e-06 2.13175099e-06 2.13175099e-06
      2.13175099e-06 3.94677545e-06 3.94677545e-06 3.94677545e-06
      5.41346708e-06 5.41346708e-06 5.41346708e-06 1.24066246e-05
      1.24066246e-05 1.24066246e-05 2.14623924e-05 2.14623924e-05
      2.14623924e-05 2.41618054e-05 2.41618054e-05 2.41618054e-05
      2.56960539e-05 2.56960539e-05 2.56960539e-05 3.27974267e-05
      3.27974267e-05 3.27974267e-05 2.17939396e-05 2.17939396e-05
      2.17939396e-05 1.87052538e-05 1.87052538e-05 1.87052538e-05
      2.51618458e-05 2.51618458e-05 2.51618458e-05 2.11517108e-05
      2.11517108e-05 2.11517108e-05 3.20170730e-05 3.20170730e-05
      3.20170730e-05 3.06622023e-05 3.06622023e-05 3.06622023e-05
      2.95290611e-05 2.95290611e-05 2.95290611e-05 4.01577490e-05
      4.01577490e-05 4.01577490e-05 3.66491113e-05 3.66491113e-05
      3.66491113e-05 3.74361989e-05 3.74361989e-05 3.74361989e-05
      3.47252353e-05 3.47252353e-05 3.47252353e-05 2.63451402e-05
      2.63451402e-05 2.63451402e-05 3.21600673e-05 3.21600673e-05
      3.21600673e-05 3.11126678e-05 3.11126678e-05 3.11126678e-05
      3.21846237e-05 3.21846237e-05 3.21846237e-05 4.23506062e-05
      4.23506062e-05 4.23506062e-05 3.39368562e-05 3.39368562e-05
      3.39368562e-05 3.76228818e-05 3.76228818e-05 3.76228818e-05
      3.74814408e-05 3.74814408e-05 3.74814408e-05 3.29991017e-05
      3.29991017e-05 3.29991017e-05 4.23788297e-05 4.23788297e-05
      4.23788297e-05 4.23088532e-05 4.23088532e-05 4.23088532e-05
      4.45425212e-05 4.45425212e-05 4.45425212e-05 4.05364553e-05
      4.05364553e-05 4.05364553e-05 3.87538057e-05 3.87538057e-05
      3.87538057e-05 5.12527731e-05 5.12527731e-05 5.12527731e-05
      4.86900753e-05 4.86900753e-05 4.86900753e-05 4.05152678e-05
      4.05152678e-05 4.05152678e-05 3.96890173e-05 3.96890173e-05
      3.96890173e-05 2.62929971e-05 2.62929971e-05 2.62929971e-05
      2.40189238e-05 2.40189238e-05 2.40189238e-05 3.38142818e-05
      3.38142818e-05 3.38142818e-05 2.77879863e-05 2.77879863e-05
      2.77879863e-05 4.23713609e-05 4.23713609e-05 4.23713609e-05
      4.36569353e-05 4.36569353e-05 4.36569353e-05 -2.66848747e-05
      -2.66848747e-05 -2.66848747e-05 -5.23985036e-05 -5.23985036e-05
      -5.23985036e-05 -5.46651572e-05 -5.46651572e-05 -5.46651572e-05
      -9.93609228e-06 -9.93609228e-06 -9.93609228e-06 -1.55875085e-07
      -1.55875085e-07 -1.55875085e-07 7.61446586e-07 7.61446586e-07
      7.61446586e-07 1.80130826e-07 1.80130826e-07 1.80130826e-07
      2.74900032e-07 2.74900032e-07 2.74900032e-07 -3.62487356e-07
      -3.62487356e-07 -3.62487356e-07 0. 0. 0. 0. 0. 0. 0. 0. 0. 0. 0.
      0. 0. 0. 0. 0. 0. 0. 0. 0. 0. 0. 0. 0. 0. 0. 0. 0. 0. 0. 0. 0. 0.
      0. 0. 0. 0. 0. 0. 0. 0. 0. 0. 0. 0. 0. 0. 0. 0. 0. 0. 0. 0. 0. 0.
      0. 0. 0. 0. 0. 0. 0. 0. -3.59204790e-07 -3.59204790e-07
      -3.59204790e-07 0. 0. 0. -4.67625256e-07 -4.67625256e-07
      -4.67625256e-07 -1.38936457e-06 -1.38936457e-06 -1.38936457e-06
      -1.62481342e-07 -1.62481342e-07 -1.62481342e-07 -3.21382831e-05
      -3.21382831e-05 -3.21382831e-05 -2.58564633e-05 -2.58564633e-05
      -2.58564633e-05 -2.91887318e-05 -2.91887318e-05 -2.91887318e-05
      -2.12583800e-05 -2.12583800e-05 -2.12583800e-05 4.97367364e-06
      4.97367364e-06 4.97367364e-06 2.03034615e-05 2.03034615e-05
      2.03034615e-05 3.55694647e-05 3.55694647e-05 3.55694647e-05
      1.09762141e-05 1.09762141e-05 1.09762141e-05 -4.48704577e-06
      -4.48704577e-06 -4.48704577e-06 -1.61328699e-05 -1.61328699e-05
      -1.61328699e-05 -2.03177551e-05 -2.03177551e-05 -2.03177551e-05
      -1.62189881e-05 -1.62189881e-05 -1.62189881e-05 -1.61651351e-05
      -1.61651351e-05 -1.61651351e-05 -2.22812159e-05 -2.22812159e-05
      -2.22812159e-05 -1.86649413e-05 -1.86649413e-05 -1.86649413e-05
      -2.04372645e-05 -2.04372645e-05 -2.04372645e-05 -2.36778287e-05
      -2.36778287e-05 -2.36778287e-05 -1.51529639e-05 -1.51529639e-05
      -1.51529639e-05 -1.92426069e-05 -1.92426069e-05 -1.92426069e-05
      -2.34937543e-05 -2.34937543e-05 -2.34937543e-05 -2.13523417e-05
      -2.13523417e-05 -2.13523417e-05 -1.83276752e-05 -1.83276752e-05
      -1.83276752e-05 -1.75122004e-05 -1.75122004e-05 -1.75122004e-05
      -2.00764189e-05 -2.00764189e-05 -2.00764189e-05 -1.86377292e-05
      -1.86377292e-05 -1.86377292e-05 -1.69988689e-05 -1.69988689e-05
      -1.69988689e-05 -1.81693595e-05 -1.81693595e-05 -1.81693595e-05
      -1.81211417e-05 -1.81211417e-05 -1.81211417e-05 -1.88129397e-05
      -1.88129397e-05 -1.88129397e-05 -2.11375336e-05 -2.11375336e-05
      -2.11375336e-05 -1.61327553e-05 -1.61327553e-05 -1.61327553e-05
      -1.63373679e-05 -1.63373679e-05 -1.63373679e-05 -1.66271257e-05
      -1.66271257e-05 -1.66271257e-05 -1.35613318e-05 -1.35613318e-05
      -1.35613318e-05 -1.67803009e-05 -1.67803009e-05 -1.67803009e-05
      -1.61335920e-05 -1.61335920e-05 -1.61335920e-05 -1.59089104e-05
      -1.59089104e-05 -1.59089104e-05 -1.73839690e-05 -1.73839690e-05
      -1.73839690e-05 -1.32856248e-05 -1.32856248e-05 -1.32856248e-05
      -1.44581190e-05 -1.44581190e-05 -1.44581190e-05 -1.15838111e-05
      -1.15838111e-05 -1.15838111e-05 -5.62735568e-06 -5.62735568e-06
      -5.62735568e-06 -1.36816197e-05 -1.36816197e-05 -1.36816197e-05
      -1.48951422e-05 -1.48951422e-05 -1.48951422e-05 -1.50082742e-05
      -1.50082742e-05 -1.50082742e-05 -1.40228967e-05 -1.40228967e-05
      -1.40228967e-05 -9.24320830e-06 -9.24320830e-06 -9.24320830e-06
      -8.84984092e-06 -8.84984092e-06 -8.84984092e-06 -7.10304630e-06
      -7.10304630e-06 -7.10304630e-06 -4.56124963e-06 -4.56124963e-06
      -4.56124963e-06 1.67397434e-06 1.67397434e-06 1.67397434e-06
      5.14233648e-07 5.14233648e-07 5.14233648e-07 -2.78134394e-06
      -2.78134394e-06 -2.78134394e-06 -8.56439328e-06 -8.56439328e-06
      -8.56439328e-06 -6.43844442e-06 -6.43844442e-06 -6.43844442e-06
      -6.39541622e-06 -6.39541622e-06 -6.39541622e-06 -4.85632836e-06
      -4.85632836e-06 -4.85632836e-06 -5.58906777e-06 -5.58906777e-06
      -5.58906777e-06 -2.10303915e-06 -2.10303915e-06 -2.10303915e-06
      1.17192803e-06 1.17192803e-06 1.17192803e-06 2.45109391e-06
      2.45109391e-06 2.45109391e-06 -9.98193059e-07 -9.98193059e-07
      -9.98193059e-07 -9.32848434e-06 -9.32848434e-06 -9.32848434e-06
      -2.55947452e-05 -2.55947452e-05 -2.55947452e-05 -1.11402073e-06
      -1.11402073e-06 -1.11402073e-06 -1.48781487e-06 -1.48781487e-06
      -1.48781487e-06 -2.96504222e-05 -2.96504222e-05 -2.96504222e-05
      -6.12851945e-05 -6.12851945e-05 -6.12851945e-05 -8.81053074e-06
      -8.81053074e-06 -8.81053074e-06 -8.42333563e-08 -8.42333563e-08
      -8.42333563e-08 2.44084276e-07 2.44084276e-07 2.44084276e-07 0. 0.
      0. 6.46981846e-07 6.46981846e-07 6.46981846e-07 0. 0. 0. 0. 0. 0.
      0. 0. 0. 0. 0. 0. 0. 0. 0. 0. 0. 0. 0. 0. 0. 0. 0. 0. 0. 0. 0. 0.
      0. 0. 0. 0. 0. 0. 0. 0. 0. 0. 0. 0. 0. 0. 0. 0. 0. 0. 0. 0. 0. 0.
      0. 0. 0. 0. 0. 0. 0. 0. 0. 0. 0. 0. 0. -8.12406711e-08
      -8.12406711e-08 -8.12406711e-08 5.08349558e-07 5.08349558e-07
      5.08349558e-07 -3.11750171e-07 -3.11750171e-07 -3.11750171e-07
      -2.98000742e-07 -2.98000742e-07 -2.98000742e-07 0. 0. 0.
      -1.67470553e-05 -1.67470553e-05 -1.67470553e-05 -3.79939811e-05
      -3.79939811e-05 -3.79939811e-05 -3.01452401e-05 -3.01452401e-05
      -3.01452401e-05 -2.90902935e-05 -2.90902935e-05 -2.90902935e-05
      -7.70657971e-06 -7.70657971e-06 -7.70657971e-06 4.79743494e-06
      4.79743494e-06 4.79743494e-06 -5.64362722e-07 -5.64362722e-07
      -5.64362722e-07 1.00091074e-05 1.00091074e-05 1.00091074e-05
      1.84009423e-05 1.84009423e-05 1.84009423e-05 -1.39169651e-06
      -1.39169651e-06 -1.39169651e-06 -1.04732817e-05 -1.04732817e-05
      -1.04732817e-05 -1.24575454e-05 -1.24575454e-05 -1.24575454e-05
      -1.38492887e-05 -1.38492887e-05 -1.38492887e-05 -1.26004297e-05
      -1.26004297e-05 -1.26004297e-05 -1.24697490e-05 -1.24697490e-05
      -1.24697490e-05 -1.35352429e-05 -1.35352429e-05 -1.35352429e-05
      -1.30501421e-05 -1.30501421e-05 -1.30501421e-05 -1.26356490e-05
      -1.26356490e-05 -1.26356490e-05 -1.21565445e-05 -1.21565445e-05
      -1.21565445e-05 -1.21468038e-05 -1.21468038e-05 -1.21468038e-05
      -1.34427964e-05 -1.34427964e-05 -1.34427964e-05 -1.30350882e-05
      -1.30350882e-05 -1.30350882e-05 -1.38639143e-05 -1.38639143e-05
      -1.38639143e-05 -1.42036197e-05 -1.42036197e-05 -1.42036197e-05
      -1.38824325e-05 -1.38824325e-05 -1.38824325e-05 -1.29324335e-05
      -1.29324335e-05 -1.29324335e-05 -1.25880906e-05 -1.25880906e-05
      -1.25880906e-05 -1.29217569e-05 -1.29217569e-05 -1.29217569e-05
      -1.32795294e-05 -1.32795294e-05 -1.32795294e-05 -1.21363400e-05
      -1.21363400e-05 -1.21363400e-05 -1.19252027e-05 -1.19252027e-05
      -1.19252027e-05 -1.21840167e-05 -1.21840167e-05 -1.21840167e-05
      -1.25378319e-05 -1.25378319e-05 -1.25378319e-05 -1.13196138e-05
      -1.13196138e-05 -1.13196138e-05 -1.01533333e-05 -1.01533333e-05
      -1.01533333e-05 -1.10341043e-05 -1.10341043e-05 -1.10341043e-05
      -1.07862361e-05 -1.07862361e-05 -1.07862361e-05 -1.24041708e-05
      -1.24041708e-05 -1.24041708e-05 -1.29201426e-05 -1.29201426e-05
      -1.29201426e-05 -1.05738745e-05 -1.05738745e-05 -1.05738745e-05
      -1.22420406e-05 -1.22420406e-05 -1.22420406e-05 -1.20145824e-05
      -1.20145824e-05 -1.20145824e-05 -9.73267197e-06 -9.73267197e-06
      -9.73267197e-06 -1.15137318e-05 -1.15137318e-05 -1.15137318e-05
      -1.17411109e-05 -1.17411109e-05 -1.17411109e-05 -9.85720908e-06
      -9.85720908e-06 -9.85720908e-06 -9.01717794e-06 -9.01717794e-06
      -9.01717794e-06 -9.34509808e-06 -9.34509808e-06 -9.34509808e-06
      -1.12599191e-05 -1.12599191e-05 -1.12599191e-05 -1.17787858e-05
      -1.17787858e-05 -1.17787858e-05 -9.45244028e-06 -9.45244028e-06
      -9.45244028e-06 -1.00864718e-05 -1.00864718e-05 -1.00864718e-05
      -1.07345495e-05 -1.07345495e-05 -1.07345495e-05 -1.07488713e-05
      -1.07488713e-05 -1.07488713e-05 -9.69585108e-06 -9.69585108e-06
      -9.69585108e-06 -8.99878614e-06 -8.99878614e-06 -8.99878614e-06
      -8.50514243e-06 -8.50514243e-06 -8.50514243e-06 -5.72357885e-06
      -5.72357885e-06 -5.72357885e-06 -6.58785757e-06 -6.58785757e-06
      -6.58785757e-06 -4.49562185e-06 -4.49562185e-06 -4.49562185e-06
      -8.21360845e-06 -8.21360845e-06 -8.21360845e-06 -6.80118910e-06
      -6.80118910e-06 -6.80118910e-06 -6.02361933e-06 -6.02361933e-06
      -6.02361933e-06 -1.09713510e-05 -1.09713510e-05 -1.09713510e-05
      -2.56968342e-05 -2.56968342e-05 -2.56968342e-05 -3.77148936e-05
      -3.77148936e-05 -3.77148936e-05 -2.83902191e-05 -2.83902191e-05
      -2.83902191e-05 -9.03275850e-06 -9.03275850e-06 -9.03275850e-06
      -5.68316100e-05 -5.68316100e-05 -5.68316100e-05 -1.99579536e-05
      -1.99579536e-05 -1.99579536e-05 1.28663851e-06 1.28663851e-06
      1.28663851e-06 -1.66758412e-07 -1.66758412e-07 -1.66758412e-07
      -2.94146929e-07 -2.94146929e-07 -2.94146929e-07 8.15225405e-07
      8.15225405e-07 8.15225405e-07 -3.71624047e-08 -3.71624047e-08
      -3.71624047e-08 0. 0. 0. 0. 0. 0. 0. 0. 0. 0. 0. 0. 0. 0. 0. 0. 0.
      0. 0. 0. 0. 0. 0. 0. 0. 0. 0. 0. 0. 0. 0. 0. 0. 0. 0. 0. 0. 0. 0.
      0. 0. 0. 0. 0. 0. 0. 0. 0. 0. 0. 0. 0. 0. 0. 0. 0. 0. 0. 0. 0. 0.
      0. 0. -4.40445461e-07 -4.40445461e-07 -4.40445461e-07
      -7.99650252e-07 -7.99650252e-07 -7.99650252e-07 -1.55875085e-07
      -1.55875085e-07 -1.55875085e-07 0. 0. 0. -2.25415988e-05
      -2.25415988e-05 -2.25415988e-05 -3.60283630e-05 -3.60283630e-05
      -3.60283630e-05 -2.45679421e-05 -2.45679421e-05 -2.45679421e-05
      -2.55224913e-05 -2.55224913e-05 -2.55224913e-05 -3.95488814e-06
      -3.95488814e-06 -3.95488814e-06 1.04618321e-05 1.04618321e-05
      1.04618321e-05 2.21791629e-06 2.21791629e-06 2.21791629e-06
      -6.02776163e-06 -6.02776163e-06 -6.02776163e-06 1.90981827e-05
      1.90981827e-05 1.90981827e-05 2.36993310e-06 2.36993310e-06
      2.36993310e-06 -1.13625501e-05 -1.13625501e-05 -1.13625501e-05
      -8.91143009e-06 -8.91143009e-06 -8.91143009e-06 -9.60554917e-06
      -9.60554917e-06 -9.60554917e-06 -1.23313948e-05 -1.23313948e-05
      -1.23313948e-05 -8.92223034e-06 -8.92223034e-06 -8.92223034e-06
      -7.38284916e-06 -7.38284916e-06 -7.38284916e-06 -1.06545831e-05
      -1.06545831e-05 -1.06545831e-05 -1.01743126e-05 -1.01743126e-05
      -1.01743126e-05 -1.11652262e-05 -1.11652262e-05 -1.11652262e-05
      -1.05293593e-05 -1.05293593e-05 -1.05293593e-05 -1.02196173e-05
      -1.02196173e-05 -1.02196173e-05 -1.04012488e-05 -1.04012488e-05
      -1.04012488e-05 -1.02350914e-05 -1.02350914e-05 -1.02350914e-05
      -1.06232674e-05 -1.06232674e-05 -1.06232674e-05 -1.08686827e-05
      -1.08686827e-05 -1.08686827e-05 -1.05547515e-05 -1.05547515e-05
      -1.05547515e-05 -1.05945401e-05 -1.05945401e-05 -1.05945401e-05
      -9.61622845e-06 -9.61622845e-06 -9.61622845e-06 -1.04968667e-05
      -1.04968667e-05 -1.04968667e-05 -1.11612226e-05 -1.11612226e-05
      -1.11612226e-05 -1.12868620e-05 -1.12868620e-05 -1.12868620e-05
      -1.06595062e-05 -1.06595062e-05 -1.06595062e-05 -1.12769194e-05
      -1.12769194e-05 -1.12769194e-05 -1.06381676e-05 -1.06381676e-05
      -1.06381676e-05 -1.08425238e-05 -1.08425238e-05 -1.08425238e-05
      -1.05515401e-05 -1.05515401e-05 -1.05515401e-05 -1.12773751e-05
      -1.12773751e-05 -1.12773751e-05 -9.59642512e-06 -9.59642512e-06
      -9.59642512e-06 -9.63706134e-06 -9.63706134e-06 -9.63706134e-06
      -8.89530838e-06 -8.89530838e-06 -8.89530838e-06 -8.87533133e-06
      -8.87533133e-06 -8.87533133e-06 -1.02940985e-05 -1.02940985e-05
      -1.02940985e-05 -1.04110914e-05 -1.04110914e-05 -1.04110914e-05
      -9.72152338e-06 -9.72152338e-06 -9.72152338e-06 -7.93192612e-06
      -7.93192612e-06 -7.93192612e-06 -9.34832133e-06 -9.34832133e-06
      -9.34832133e-06 -1.10067676e-05 -1.10067676e-05 -1.10067676e-05
      -9.25376571e-06 -9.25376571e-06 -9.25376571e-06 -1.02740914e-05
      -1.02740914e-05 -1.02740914e-05 -1.01047362e-05 -1.01047362e-05
      -1.01047362e-05 -7.08223160e-06 -7.08223160e-06 -7.08223160e-06
      -8.56404768e-06 -8.56404768e-06 -8.56404768e-06 -9.79602737e-06
      -9.79602737e-06 -9.79602737e-06 -7.58273154e-06 -7.58273154e-06
      -7.58273154e-06 -6.93616721e-06 -6.93616721e-06 -6.93616721e-06
      -1.10301116e-05 -1.10301116e-05 -1.10301116e-05 -9.08584934e-06
      -9.08584934e-06 -9.08584934e-06 -8.11447899e-06 -8.11447899e-06
      -8.11447899e-06 -8.88851173e-06 -8.88851173e-06 -8.88851173e-06
      -8.88023897e-06 -8.88023897e-06 -8.88023897e-06 -7.42195925e-06
      -7.42195925e-06 -7.42195925e-06 -8.05003765e-06 -8.05003765e-06
      -8.05003765e-06 -7.08475909e-06 -7.08475909e-06 -7.08475909e-06
      -7.45238367e-06 -7.45238367e-06 -7.45238367e-06 -2.09922564e-05
      -2.09922564e-05 -2.09922564e-05 -4.44791003e-05 -4.44791003e-05
      -4.44791003e-05 -2.83010268e-05 -2.83010268e-05 -2.83010268e-05
      9.76083720e-06 9.76083720e-06 9.76083720e-06 -4.39018731e-05
      -4.39018731e-05 -4.39018731e-05 -2.30055120e-05 -2.30055120e-05
      -2.30055120e-05 -6.21923988e-08 -6.21923988e-08 -6.21923988e-08 0.
      0. 0. 8.01541447e-08 8.01541447e-08 8.01541447e-08 2.44084276e-07
      2.44084276e-07 2.44084276e-07 2.96241097e-07 2.96241097e-07
      2.96241097e-07 0. 0. 0. 0. 0. 0. 0. 0. 0. 0. 0. 0. 0. 0. 0. 0. 0.
      0. 0. 0. 0. 0. 0. 0. 0. 0. 0. 0. 0. 0. 0. 0. 0. 0. 0. 0. 0. 0. 0.
      0. 0. 0. 0. 0. 0. 0. 0. 0. 0. 0. 0. 0. 0. 0. 0. 0. 0. 0. 0. 0.
      -3.92990842e-07 -3.92990842e-07 -3.92990842e-07 -3.59204790e-07
      -3.59204790e-07 -3.59204790e-07 1.35747724e-08 1.35747724e-08
      1.35747724e-08 0. 0. 0. -2.69113354e-08 -2.69113354e-08
      -2.69113354e-08 -1.87125297e-05 -1.87125297e-05 -1.87125297e-05
      -1.89285838e-05 -1.89285838e-05 -1.89285838e-05 -2.33679402e-05
      -2.33679402e-05 -2.33679402e-05 -2.03886411e-05 -2.03886411e-05
      -2.03886411e-05 1.84624025e-06 1.84624025e-06 1.84624025e-06
      1.60490454e-05 1.60490454e-05 1.60490454e-05 -8.28511747e-06
      -8.28511747e-06 -8.28511747e-06 -1.62673314e-05 -1.62673314e-05
      -1.62673314e-05 1.37423031e-05 1.37423031e-05 1.37423031e-05
      3.19860715e-06 3.19860715e-06 3.19860715e-06 -6.51246501e-06
      -6.51246501e-06 -6.51246501e-06 -7.92266201e-06 -7.92266201e-06
      -7.92266201e-06 -7.59676641e-06 -7.59676641e-06 -7.59676641e-06
      -6.30782506e-06 -6.30782506e-06 -6.30782506e-06 -8.07585911e-06
      -8.07585911e-06 -8.07585911e-06 -9.68228142e-06 -9.68228142e-06
      -9.68228142e-06 -7.79444326e-06 -7.79444326e-06 -7.79444326e-06
      -6.64432946e-06 -6.64432946e-06 -6.64432946e-06 -7.04502554e-06
      -7.04502554e-06 -7.04502554e-06 -7.97290795e-06 -7.97290795e-06
      -7.97290795e-06 -7.34425794e-06 -7.34425794e-06 -7.34425794e-06
      -7.38551216e-06 -7.38551216e-06 -7.38551216e-06 -9.06636069e-06
      -9.06636069e-06 -9.06636069e-06 -7.58905935e-06 -7.58905935e-06
      -7.58905935e-06 -6.59907892e-06 -6.59907892e-06 -6.59907892e-06
      -8.36968320e-06 -8.36968320e-06 -8.36968320e-06 -7.95659435e-06
      -7.95659435e-06 -7.95659435e-06 -7.86179771e-06 -7.86179771e-06
      -7.86179771e-06 -9.20283856e-06 -9.20283856e-06 -9.20283856e-06
      -8.11252175e-06 -8.11252175e-06 -8.11252175e-06 -8.36491927e-06
      -8.36491927e-06 -8.36491927e-06 -8.97982045e-06 -8.97982045e-06
      -8.97982045e-06 -8.27886015e-06 -8.27886015e-06 -8.27886015e-06
      -7.39443794e-06 -7.39443794e-06 -7.39443794e-06 -7.46066917e-06
      -7.46066917e-06 -7.46066917e-06 -8.39881977e-06 -8.39881977e-06
      -8.39881977e-06 -8.83320990e-06 -8.83320990e-06 -8.83320990e-06
      -6.88428372e-06 -6.88428372e-06 -6.88428372e-06 -6.82339441e-06
      -6.82339441e-06 -6.82339441e-06 -8.08416735e-06 -8.08416735e-06
      -8.08416735e-06 -6.16874468e-06 -6.16874468e-06 -6.16874468e-06
      -6.55209351e-06 -6.55209351e-06 -6.55209351e-06 -6.27496775e-06
      -6.27496775e-06 -6.27496775e-06 -7.63581556e-06 -7.63581556e-06
      -7.63581556e-06 -8.08365712e-06 -8.08365712e-06 -8.08365712e-06
      -8.83353550e-06 -8.83353550e-06 -8.83353550e-06 -7.14878206e-06
      -7.14878206e-06 -7.14878206e-06 -6.90126717e-06 -6.90126717e-06
      -6.90126717e-06 -7.41485974e-06 -7.41485974e-06 -7.41485974e-06
      -5.97361395e-06 -5.97361395e-06 -5.97361395e-06 -8.67009112e-06
      -8.67009112e-06 -8.67009112e-06 -8.48175659e-06 -8.48175659e-06
      -8.48175659e-06 -6.26913788e-06 -6.26913788e-06 -6.26913788e-06
      -7.22992445e-06 -7.22992445e-06 -7.22992445e-06 -8.09944595e-06
      -8.09944595e-06 -8.09944595e-06 -6.70913505e-06 -6.70913505e-06
      -6.70913505e-06 -7.57509042e-06 -7.57509042e-06 -7.57509042e-06
      -7.94303833e-06 -7.94303833e-06 -7.94303833e-06 -6.35896231e-06
      -6.35896231e-06 -6.35896231e-06 -5.57834301e-06 -5.57834301e-06
      -5.57834301e-06 -8.14643226e-06 -8.14643226e-06 -8.14643226e-06
      -5.77501169e-06 -5.77501169e-06 -5.77501169e-06 -7.14752514e-06
      -7.14752514e-06 -7.14752514e-06 -7.68588052e-06 -7.68588052e-06
      -7.68588052e-06 -9.49344485e-06 -9.49344485e-06 -9.49344485e-06
      -2.80993572e-05 -2.80993572e-05 -2.80993572e-05 -2.67145551e-05
      -2.67145551e-05 -2.67145551e-05 2.19142748e-05 2.19142748e-05
      2.19142748e-05 -4.05000319e-05 -4.05000319e-05 -4.05000319e-05
      -2.38907160e-05 -2.38907160e-05 -2.38907160e-05 2.36029237e-07
      2.36029237e-07 2.36029237e-07 -8.90823202e-08 -8.90823202e-08
      -8.90823202e-08 1.52808042e-07 1.52808042e-07 1.52808042e-07
      3.05034966e-08 3.05034966e-08 3.05034966e-08 3.91904308e-07
      3.91904308e-07 3.91904308e-07 0. 0. 0. 0. 0. 0. 0. 0. 0. 0. 0. 0.
      0. 0. 0. 0. 0. 0. 0. 0. 0. 0. 0. 0. 0. 0. 0. 0. 0. 0. 0. 0. 0. 0.
      0. 0. 0. 0. 0. 0. 0. 0. 0. 0. 0. 0. 0. 0. 0. 0. 0. 0. 0. 0. 0. 0.
      0. 0. 0. 0. 3.25324947e-07 3.25324947e-07 3.25324947e-07
      -1.99741052e-07 -1.99741052e-07 -1.99741052e-07 -7.18409581e-07
      -7.18409581e-07 -7.18409581e-07 3.25324947e-07 3.25324947e-07
      3.25324947e-07 -3.01760550e-09 -3.01760550e-09 -3.01760550e-09
      -1.83533248e-05 -1.83533248e-05 -1.83533248e-05 -1.14087561e-05
      -1.14087561e-05 -1.14087561e-05 -2.00937757e-05 -2.00937757e-05
      -2.00937757e-05 -2.01160110e-05 -2.01160110e-05 -2.01160110e-05
      3.54709550e-06 3.54709550e-06 3.54709550e-06 1.65115944e-05
      1.65115944e-05 1.65115944e-05 -1.58791154e-05 -1.58791154e-05
      -1.58791154e-05 -2.42411006e-05 -2.42411006e-05 -2.42411006e-05
      1.30562257e-05 1.30562257e-05 1.30562257e-05 6.95335393e-06
      6.95335393e-06 6.95335393e-06 -4.90883167e-06 -4.90883167e-06
      -4.90883167e-06 -5.28900864e-06 -5.28900864e-06 -5.28900864e-06
      -4.99823000e-06 -4.99823000e-06 -4.99823000e-06 -4.78270522e-06
      -4.78270522e-06 -4.78270522e-06 -5.11324515e-06 -5.11324515e-06
      -5.11324515e-06 -5.20774529e-06 -5.20774529e-06 -5.20774529e-06
      -5.39489338e-06 -5.39489338e-06 -5.39489338e-06 -5.03875071e-06
      -5.03875071e-06 -5.03875071e-06 -4.79185701e-06 -4.79185701e-06
      -4.79185701e-06 -4.55727650e-06 -4.55727650e-06 -4.55727650e-06
      -4.63627885e-06 -4.63627885e-06 -4.63627885e-06 -4.94031656e-06
      -4.94031656e-06 -4.94031656e-06 -4.66518395e-06 -4.66518395e-06
      -4.66518395e-06 -5.22306800e-06 -5.22306800e-06 -5.22306800e-06
      -5.43683655e-06 -5.43683655e-06 -5.43683655e-06 -5.40022984e-06
      -5.40022984e-06 -5.40022984e-06 -5.36362313e-06 -5.36362313e-06
      -5.36362313e-06 -5.24783627e-06 -5.24783627e-06 -5.24783627e-06
      -5.32104923e-06 -5.32104923e-06 -5.32104923e-06 -5.20178082e-06
      -5.20178082e-06 -5.20178082e-06 -5.31649221e-06 -5.31649221e-06
      -5.31649221e-06 -5.22199207e-06 -5.22199207e-06 -5.22199207e-06
      -5.22951495e-06 -5.22951495e-06 -5.22951495e-06 -5.32401509e-06
      -5.32401509e-06 -5.32401509e-06 -5.55764927e-06 -5.55764927e-06
      -5.55764927e-06 -5.67865163e-06 -5.67865163e-06 -5.67865163e-06
      -5.58415149e-06 -5.58415149e-06 -5.58415149e-06 -5.26477152e-06
      -5.26477152e-06 -5.26477152e-06 -5.13366513e-06 -5.13366513e-06
      -5.13366513e-06 -5.06045171e-06 -5.06045171e-06 -5.06045171e-06
      -4.59706825e-06 -4.59706825e-06 -4.59706825e-06 -4.32975503e-06
      -4.32975503e-06 -4.32975503e-06 -4.36636128e-06 -4.36636128e-06
      -4.36636128e-06 -5.37894266e-06 -5.37894266e-06 -5.37894266e-06
      -5.34233641e-06 -5.34233641e-06 -5.34233641e-06 -5.01701152e-06
      -5.01701152e-06 -5.01701152e-06 -4.94553205e-06 -4.94553205e-06
      -4.94553205e-06 -4.79687833e-06 -4.79687833e-06 -4.79687833e-06
      -4.68109147e-06 -4.68109147e-06 -4.68109147e-06 -5.16576210e-06
      -5.16576210e-06 -5.16576210e-06 -5.24494226e-06 -5.24494226e-06
      -5.24494226e-06 -4.90483990e-06 -4.90483990e-06 -4.90483990e-06
      -4.88355317e-06 -4.88355317e-06 -4.88355317e-06 -4.94651658e-06
      -4.94651658e-06 -4.94651658e-06 -4.61945774e-06 -4.61945774e-06
      -4.61945774e-06 -4.67561767e-06 -4.67561767e-06 -4.67561767e-06
      -4.47966522e-06 -4.47966522e-06 -4.47966522e-06 -5.23740846e-06
      -5.23740846e-06 -5.23740846e-06 -5.36851485e-06 -5.36851485e-06
      -5.36851485e-06 -4.87932357e-06 -4.87932357e-06 -4.87932357e-06
      -4.69171027e-06 -4.69171027e-06 -4.69171027e-06 -5.92738752e-06
      -5.92738752e-06 -5.92738752e-06 -5.25050336e-06 -5.25050336e-06
      -5.25050336e-06 -4.54729798e-06 -4.54729798e-06 -4.54729798e-06
      -5.93521190e-06 -5.93521190e-06 -5.93521190e-06 -1.84603778e-05
      -1.84603778e-05 -1.84603778e-05 -2.84306570e-05 -2.84306570e-05
      -2.84306570e-05 3.57509525e-05 3.57509525e-05 3.57509525e-05
      -3.78134246e-05 -3.78134246e-05 -3.78134246e-05 -2.17082106e-05
      -2.17082106e-05 -2.17082106e-05 4.15578342e-07 4.15578342e-07
      4.15578342e-07 9.20324297e-08 9.20324297e-08 9.20324297e-08
      2.00577901e-07 2.00577901e-07 2.00577901e-07 -1.12939858e-06
      -1.12939858e-06 -1.12939858e-06 2.85038652e-07 2.85038652e-07
      2.85038652e-07 0. 0. 0. 0. 0. 0. 0. 0. 0. 0. 0. 0. 0. 0. 0. 0. 0.
      0. 0. 0. 0. 0. 0. 0. 0. 0. 0. 0. 0. 0. 0. 0. 0. 0. 0. 0. 0. 0. 0.
      0. 0. 0. 0. 0. 0. 0. 0. 0. 0. 0. 0. 0. 0. 0. 0. 0. 0. 0. 0. 0.
      -3.59204790e-07 -3.59204790e-07 -3.59204790e-07 3.22307329e-07
      3.22307329e-07 3.22307329e-07 -1.55875085e-07 -1.55875085e-07
      -1.55875085e-07 -1.15120521e-07 -1.15120521e-07 -1.15120521e-07
      9.35697528e-07 9.35697528e-07 9.35697528e-07 -1.76413123e-05
      -1.76413123e-05 -1.76413123e-05 9.97142820e-07 9.97142820e-07
      9.97142820e-07 -1.84867913e-05 -1.84867913e-05 -1.84867913e-05
      -1.56238984e-05 -1.56238984e-05 -1.56238984e-05 2.99716612e-06
      2.99716612e-06 2.99716612e-06 1.17825648e-05 1.17825648e-05
      1.17825648e-05 -1.36849949e-05 -1.36849949e-05 -1.36849949e-05
      -2.85259630e-05 -2.85259630e-05 -2.85259630e-05 5.81284212e-06
      5.81284212e-06 5.81284212e-06 8.32026490e-06 8.32026490e-06
      8.32026490e-06 -4.15189288e-06 -4.15189288e-06 -4.15189288e-06
      -3.98259499e-06 -3.98259499e-06 -3.98259499e-06 -3.65726987e-06
      -3.65726987e-06 -3.65726987e-06 -3.50890878e-06 -3.50890878e-06
      -3.50890878e-06 -3.48762183e-06 -3.48762183e-06 -3.48762183e-06
      -4.10339908e-06 -4.10339908e-06 -4.10339908e-06 -4.12340478e-06
      -4.12340478e-06 -4.12340478e-06 -3.76147318e-06 -3.76147318e-06
      -3.76147318e-06 -3.41312739e-06 -3.41312739e-06 -3.41312739e-06
      -3.84367149e-06 -3.84367149e-06 -3.84367149e-06 -3.88027820e-06
      -3.88027820e-06 -3.88027820e-06 -3.66303902e-06 -3.66303902e-06
      -3.66303902e-06 -3.64175207e-06 -3.64175207e-06 -3.64175207e-06
      -3.79762719e-06 -3.79762719e-06 -3.79762719e-06 -3.85552039e-06
      -3.85552039e-06 -3.85552039e-06 -3.89212710e-06 -3.89212710e-06
      -3.89212710e-06 -4.06679237e-06 -4.06679237e-06 -4.06679237e-06
      -3.82097414e-06 -3.82097414e-06 -3.82097414e-06 -3.77634024e-06
      -3.77634024e-06 -3.77634024e-06 -3.77634024e-06 -3.77634024e-06
      -3.77634024e-06 -3.73517651e-06 -3.73517651e-06 -3.73517651e-06
      -3.73517651e-06 -3.73517651e-06 -3.73517651e-06 -3.67728308e-06
      -3.67728308e-06 -3.67728308e-06 -3.91670619e-06 -3.91670619e-06
      -3.91670619e-06 -4.06909976e-06 -4.06909976e-06 -4.06909976e-06
      -4.32642673e-06 -4.32642673e-06 -4.32642673e-06 -4.13163798e-06
      -4.13163798e-06 -4.13163798e-06 -3.64511538e-06 -3.64511538e-06
      -3.64511538e-06 -3.60850868e-06 -3.60850868e-06 -3.60850868e-06
      -3.34107722e-06 -3.34107722e-06 -3.34107722e-06 -3.14512522e-06
      -3.14512522e-06 -3.14512522e-06 -3.18173170e-06 -3.18173170e-06
      -3.18173170e-06 -3.34119545e-06 -3.34119545e-06 -3.34119545e-06
      -3.54366330e-06 -3.54366330e-06 -3.54366330e-06 -3.50705659e-06
      -3.50705659e-06 -3.50705659e-06 -3.23962536e-06 -3.23962536e-06
      -3.23962536e-06 -3.27623184e-06 -3.27623184e-06 -3.27623184e-06
      -3.27623184e-06 -3.27623184e-06 -3.27623184e-06 -3.35639697e-06
      -3.35639697e-06 -3.35639697e-06 -3.31979049e-06 -3.31979049e-06
      -3.31979049e-06 -3.31979049e-06 -3.31979049e-06 -3.31979049e-06
      -3.30557350e-06 -3.30557350e-06 -3.30557350e-06 -3.34218021e-06
      -3.34218021e-06 -3.34218021e-06 -3.32089326e-06 -3.32089326e-06
      -3.32089326e-06 -3.12494103e-06 -3.12494103e-06 -3.12494103e-06
      -3.12494103e-06 -3.12494103e-06 -3.12494103e-06 -3.14622798e-06
      -3.14622798e-06 -3.14622798e-06 -2.98688246e-06 -2.98688246e-06
      -2.98688246e-06 -3.02348894e-06 -3.02348894e-06 -3.02348894e-06
      -3.96058294e-06 -3.96058294e-06 -3.96058294e-06 -3.65383926e-06
      -3.65383926e-06 -3.65383926e-06 -3.30241301e-06 -3.30241301e-06
      -3.30241301e-06 -3.89030492e-06 -3.89030492e-06 -3.89030492e-06
      -3.70925318e-06 -3.70925318e-06 -3.70925318e-06 -3.26143481e-06
      -3.26143481e-06 -3.26143481e-06 -1.07812166e-05 -1.07812166e-05
      -1.07812166e-05 -1.54840891e-05 -1.54840891e-05 -1.54840891e-05
      4.12811969e-05 4.12811969e-05 4.12811969e-05 -3.21942389e-05
      -3.21942389e-05 -3.21942389e-05 -2.00355717e-05 -2.00355717e-05
      -2.00355717e-05 -1.68709482e-06 -1.68709482e-06 -1.68709482e-06
      -8.50271022e-07 -8.50271022e-07 -8.50271022e-07 0. 0. 0.
      2.44968447e-07 2.44968447e-07 2.44968447e-07 -2.24673741e-07
      -2.24673741e-07 -2.24673741e-07 0. 0. 0. 0. 0. 0. 0. 0. 0. 0. 0.
      0. 0. 0. 0. 0. 0. 0. 0. 0. 0. 0. 0. 0. 0. 0. 0. 0. 0. 0. 0. 0. 0.
      0. 0. 0. 0. 0. 0. 0. 0. 0. 0. 0. 0. 0. 0. 0. 0. 0. 0. 0. 0. 0. 0.
      0. 0. 0. 0. 0. 0. 0. 0. 4.98363477e-07 4.98363477e-07
      4.98363477e-07 0. 0. 0. -2.33527103e-07 -2.33527103e-07
      -2.33527103e-07 -1.62481342e-07 -1.62481342e-07 -1.62481342e-07
      -1.60556501e-05 -1.60556501e-05 -1.60556501e-05 -4.73044793e-07
      -4.73044793e-07 -4.73044793e-07 -1.45934609e-05 -1.45934609e-05
      -1.45934609e-05 -1.45172244e-05 -1.45172244e-05 -1.45172244e-05
      5.87055956e-06 5.87055956e-06 5.87055956e-06 1.58484672e-05
      1.58484672e-05 1.58484672e-05 -2.00366394e-05 -2.00366394e-05
      -2.00366394e-05 -2.73469595e-05 -2.73469595e-05 -2.73469595e-05
      2.72612851e-06 2.72612851e-06 2.72612851e-06 9.09261689e-06
      9.09261689e-06 9.09261689e-06 -2.76285550e-06 -2.76285550e-06
      -2.76285550e-06 -2.48979200e-06 -2.48979200e-06 -2.48979200e-06
      -2.90530170e-06 -2.90530170e-06 -2.90530170e-06 -2.81080156e-06
      -2.81080156e-06 -2.81080156e-06 -2.75290813e-06 -2.75290813e-06
      -2.75290813e-06 -2.94769711e-06 -2.94769711e-06 -2.94769711e-06
      -2.90402045e-06 -2.90402045e-06 -2.90402045e-06 -2.90402045e-06
      -2.90402045e-06 -2.90402045e-06 -2.80952031e-06 -2.80952031e-06
      -2.80952031e-06 -3.02630679e-06 -3.02630679e-06 -3.02630679e-06
      -2.79548203e-06 -2.79548203e-06 -2.79548203e-06 -2.77419508e-06
      -2.77419508e-06 -2.77419508e-06 -2.57824286e-06 -2.57824286e-06
      -2.57824286e-06 -2.21631126e-06 -2.21631126e-06 -2.21631126e-06
      -2.31081140e-06 -2.31081140e-06 -2.31081140e-06 -2.32613093e-06
      -2.32613093e-06 -2.32613093e-06 -2.50079620e-06 -2.50079620e-06
      -2.50079620e-06 -2.31287163e-06 -2.31287163e-06 -2.31287163e-06
      -2.23163102e-06 -2.23163102e-06 -2.23163102e-06 -2.28952445e-06
      -2.28952445e-06 -2.28952445e-06 -2.81080156e-06 -2.81080156e-06
      -2.81080156e-06 -2.75290813e-06 -2.75290813e-06 -2.75290813e-06
      -2.40108079e-06 -2.40108079e-06 -2.40108079e-06 -2.43768727e-06
      -2.43768727e-06 -2.43768727e-06 -2.82090582e-06 -2.82090582e-06
      -2.82090582e-06 -2.78951461e-06 -2.78951461e-06 -2.78951461e-06
      -2.71630142e-06 -2.71630142e-06 -2.71630142e-06 -2.44701801e-06
      -2.44701801e-06 -2.44701801e-06 -1.92574089e-06 -1.92574089e-06
      -1.92574089e-06 -2.05684751e-06 -2.05684751e-06 -2.05684751e-06
      -2.09345421e-06 -2.09345421e-06 -2.09345421e-06 -2.32427897e-06
      -2.32427897e-06 -2.32427897e-06 -2.28767249e-06 -2.28767249e-06
      -2.28767249e-06 -1.86784735e-06 -1.86784735e-06 -1.86784735e-06
      -1.92574089e-06 -1.92574089e-06 -1.92574089e-06 -1.92574089e-06
      -1.92574089e-06 -1.92574089e-06 -1.98363432e-06 -1.98363432e-06
      -1.98363432e-06 -1.98363432e-06 -1.98363432e-06 -1.98363432e-06
      -1.98363432e-06 -1.98363432e-06 -1.98363432e-06 -1.86784735e-06
      -1.86784735e-06 -1.86784735e-06 -1.71545378e-06 -1.71545378e-06
      -1.71545378e-06 -2.02656202e-06 -2.02656202e-06 -2.02656202e-06
      -2.09977520e-06 -2.09977520e-06 -2.09977520e-06 -1.86895022e-06
      -1.86895022e-06 -1.86895022e-06 -1.90555681e-06 -1.90555681e-06
      -1.90555681e-06 -1.96345036e-06 -1.96345036e-06 -1.96345036e-06
      -1.60151876e-06 -1.60151876e-06 -1.60151876e-06 -1.60151876e-06
      -1.60151876e-06 -1.60151876e-06 -1.60151876e-06 -1.60151876e-06
      -1.60151876e-06 -2.64786195e-06 -2.64786195e-06 -2.64786195e-06
      -3.18158141e-06 -3.18158141e-06 -3.18158141e-06 -3.70977045e-06
      -3.70977045e-06 -3.70977045e-06 -2.75780235e-06 -2.75780235e-06
      -2.75780235e-06 -2.20699962e-06 -2.20699962e-06 -2.20699962e-06
      -1.61916148e-06 -1.61916148e-06 -1.61916148e-06 -3.77646597e-06
      -3.77646597e-06 -3.77646597e-06 -8.18623721e-06 -8.18623721e-06
      -8.18623721e-06 4.85988385e-05 4.85988385e-05 4.85988385e-05
      -2.73250571e-05 -2.73250571e-05 -2.73250571e-05 -1.93758406e-05
      -1.93758406e-05 -1.93758406e-05 -4.28677964e-07 -4.28677964e-07
      -4.28677964e-07 -7.17765715e-07 -7.17765715e-07 -7.17765715e-07
      7.93349741e-08 7.93349741e-08 7.93349741e-08 1.73680533e-07
      1.73680533e-07 1.73680533e-07 -8.74284694e-07 -8.74284694e-07
      -8.74284694e-07 0. 0. 0. 0. 0. 0. 0. 0. 0. 0. 0. 0. 0. 0. 0. 0. 0.
      0. 0. 0. 0. 0. 0. 0. 0. 0. 0. 0. 0. 0. 0. 0. 0. 0. 0. 0. 0. 0. 0.
      0. 0. 0. 0. 0. 0. 0. 0. 0. 0. 0. 0. 0. 0. 0. 0. 0. 0. 0. 0. 0.
      -7.89186913e-07 -7.89186913e-07 -7.89186913e-07 3.38899724e-07
      3.38899724e-07 3.38899724e-07 1.62843605e-07 1.62843605e-07
      1.62843605e-07 -7.14820942e-07 -7.14820942e-07 -7.14820942e-07
      3.32293467e-07 3.32293467e-07 3.32293467e-07 -4.39823134e-06
      -4.39823134e-06 -4.39823134e-06 -5.23801509e-06 -5.23801509e-06
      -5.23801509e-06 -1.13992337e-05 -1.13992337e-05 -1.13992337e-05
      -1.62140532e-05 -1.62140532e-05 -1.62140532e-05 6.50638094e-06
      6.50638094e-06 6.50638094e-06 1.65687361e-05 1.65687361e-05
      1.65687361e-05 -2.50619869e-05 -2.50619869e-05 -2.50619869e-05
      -2.72640864e-05 -2.72640864e-05 -2.72640864e-05 2.92722984e-06
      2.92722984e-06 2.92722984e-06 5.30979878e-06 5.30979878e-06
      5.30979878e-06 -1.94734639e-06 -1.94734639e-06 -1.94734639e-06
      -2.33134915e-06 -2.33134915e-06 -2.33134915e-06 -2.29474267e-06
      -2.29474267e-06 -2.29474267e-06 -2.20024253e-06 -2.20024253e-06
      -2.20024253e-06 -2.26392490e-06 -2.26392490e-06 -2.26392490e-06
      -2.55437703e-06 -2.55437703e-06 -2.55437703e-06 -2.35251787e-06
      -2.35251787e-06 -2.35251787e-06 -2.35251787e-06 -2.35251787e-06
      -2.35251787e-06 -2.39619476e-06 -2.39619476e-06 -2.39619476e-06
      -2.30169462e-06 -2.30169462e-06 -2.30169462e-06 -2.14234888e-06
      -2.14234888e-06 -2.14234888e-06 -2.14234888e-06 -2.14234888e-06
      -2.14234888e-06 -1.78041751e-06 -1.78041751e-06 -1.78041751e-06
      -1.74381091e-06 -1.74381091e-06 -1.74381091e-06 -1.74381091e-06
      -1.74381091e-06 -1.74381091e-06 -1.78041751e-06 -1.78041751e-06
      -1.78041751e-06 -1.79573715e-06 -1.79573715e-06 -1.79573715e-06
      -1.84037117e-06 -1.84037117e-06 -1.84037117e-06 -1.72252396e-06
      -1.72252396e-06 -1.72252396e-06 -1.78041751e-06 -1.78041751e-06
      -1.78041751e-06 -2.16363583e-06 -2.16363583e-06 -2.16363583e-06
      -2.14234888e-06 -2.14234888e-06 -2.14234888e-06 -2.12106215e-06
      -2.12106215e-06 -2.12106215e-06 -2.15766863e-06 -2.15766863e-06
      -2.15766863e-06 -2.54088718e-06 -2.54088718e-06 -2.54088718e-06
      -1.83234363e-06 -1.83234363e-06 -1.83234363e-06 -1.70123701e-06
      -1.70123701e-06 -1.70123701e-06 -1.68591737e-06 -1.68591737e-06
      -1.68591737e-06 -1.52645362e-06 -1.52645362e-06 -1.52645362e-06
      -1.65756035e-06 -1.65756035e-06 -1.65756035e-06 -1.65756035e-06
      -1.65756035e-06 -1.65756035e-06 -1.78041751e-06 -1.78041751e-06
      -1.78041751e-06 -1.64931078e-06 -1.64931078e-06 -1.64931078e-06
      -1.55481075e-06 -1.55481075e-06 -1.55481075e-06 -1.64931078e-06
      -1.64931078e-06 -1.64931078e-06 -1.64931078e-06 -1.64931078e-06
      -1.64931078e-06 -1.64931078e-06 -1.64931078e-06 -1.64931078e-06
      -1.67059773e-06 -1.67059773e-06 -1.67059773e-06 -1.56902752e-06
      -1.56902752e-06 -1.56902752e-06 -1.45324054e-06 -1.45324054e-06
      -1.45324054e-06 -1.27955991e-06 -1.27955991e-06 -1.27955991e-06
      -1.22178460e-06 -1.22178460e-06 -1.22178460e-06 -1.47563026e-06
      -1.47563026e-06 -1.47563026e-06 -1.47563026e-06 -1.47563026e-06
      -1.47563026e-06 -1.49691721e-06 -1.49691721e-06 -1.49691721e-06
      -1.55481075e-06 -1.55481075e-06 -1.55481075e-06 -1.55481075e-06
      -1.55481075e-06 -1.55481075e-06 -1.55481075e-06 -1.55481075e-06
      -1.55481075e-06 -1.55481075e-06 -1.55481075e-06 -1.55481075e-06
      -1.74922718e-06 -1.74922718e-06 -1.74922718e-06 -1.57001216e-06
      -1.57001216e-06 -1.57001216e-06 -2.10574603e-06 -2.10574603e-06
      -2.10574603e-06 -1.66940401e-06 -1.66940401e-06 -1.66940401e-06
      -1.41658495e-06 -1.41658495e-06 -1.41658495e-06 -1.61845514e-06
      -1.61845514e-06 -1.61845514e-06 -1.51413502e-07 -1.51413502e-07
      -1.51413502e-07 5.46645924e-06 5.46645924e-06 5.46645924e-06
      4.63690594e-05 4.63690594e-05 4.63690594e-05 3.05921458e-06
      3.05921458e-06 3.05921458e-06 -1.96755282e-05 -1.96755282e-05
      -1.96755282e-05 4.98640453e-08 4.98640453e-08 4.98640453e-08
      -2.47906058e-07 -2.47906058e-07 -2.47906058e-07 -1.73612739e-06
      -1.73612739e-06 -1.73612739e-06 -5.70666032e-07 -5.70666032e-07
      -5.70666032e-07 1.15787017e-07 1.15787017e-07 1.15787017e-07 0. 0.
      0. 0. 0. 0. 0. 0. 0. 0. 0. 0. 0. 0. 0. 0. 0. 0. 0. 0. 0. 0. 0. 0.
      0. 0. 0. 0. 0. 0. 0. 0. 0. 0. 0. 0. 0. 0. 0. 0. 0. 0. 0. 0. 0. 0.
      0. 0. 0. 0. 0. 0. 0. 0. 0. 0. 0. 0. 0. 0. -2.37115756e-07
      -2.37115756e-07 -2.37115756e-07 3.18927476e-07 3.18927476e-07
      3.18927476e-07 -5.15079876e-07 -5.15079876e-07 -5.15079876e-07 0.
      0. 0. -1.82981000e-06 -1.82981000e-06 -1.82981000e-06
      2.14586507e-05 2.14586507e-05 2.14586507e-05 -7.39278767e-06
      -7.39278767e-06 -7.39278767e-06 -1.24819926e-05 -1.24819926e-05
      -1.24819926e-05 -1.46566144e-05 -1.46566144e-05 -1.46566144e-05
